{"config": {"n_embd": 16, "n_head": 4, "n_layer": 1, "block_size": 32, "vocab_size": 38, "uchars": [" ", "%", "(", ")", "+", "-", "0", "1", "2", "3", "4", "5", "6", "7", "8", "9", ":", "_", "a", "c", "d", "e", "g", "h", "i", "k", "l", "m", "n", "o", "p", "r", "s", "t", "u", "w", "y"], "BOS": 37}, "weights": {"wte": [[0.04652226430362701, -0.19010015661447038, 0.26375969483525563, -0.12104816901070233, -0.17453433362636936, -0.05728008947430926, -0.015704342235615187, 0.030887531543615787, 0.1494127535675021, 0.11782893335575374, -0.044829265823611984, -0.024480372306753827, -0.09901256359758129, 0.4477403925032916, 0.06748784979454275, 0.016864843697230184], [-0.09228581558320519, 0.11880695783253882, -0.061204387264438546, -0.08618834461161021, -0.0041229984339409935, -0.010788941578983826, -0.02899678688265932, 0.02766653720266613, -0.09432819654959068, -0.029616859003185593, 0.09857079934529486, 0.08684143453036698, 0.003193161186424759, 0.08912307385194193, -0.10332392596952293, 0.1322046146428914], [-0.10570869846154374, 0.020693009033350317, 0.030439337109174888, -0.04988988111224837, 0.12597586471935535, 0.047200348333663246, 0.037098314685102045, 0.0327570898248402, -0.11556308821648661, 0.075429703171579, -0.18720447245272043, -0.07337229044804947, -0.08029944622132837, -0.007171730636945181, -0.020859430688527515, 0.034641898545520126], [0.0017931790385941335, 0.1559580033455226, -0.002827623542876068, 0.054541274772319355, 0.05570260726337935, -0.03695030337897273, -0.03825706147992201, -0.020762183954594254, 0.09869636229540447, -0.08918359331514746, -0.06431026580289191, 0.11175840138494199, 0.09938612810685003, -0.022834371149410723, 0.03609946875210492, 0.029694728555020537], [-0.09241353697313064, 0.2147651884863523, 0.23181130786307638, -0.0718656639035649, -0.21062066108644684, 0.21375656913398983, 0.0871423315248565, -0.04882993975192275, -0.11315924481160552, 0.1950109932532439, -0.09347269216092866, 0.10135711367581646, -0.01806889208540364, -0.031603797700140955, 0.0482124913377683, 0.1089107654744273], [-0.040319223599512795, 0.04815236590154689, 0.24421355329232916, 0.00818275696677755, 0.08701073892098805, 0.12575393248212396, 0.128216075895186, 0.11259249109165165, 0.20837550976144467, -0.06936380154970664, 0.0655501365355252, 0.18849239844082025, -0.22875782623862437, 0.10022775055835702, 0.009727707511640267, -0.006087577556584437], [0.054919737939712956, 0.02500825825281253, 0.08044600127565603, 0.1670895365305894, -0.04851647541983504, 0.2219846721649552, -0.027481629682284483, -0.11342407520382203, 0.18638134069124349, -0.09142104393365756, 0.15617428931124328, -0.10234796892440672, 0.0346725448687194, 0.11865056654851816, 0.05641632145308764, 0.05514226601705676], [-0.016402665575092967, 0.1186105324911957, 0.019143490310739558, 0.030878490486741742, -0.004025660953402714, 0.11275775350992459, 0.12702914181709982, -0.013998026638774502, 0.17985341899304153, 0.05493966203712526, 0.129361135776337, -0.0392037418391063, 0.07076839780417667, -0.06054147425664763, 0.17046425181243652, 0.09820629564105984], [-0.10211860185545207, 0.15347140469957724, 0.08490361451514815, 0.08804847874430068, -0.09390592007122972, 0.050347841869827374, 0.06476536499272682, 0.14996888973502134, 0.07177704649947432, -0.019754726841170873, 0.13257820665410555, -0.041398066773823405, 0.014169257242787763, 0.007499687312016677, 0.13143708492068965, 0.06808495877820388], [-0.018576130908314236, 0.15599286363302906, 0.07760995390959546, 0.057007323937979304, -0.09672711920665429, 0.18752532683647888, 0.13502920799617607, -0.11257566640608711, 0.012677577625711258, -0.048364641779123044, 0.1280510399964995, 0.05724172309566268, 0.06517449723262715, -0.043306337751308224, 0.25455935336839025, 0.16387720470114467], [-0.015866398236212807, -0.03459227052341227, 0.19916389199656034, 0.08497566721911137, -0.012680925977775282, 0.11600746633390117, -0.009483021481036745, 0.13751747194414404, 0.008624752043523875, 0.16257051162429975, 0.14340233672854727, 0.013163554127270048, 0.0711502269045067, -0.02477948861244758, -0.10704948081118362, -0.06304593818196563], [-0.1216042048631019, 0.09531546339254972, 0.2253581807329833, 0.05973696883432783, 0.027270525730122324, 0.04831844663142267, -0.03600763223312579, -0.017433085870705155, 0.009663651742250808, 0.07406270082619885, 0.22563125015187174, -0.07845404213799709, 0.16593138325331186, -0.018111000853716152, -0.03191319491399962, -0.05691704012876557], [0.1502425180407531, 0.11276235073816514, 0.12631643818470584, 0.16348511529221282, 0.0471054465681497, 0.0616978520391099, -0.024125787840006404, -0.09042467754041765, 0.12345653090713868, 0.11226534019566942, 0.11454214237529871, -0.07169598372559881, -0.02184422581298138, -0.02791215594781927, 0.030963841342434024, 0.17649179734104292], [-0.012812444263607085, 0.06949677747345173, 0.11031526668840402, 0.14937679557925262, -0.08286067376439805, -0.05513831591856355, -0.06517477850898894, 0.05116728675628271, 0.05254631740589963, 0.07581555622028815, 0.13850872723756483, -0.07098249527164197, -0.08433536870227443, -0.002674392038197887, 0.12378744702682899, 0.17823017579668365], [0.1147680380521732, -0.02494302533540628, -0.002564485942127208, 0.10067006845990271, 0.07119859876968487, 0.15946128658716593, -0.017795443964253865, 0.003033573401700438, 0.008244194840957134, 0.16326656773701506, 0.08027607058691301, -0.07868560463643982, 0.063336767643922, 0.04086784336041772, 0.008003484775142592, 0.03053056237960637], [0.0636844836349712, -0.043895624160235285, -0.02516196348390465, 0.19768458934666702, 0.035242109948896906, 0.04149430630965835, 0.009926305328180516, 0.035101343123452776, 0.041301004962078655, 0.0878909829752683, 0.17979591278408322, 0.007094063567099125, -0.06748397483963087, 0.0043415435684332, 0.105661568285221, 0.11125652013173969], [0.07820773241010442, 0.0285490943136046, 0.06490800976304915, -0.0152233415341051, 0.02813318239478013, 0.040551111773204446, 0.017571429943285977, 0.03137128770127337, 0.16190739059273854, -0.01010485054343621, -0.02925185084596369, -0.08345166018523267, 0.025779772707473954, -0.0816666348367308, 0.026309847219431765, 0.011430417448177767], [-0.00645402455267269, -0.06011133548078545, -0.02675538750717492, 0.017808148780869, 0.13072479006839915, 0.07783538519969534, -0.06848195766817687, 0.06914543303060028, 0.03649279482995117, -0.04780260472719832, 0.004329978290136742, -0.011797130666358385, -0.10004342268091447, 0.06571745421110173, 0.1145423212878181, -0.035093058156766166], [-0.034468069217163326, -0.16715330342835083, -0.16247517032710576, 0.20527850055259592, 0.24227829249007354, -0.11946898478843077, 0.0975428928079701, -0.15474712421314776, -0.08733772817876735, -0.19050913490512916, 0.11587836117122927, 0.17728246721519836, -0.04279924270799486, -0.24301870778427195, -0.013100129915287381, -0.010824789864397248], [0.025547046951585037, 0.18561654780759157, -0.09915199277838746, -0.04098140824868128, 0.18053965607107783, 0.2696325057608231, -0.0892283525735691, 0.1472401246760087, -0.06794586353318373, -0.165716983703857, -0.09715714640787909, 0.10267520553649694, 0.07641298459583076, -0.04518989930962586, -0.17592850264227305, -0.12631959252212466], [0.05499858533172953, 0.2134832462454889, 0.060055761198638875, 0.11162405057911473, 0.07827822211979707, 0.14505367439708597, -0.019169485147168333, 0.3285623871215264, -0.10144640177199142, -0.14246027853475107, -0.03739917812432182, -0.1981502654016457, -0.10077260372083713, -0.2020721246918742, -0.046942807455654774, 0.0022012444623259004], [0.05044013840931949, -0.09714830665557407, -0.18199479596616294, 0.04125150069636334, -0.05931346486360754, -0.07511179562521936, 0.12443725020315648, -0.037970175730011366, 0.14476753181552077, -0.14591524208870105, 0.10450401050846758, 0.10642839625211412, -0.1533059685533922, 0.07037092054382953, -0.23207457623337086, 0.09538348526085914], [-0.06365288536116076, 0.00965273465455488, -0.045397668569958215, -0.1709361993810386, -0.0161228415620392, 0.09902114714398907, 0.15691010688726587, -0.058337109614643355, -0.01781690951332017, 0.02990815077428772, -0.0026167027712857283, -0.048751192989503096, 0.006704963224094914, 0.03315104575018376, 0.023260904279989583, -0.1811394215326504], [0.02247311678645176, -0.08842669790628964, -0.004903384287396406, -0.025872623340983104, -0.06975832156924003, -0.07366189116601848, 0.06333031967295225, 0.06765262289363631, 0.03144618841933004, -0.09472356396800649, 0.09846463861019208, -0.060843061444668174, -0.01216854031138301, 0.0011327989100721266, -0.010590261377008015, -0.03300811780430384], [0.09914901561262367, 0.003152888341847206, -0.0425070151682941, 0.22086348526960753, -0.08627248801488577, -0.15571524663867284, -0.190151272215858, -0.13109688879599757, 0.2347573991170801, -0.1790469827362972, 0.29801487450320757, 0.12637465984276042, 0.06395313469280253, -0.02134155689921541, 0.06027685063701018, 0.2159303971076829], [0.09291185069922817, 0.1238860679998262, -0.36701479981088314, -0.29529988591207407, 0.26065326244407083, -0.344514968329925, 0.006474809700649816, -0.17434950223146406, 0.028166060365120215, 0.3280276203249295, -0.27185775002557455, -0.42933386145442737, 0.17809367328472692, 0.2275598313249349, 0.23132877604658766, 0.07805072853138843], [0.013793161167802137, 0.2801035327820435, 0.23648710559918093, 0.016843232651381584, -0.010364338182765812, -0.022498116784520024, 0.007093622144636858, -0.10922994476618607, -0.15859218188761645, -0.113004383672759, -0.08104671463766203, -0.10969088235468491, -0.07663774093668863, -0.0980965199243831, -0.01081612328382378, -0.18735282849255006], [-0.006876287661397399, -0.05689395790156282, -0.039074706534631284, -0.11693586549990054, -0.10603762043723607, -0.11361352524846464, 0.2244780591027118, 0.07398815053677636, 0.018299608151968544, 0.16085573477408896, -0.07261538720475756, 0.0877809717479997, 0.22656463040936062, -0.07801910529098854, -0.02590853383737866, 0.014801078819175141], [0.0022686574719638073, 0.06902013935218787, 0.05264297549567202, 0.05570423505939811, 0.027352019862978704, 0.03441299143924883, 0.019129046952582406, 0.058769124817265414, -0.07518271484670906, -0.07709555079049772, -0.03519731162840435, -0.011135621836068765, 0.05189019130611021, 0.0013274105483043054, -0.04728279971835635, -0.05247367197262983], [-0.06189959644228736, -0.22904732849916615, -0.13513443841548559, 0.12173488967622641, 0.2861627193555779, -0.03492325021864616, 0.008234678422370178, -0.05019435033397114, -0.18328603645822053, -0.14526417820040233, 0.06854634733086604, 0.24597773130197365, -0.14119742412738687, -0.2352467453248583, 0.14722760040533395, -0.1640984106908468], [0.16453911468175875, -0.00503370548513312, -0.00888617640179292, -0.09995862738094086, -0.06748073971250997, -0.054272794295840046, 0.07006842830930197, 0.10017412928973624, -0.03098108185151499, 0.028947630889775797, 0.03041037678203668, -0.06503840142925153, -0.1460387562214425, 0.08066248335332882, -0.11068003461188014, -0.03347578003745926], [-0.16306383163710278, -0.025027987275314575, -0.09367403662708748, -0.14870927880921447, 0.1685857603391986, -0.13847422374006185, 0.16434808029108708, -0.0075617624454043355, -0.1409682662246707, 0.12269532352199111, -0.26240702591684933, -0.24273137445789494, -0.3536459108017434, -0.07594290628991598, 0.044388291504672314, -0.2032857890038538], [0.07548915399742337, -0.25575028342830375, 0.11410303710630065, -0.0007823081576861289, -0.018217622502875546, 0.07263052830701179, -0.0725235130797545, -0.26981825730147485, -0.07347399506681453, -0.12179614307501865, -0.048867948398794624, 0.21830109350053167, 0.108338112659966, -0.14964148413631273, -0.140478354572153, 0.11005841938349847], [-0.26173805856599147, -0.17943736845888866, -0.20330482653748608, -0.10414059143240859, -0.19735232237809236, -0.08445552503145605, 0.15027433200993054, -0.1705095642048899, 0.14767699284609698, 0.06359483838448399, -0.07444150271313932, 0.050199846965257366, -0.18916569177691495, -0.03951836023495281, 0.07328728030300584, 0.2303548070166666], [-0.12066325530698956, -0.054588498920550205, 0.05143557946189551, -0.024893848767306315, -0.09102582812200613, 0.01551130410319911, -0.10996028905209648, -0.03797759496576561, -0.024513677709797035, 0.05453346756319127, 0.13204245448071414, -0.17248528627733975, 0.03209313916825589, -0.07729023833711443, -0.03245390059496562, -0.09746456296253246], [0.15740577556173652, 0.14656398303910886, -0.07997789509605407, 0.0388661167175672, 0.20933457927116308, -0.06423330995783177, -0.21108461371241372, 0.1327889320541063, -0.34634239327778854, -0.1586937401344474, -0.01342506642149826, -0.15933414071838023, -0.07323754083030566, -0.1513475400353247, 0.0071003705832745085, -0.2527573329810779], [0.004197793879759284, 0.1531183129342752, 0.05320562304899094, -0.07676403435696796, 0.19185810525249913, 0.06871583633244907, -0.03630665584885612, 0.08714875807547727, 0.09123287958452243, -0.09072980866905063, 0.04023204731790751, 0.0020729987515939376, 0.10624282352826742, -0.1745895480270123, 0.007887197180461379, 0.0073886341125050424], [-0.187733132330378, -0.13148992280968094, -0.1484243886390824, -0.05895173403364012, -0.018642201068819746, 0.24371053112637303, -0.05763161291555349, -0.07914540329737865, 0.033422211392329496, 0.12492093010734913, 0.06089164331964984, -0.01711716510532242, -0.15239452227264477, -0.03891073016121748, -0.19476428266203352, -0.07376391569476574]], "wpe": [[-0.150479896159003, 0.0157326126452566, -0.07340817347494358, -0.2597619444463741, 0.048142321559652465, 0.13336322661151512, 0.0038638444707035776, 0.07874706043541105, 0.015380687127052985, 0.12104201064534595, 0.05653120058054089, -0.14080588641391956, -0.09656789316171795, -0.1456399149862987, -0.09014487140463329, -0.019022024726799775], [0.15371199833283794, -0.20519331287245599, 0.10585378177381018, -0.06314839681157834, 0.1897113082742316, 0.14825187267478712, -0.19812783990451135, 0.06696778718214721, 0.010862720561451877, -0.1495483865399702, -0.11888146836841165, -0.2040286777622848, 0.10103890863830511, -0.0913592245605902, -0.12382022242557134, 0.23942290602966182], [-0.11165198878180083, -0.17124852629092996, -0.21632494488936324, 0.03283988561326117, -0.02776467675260616, -0.23509808966741894, 0.05548692297382207, 0.023323817343746535, -0.1397483597360462, -0.014327498176080158, -0.14686654697388993, 0.25107785892675, -0.19364900283706815, -0.16630780879413345, 0.0788079807936664, -0.04521396354699977], [-0.043123814572177566, -0.01332812415065037, 0.2733208678973459, 0.06447697823484387, -0.31615190043379304, 0.17716735536045075, 0.2302925081015908, -0.0850480387831967, 0.28824223183668085, -0.00537427206357823, 0.1359546792479452, 0.14573070928294699, -0.21533203832185238, 0.008677863578908618, 0.29130417936802727, 0.06245890743831488], [-0.11491102305299146, 0.10426298294117237, 0.07264380250948252, 0.06769671764883926, -0.0741642521949338, 0.06230096797346607, 0.2534259172878487, -0.0494290814122324, 0.1040798756257977, -0.1365836818961939, -0.11876387637226872, -0.17875143385375833, -0.0010882512146852274, -0.008385892490602731, 0.289420316036993, -0.23096377276007712], [0.2804007668714976, 0.20345854889339066, -0.13855693402921745, 0.07151568117844978, 0.25429840698425443, -0.06089068841708688, -0.2755389546992772, 0.0627174327173888, -0.23578858508523468, -0.1959352475712, -0.008954991095228935, -0.15041316639389335, 0.09104910834813679, -0.15937896128029685, 0.10864313870228827, -0.07761153544259641], [0.3494570993615459, -0.04678425953923398, -0.29932489161833353, 0.023450968687210735, 0.22680280563647345, 0.1093348248432934, -0.29319067428812073, -0.28075004943412685, -0.07326594090428383, 0.06698472514871912, 0.08611702338431668, 0.09305960683085684, 0.27077034022265994, -0.25752916564674655, 0.16431948991386056, 0.18732372670240993], [-0.04687504587639608, -0.35325871750921456, 0.03446785335350082, -0.09990699984833551, 0.042184621865276405, -0.017473472362935647, -0.09946194615363804, -0.08612904848000347, 0.13421637872266076, -0.08272796407331354, 0.15156194664396555, 0.11983881347472858, 0.1929965336125341, 0.04960657306718434, -0.12553706222950614, 0.2036170709670061], [-0.007893661932770161, -0.21329855479436055, -0.2059694804344213, -0.09590840156276727, -0.13007327982841263, -0.14951650469171562, -0.09791524081065685, -0.0696007775570843, 0.08897188333683582, -0.07382287595222242, 0.04193211127665595, 0.1470067683962644, 0.015972211033219604, 0.008375840904628343, -0.03093605680820568, 0.18333952405796092], [0.03409062311830948, -0.07137558032399091, -0.23745234470811594, -0.0667697732537094, -0.07365879439391085, -0.20134321609086792, -0.018112606974148758, -0.18431637762035785, 0.0595731640958659, -0.027625695080852407, -0.04837815396676309, 0.09131622583215918, -0.13414897361969846, 0.06930662086961502, -0.04870998756211983, 0.022170397924122096], [0.025242054312253487, -0.08532615065944527, -0.07862367191244973, -0.04495504484435859, 0.008956713614253823, -0.1565880884987336, -0.05744521765815533, -0.0757800191330084, -0.06040363406967511, 0.019245383712812942, 0.07761477066307942, -0.041242998074880646, 0.04219120787518905, 0.04027596123450783, -0.017073968439161195, -0.13348183722584922], [0.026611456051806082, -0.0057827192408794305, 0.0008790966620780667, -0.24726644659845143, -0.07234846446582115, -0.117232231616409, -0.06678200628669537, 0.07638873424729084, -0.18458242256117785, 0.1629712554133743, -0.1231398963737543, -0.03424394481616581, 0.24882544951753502, -0.018171074376520772, -0.09004310569263477, -0.0742400266054584], [0.03271555381044822, -0.1294220631780147, -0.04391739659421618, -0.10860565436984014, -0.12666776414323477, -0.010367983101052036, -0.01532688787138044, -0.025255373167190294, -0.20133135909631722, 0.226257785826473, -0.09805959086547845, 0.1160790194841508, 0.14084850584628023, 0.2449670551461622, 0.2736359022928906, -0.11678045643141777], [-0.04983474233971958, -0.03877517645682404, 0.10115951539078782, -0.003907891222200131, -0.08078503003730313, -0.06308100182860035, -0.0847795721950714, -0.014839649172155273, -0.06089108153054899, 0.03731805770612766, -0.04572123529873089, 0.028944381713030338, 0.002921861992890189, -0.05524290512570949, 0.21871068824909567, -0.0014935349253518747], [0.14537451902070506, -0.08061952415338557, -0.08826752094022493, -0.07609180301480253, 0.11941522264014218, -0.17622525627340033, -0.259121502158813, 0.13595413295231393, -0.14032349470606312, 0.1346549603511493, 0.08876287282418499, -0.016829391625384618, 0.005983324111602102, 0.08939655291886443, 0.13408738276489762, 0.04277650957378421], [0.06172143021070906, 0.046620075093200826, 0.05470549817813744, -0.02626744482309039, -0.08044945183285983, -0.13443293930558217, 0.052996763318962734, 0.13302683759386805, -0.02646977482101727, 0.017340983942197907, 0.008493677290175779, -0.12736384525457664, 0.01847494188285496, 0.0018774110155109901, 0.025965337320669316, -0.023145195652429302], [-0.058544362798567715, 0.13221370109722874, -0.0013205803731478674, 0.05214894052559263, 0.0006910770209311891, 0.05763160378496526, -0.003086697558554233, 0.09244651134455618, -0.05987799065440109, 0.017615604225797225, -0.12667595242878849, 0.04650335253666925, -0.05547395909913511, -0.003212387059066354, 0.07596105962448664, -0.06559948158045549], [0.02907108050222132, 0.062296162852915254, -0.008229928611253025, 0.008685472086083753, 0.06409286935779956, -0.017750904745242213, 0.24784729629174218, 0.06887949501623367, 0.1489272802339266, 0.0544214249441175, 0.08525739890216849, -0.17322883865429947, 0.03128713011426632, 0.020803679638775524, 0.10878937149096306, 0.10357943625023508], [0.029817780218112058, 0.057762676360149146, 0.00721577077236354, 0.0530350222066733, -0.07107915248557477, 0.11814311215693951, -0.05774993133733269, -0.11883632990153511, -0.03792705614386761, 0.08606417017140969, 0.06918465986626582, -0.18184194858888547, 0.07681285238762359, 0.0074747015043839125, 0.1732194710702897, 0.00823129764634872], [0.1052850229934369, 0.05702025117564409, 0.1206553813354422, 0.24277295122534778, 0.1492505638220711, 0.04449952138600066, 0.07990001344606833, 0.03261094332735039, -0.28852530771713786, 0.1637269904714952, -0.015489642523153666, -0.08218660369010183, 0.04951306840479198, -0.11562910434160009, -0.21828707751141274, -0.06697333846417479], [-0.006022588760025843, 0.22383523119473045, 0.17650960554201892, -0.014542912487852196, 0.05045313317836804, 0.11843251310881862, 0.05622745956068207, 0.1134919867625703, -0.0337487507220726, -0.06253158737280308, 0.0034706376705057732, -0.151503504816305, -0.16410364880919304, -0.03834881960406915, 0.14144731914647382, -0.009486987046636745], [-0.06355623185872444, 0.18049374209122687, 0.023373402694843445, 0.04184153808782311, -0.03874058489094417, 0.06128656373629087, 0.12967617846284094, 0.06890052163270323, 0.14932822546184943, -0.06657879311747064, -0.0177512881440317, -0.08148569269158991, -0.19109820051495693, 0.02774197517582451, 0.09298710304385518, 0.07571829965605988], [-0.0025615463002278383, -0.028327153601554945, 0.15365038854263335, 0.38714958999225585, -0.019148095914866405, 0.18061891210037126, 0.2683560071652015, 0.0517341802926513, 0.030155350799119185, 0.09405304126774003, 0.059236263783365446, 0.08795494678197031, -0.05235094361187869, -0.070250494308775, 0.038845876016162524, -0.16941489448814365], [-0.021446740629087656, -0.048340734803052406, 0.21338441249162865, 0.07037149368664994, 0.005170672229082542, 0.14626524686338166, 0.22377563526988276, -0.05715749359480471, 0.04499016310629993, 0.08743079782716044, 0.13984370319677825, -0.09112445017043176, 0.06743469410075315, 0.07966789319984274, -0.0412602867686763, -0.11672809913357218], [-0.11337020669460415, -0.0742343559445229, 0.15537953140615415, 0.06791682981961861, -0.15763348845126116, 0.13299021941010056, 0.07657401495766994, 0.1223067273808183, 0.2364736581523509, -0.0404050746420955, -0.06451099343120265, -0.07582133564086774, -0.11192295235397966, -0.09791730410867573, 0.11118416340092216, -0.018640397286251095], [-0.13363311494851088, 0.12056217600835845, 0.14200881883904604, -0.03789901468142404, -0.05259240855083008, 0.24538439829370268, 0.10193452917252849, 0.09086772351473504, 0.19786000344075566, -0.08100309931986684, -0.06864334327846049, 0.054916074280082015, -0.07148400251986695, 0.0124166046662452, 0.06834417740911766, -0.11741779902415408], [-0.040668127948550514, 0.03455381891367729, -0.03762637678786799, -0.032736308798222, 0.19117797448648305, 0.15792047961198138, -0.07876793921338153, 0.283642003648517, 0.13384429658353578, -0.1544835154444378, 0.06341358411815276, 0.22233802301364852, 0.07772417682892736, 0.19584661264304326, -0.04159685380887284, 0.037104495766627346], [-0.1507457784956576, 0.056221735501445665, 0.08805803784674011, 0.04392998214522757, 0.07919801986699862, 0.216939906883134, 0.13786110814026156, 0.1484025790385204, 0.006305157319175937, -0.07944920741087817, -0.16545077357227295, 0.01027418853808277, -0.10178499600227382, 0.18238202133251805, 0.023507244497545328, 0.07625565132195601], [0.04360336330875394, 0.02213951326313799, 0.038078125410237466, 0.15505551144463042, -0.29877043084779564, 0.04890380757786583, 0.204184112867174, 0.026683746452908857, 0.222753824664188, -0.16118666090645098, -0.10905258525262285, -0.023745814311803545, 0.22715885913452652, -0.12505277425071737, 0.05097956032681054, 0.1340269450426671], [-0.1272941953823067, 0.10705297979049784, -0.14188059972323752, 0.051011509527196845, -0.038024986201250804, 0.04059636956157212, 0.04730551657667387, 0.1185059486783274, -0.045648484736023856, -0.20528510279892503, -0.03250577916879594, 0.028553608419726987, -0.1814762037070885, 0.20680020140193414, -0.1376307212937377, 0.22214552929084552], [0.0340610839947717, -0.06657299599286942, -0.1439320336439009, -0.05586187733296592, 0.03920027286156658, 0.2099837107671292, -0.03118890950454408, 0.19984498911266094, 0.12096347868450118, -0.20085131770369896, 0.07534260781396276, 0.15257565902265516, 0.08132592567562573, 0.14263570786153323, -0.09368470052803549, 0.1339783942856272], [-0.020829795328009063, 0.05280080415088069, -0.16787949570475838, -0.007855680475840161, 0.08857356463653653, 0.20707775528710418, -0.014779177462709864, 0.03863199140638308, 0.134263299249384, -0.05512033499069914, -0.1549666999840153, 0.041311898710511594, -0.0883490101942952, -0.09661905641477289, -0.20372005244600364, 0.06771937554988072]], "lm_head": [[0.0827157480670673, 0.23299692718707593, -0.14991830724244473, 0.06237218380852101, 0.1740354680009673, -0.14402377441767533, -0.09554455955130077, 0.24607120492187157, -0.21436213786752623, -0.26089059793350355, -0.03597933282327356, -0.28905804487573855, 0.030195409478186677, -0.2972776265387296, 0.08752878447817926, -0.3123597486591289], [0.04350086481713165, -0.0774962970446515, -0.2620754901957953, -0.23420788678192223, -0.10854979372129082, -0.12651748916042665, 0.1324733994522709, -0.17887190961704674, 0.19057361806922593, 0.2384398249650837, -0.27731981225037605, 0.20101134685951572, 0.1771657251207229, -0.2788621711362481, -0.4488871124709153, 0.1878280954564968], [0.03518821071822668, -0.14715037155846422, -0.2416175749718064, -0.2319481849134063, -0.06556017332607593, -0.10309631353909102, 0.13413644580339326, -0.21238977894036498, 0.16319128494019333, 0.2074087488544714, -0.26838630915232514, 0.2850472667781861, 0.1600810986948522, -0.18363036690483822, -0.3842014678853774, 0.09947998851336043], [0.03990785931490025, -0.18738628128496623, -0.2399518180726329, -0.19685040328417647, -0.15636952495892045, -0.06779664637586554, 0.05899711610130707, -0.20666978559484753, 0.23412459439769176, 0.2031410521271354, -0.36997310720910315, 0.24406180452490045, 0.212988930268957, -0.28847891520564994, -0.24171877667357852, 0.1560846713282217], [0.045221463433407966, -0.2647965410609141, 0.00013401066482833792, -0.2703088749025773, -0.26249543394102215, -0.17330904950602644, 0.014375974210600955, -0.3141929398340941, -0.0405903354891795, 0.25887645216831695, -0.10062147927854546, -0.00884139377966524, 0.13636134107757863, 0.13949883732468651, -0.21982733675700972, 0.142176852713129], [0.14404031262461625, -0.3140734718586989, 0.07198739788571833, -0.4071290543937796, -0.2834764412102418, -0.37122602109135994, -0.022536892910122612, 0.024909774510407684, 0.03215010774123345, 0.3473888553234965, -0.23238048534437186, -0.22668073104889597, 0.24171563688172104, 0.3240891341764867, -0.21802823812202726, -0.04157599101003581], [-0.011357006031528945, 0.20225612013512187, -0.10903386278300023, 0.11927108996412124, 0.05528713573109934, 0.08474631478983374, 0.21148771241245093, 0.1621763893627938, 0.22598517927303693, -0.07385940907413566, 0.1419564191926068, -0.202277657853409, 0.11641937722699718, -0.17883684643959444, 0.14570407825826515, 0.12787577623923188], [0.03208693906501867, 0.15160953975649624, 0.25452762260966927, -0.11331877710260106, -0.23176706882138007, -0.002104147729959076, 0.055194496232104644, 0.1787353019385177, 0.03731202813682038, -0.006982980832725678, -0.04128737649417972, -0.08596614469521834, -0.16833941601816216, 0.19945441756538626, 0.06466836449426891, 0.020592321820112804], [-0.16127373445344617, 0.0081965949112875, 0.11002894026642475, 0.12332967985204325, -0.13859726564950914, 0.10971379892807609, 0.06529672325919603, 0.07044326256048192, 0.08433951750665052, 0.050024758811799526, -0.03672773467984858, 0.19856143249097488, -0.1542048409245404, 0.3698290306853969, 0.18259377585695566, -0.03281771441509896], [-0.01767269153787166, 0.1366574864732956, 0.2027730290707866, -0.006730503958752856, -0.0618017820999251, 0.03823859378914169, 0.17521252243343327, 0.0929662524913135, 0.17345262413587742, -0.12153879120909958, 0.014744556440653454, 0.15859213181616094, -0.05526917844415084, 0.0973724484722611, 0.03498828670326732, -0.12814348976928083], [0.01512438462756593, -0.044986209527335085, 0.06481593663617709, 0.21559615372597268, -0.0761292412781225, 0.043230080002064755, 0.12758171541023805, 0.015639311454512667, 0.22940808178516525, -0.15557645395010583, 0.12515299728068055, -0.04399787199276299, -0.06397333087013178, 0.03969230513037531, 0.07086054112200327, -0.06136931645850584], [-0.022878802200449907, 0.10422355815701456, 0.07453407155151637, 0.09597016771189053, 0.00832286763469414, 0.02066441322684415, 0.2183115439069421, 0.03770926687508488, 0.2033050124043893, -0.05711345740440852, 0.10380409011013574, -0.07074177073677348, -0.02271165370344388, 0.051915905283169236, 0.13806957944801912, 0.062469565470548716], [-0.1487329681267681, 0.1474614260485939, 0.18870017422421476, 0.07955346569470387, -0.12282914949656579, 0.022730803546623424, 0.03155365433844872, 0.11980210064750214, 0.028042041461320548, -0.008354578006790337, 0.07179105297297277, -0.041183438199230024, 0.0854980139951101, -0.09746308058716387, 0.1267126616497622, -0.0027790521501367513], [-0.06307761334866294, 0.09525736779333395, 0.16526696849794117, 0.07011089445665394, -0.18543768330204918, 0.09042729080560619, 0.02075221482871892, 0.04485009393217935, 0.09880873053576063, 0.036874196003195546, 0.07964404085976814, -0.07492678097449698, -0.036864429594897684, 0.011156747983790485, 0.017424538592818874, -0.06876400641546444], [-0.06460188237735216, 0.08888035664539644, 0.15323326215960176, 0.06159021213404739, -0.2523880665584822, 0.23010908185876028, 0.060417357916957216, -0.016606230649690915, 0.029453339363182753, -0.050783993557676904, 0.007110312313086856, -0.03261514478478341, -0.017951749431740466, -0.04966102038724953, 0.12353021352826546, 0.04198853440601553], [-0.02760862310946164, 0.08621435703560973, 0.13643117085036072, -0.07930302569462173, -0.13309954716873548, 0.0773481501256054, 0.056393610268077564, -0.08417541582740058, 0.006188409259364784, -0.07051788556056983, 0.10370493388668772, -0.15391182016848934, -0.10044260154507922, -0.06552524415219134, 0.12645233920375382, 0.005691182506621314], [0.0864922201513388, -0.2239569953997625, -0.38377632634260467, -0.11678837818053509, -0.12537983916858136, -0.15147725098785966, 0.2504511939860024, -0.03147309021678168, 0.1035170404053229, 0.18918748100572036, -0.3097287515888684, 0.28695102285421553, 0.19323250753731253, -0.18937774557774467, -0.33289433092761145, 0.08536953341014468], [0.058683304563162605, -0.22894936603526325, -0.35344429310096054, -0.11610869806630214, -0.16553919126422453, -0.12147628266784077, 0.10303571605875145, -0.02302653269124159, 0.22486472224558626, 0.036874849567515626, -0.3684940272892878, 0.25168366521019964, -0.03994664940270357, -0.14133781800931966, -0.3170085712749308, 0.12376235621599622], [0.019450297636990188, 0.12412672437284787, -0.33258721064100655, 0.0234161090641685, 0.18058376327438222, 0.08045360002038243, -0.15018118084871804, 0.10735740511888094, -0.24582162187248796, 0.06891475937757331, -0.34412857930471, 0.44092544612452933, 0.33914079417207377, 0.044541377514609896, -0.003996748679938314, -0.3140729421707499], [0.25816746676290037, -0.04721924292307578, -0.06649887880228715, 0.04306026876670188, -0.02356125852679498, -0.1170632944388963, -0.3984324153358505, -0.0659704655108704, -0.061298908208104345, 0.3432286825742799, 0.23581346741237894, -0.1212117038837406, 0.17724743758891112, 0.1081705971686822, 0.27425108185462754, 0.3330850797872899], [0.17147102797312477, 0.274209894094898, -0.2989812158623428, -0.2024259094536759, -0.14706961112959116, -0.31286750087929976, -0.13363266571825355, -0.4056089390723891, -0.16271515416087567, -0.19764368037973837, -0.08967582994986749, 0.0647753647898341, -0.11432238289798995, -0.14758876573905189, -0.04899971862836835, -0.15812233145974003], [-0.0009977338982103275, -0.14931850787328382, -0.3836887400131663, -0.2758275537784392, -0.09960797890970977, -0.05642014668172812, 0.39889624885221886, -0.16145919980507362, 0.3049068041258699, 0.0701201719565565, -0.21982021363122808, 0.2785319076661392, 0.04720978140982907, -0.13501990551507934, -0.2935646135220835, 0.29026284006291075], [0.1301212513237987, -0.20287351367902207, -0.15270509927606662, -0.31042092257390347, -0.034666030837731426, -0.18692363790642288, 0.2472713939613763, -0.16457042134597158, 0.23248456896142367, 0.23617245449410493, -0.24338644415171784, 0.35649925081877837, 0.18512403029164567, -0.27398705133969736, -0.3318460264180591, 0.1811716295669221], [0.10367562180454233, -0.2661755263647602, -0.12459399032651378, -0.13245169604304805, -0.12267994293539612, -0.1498963989365525, 0.18778024778084776, -0.25841887827801746, 0.1843373937872936, 0.27096420226350604, -0.37777244227327494, 0.2464527808957532, 0.08749596932894574, -0.30677880186055134, -0.44048453520924213, 0.17490087010757988], [-0.2980827945122804, -0.39974342082663433, -0.3995057674727869, -0.4286752553010808, -0.11016839735315544, -0.30150009216697304, -0.023488864433691043, -0.21217942670184367, 0.04813818171774186, 0.2384306982397746, -0.17870965094437893, -0.0031659568195834863, -0.26904811791850336, -0.1352061293344163, 0.16117207497244934, 0.07839829289464144], [0.21000085666758045, -0.010474624070033649, 0.16610788636041102, 0.5008678692404935, 0.2572236108434112, 0.03206896009989435, 0.18886469438833253, 0.0736790216255412, -0.21462096026676436, 0.3929885871228, 0.12068236980247775, -0.22400319407848673, 0.1110636827972463, -0.1596624210603193, -0.3780518117813138, 0.012356412038046587], [-0.11470849607846044, -0.31800296145452, -0.22837164327491347, 0.14359877669329615, 0.2304675724869144, -0.29267345750300766, -0.052008936704196713, 0.0363472357553432, -0.16274178604735687, -0.20773272526630876, -0.018515075460015677, 0.4129166272150633, -0.16247617197078376, -0.37845273376371535, 0.08496106200632397, 0.05679567898536862], [0.06127134238933089, -0.17463688470908745, -0.20447320969067026, -0.183853879460053, -0.29032975598742183, -0.170277346605413, 0.1784483725076057, -0.1876474791964143, 0.1993831407527312, 0.1643774167844009, -0.2251765795960423, 0.25983121436892276, 0.06478627192033123, -0.1353907338992852, -0.052442133477523335, 0.23716222485941163], [0.07062175367043694, -0.18053643445720796, -0.22450808477221176, -0.07750771559328283, -0.20997548274760416, -0.16377654284163023, -0.06288256779658352, -0.2183517633332714, 0.32121157414077967, 0.19153786993455768, -0.1942167389808772, 0.15358249039042973, 0.08552741378791655, -0.2575973914835486, -0.33882498386396936, 0.17249169038550402], [0.14994588869573028, -0.30292060097503376, 0.04368091251042454, -0.040737351513106, 0.1546941581636086, 0.1376819543995974, -0.2691398414739479, -0.021003002335524438, -0.0031916703282579995, -0.2673495251955332, 0.038169920154116736, 0.19744523922665344, 0.23917290407630487, -0.3353710786397892, -0.17886630564276945, 0.2581011024042213], [0.0972885989712979, -0.21794459192719032, -0.2910929465921639, -0.1790210650642899, -0.006621853853892596, -0.12900810432988039, 0.23189984408867004, -0.29927298123678353, 0.24924257841401642, 0.1714590637207836, -0.3882569851787283, 0.3086314073214839, 0.2507486747028631, -0.22879871473505362, -0.21983348242346873, 0.15511411610916173], [-0.026613551266102525, -0.008552572608071029, -0.10090239856969183, 0.03852820557608507, 0.19790606778030143, 0.2687009506183312, -0.07980516064574258, 0.2672725303601094, 0.21778520496081086, -0.24548182352336848, 0.28739386592037663, 0.16348363025142146, 0.22013747134196388, 0.06694640527115941, -0.09868070352653918, 0.18592583080883635], [-0.37939310647460583, -0.15946456807826687, -0.17848754770022401, -0.4088277804343051, 0.06392452489618991, 0.3389861589799545, -0.29187596640490293, 0.08483627626747059, 0.07123815387349075, 0.21400809491022418, 0.04733617405078146, -0.05896597361098651, -0.13270100566445425, -0.37884457248641734, -0.3067797265575127, -0.17163787147476775], [0.229854460700665, -0.2497338792217558, -0.45065201071969674, 0.06268025977265602, -0.2797298255205017, -0.3264028632716615, -0.08249816308727909, -0.18436566469848714, 0.46575685620197926, -0.23491031622308736, 0.2267620815925476, 0.2729058914118205, 0.04086767336749443, -0.10750107764318202, -0.16646693603113613, 0.15724145376572338], [0.023028494544115, 0.018689392630509612, -0.24023888982675304, -0.11147853839116, -0.02586639443846491, -0.0007409680927570806, 0.02984635022010423, -0.06440984906434594, 0.045769730390920575, 0.065651771227785, -0.19999328485518444, 0.07879336512704979, 0.10674101070026709, -0.2328907930896828, -0.2938125651036589, 0.19073572274420067], [-0.024640103349555135, 0.13710746051945275, -0.49924684362773547, -0.327021520723703, 0.4304911221325879, -0.3092003536674487, 0.14650551436605386, -0.1953133883395875, 0.12680105510087458, 0.38578633920222033, -0.4720108214241423, -0.3716971251270982, 0.1389464641362418, 0.12383362358665927, 0.11498858869464544, 0.07659636245833115], [0.11625076950913475, -0.1787772734143812, -0.3282662401133909, -0.19413963367431503, -0.1324316554250933, -0.10139115683172115, 0.18294662471203135, -0.12054215159164212, 0.16028141796453013, 0.1539181709414223, -0.31101304242614963, 0.2621082034872806, 0.14947739913035452, -0.23997668435527153, -0.38898108309666285, 0.14781032686488793], [-0.20347305529601792, -0.0006395155601207986, -0.28181191709346604, -0.2764730723659214, 0.37882290006593433, -0.020375368934416074, 0.279437003615342, 0.15219448238170713, 0.00917631117078179, -0.05641644739882842, -0.5237194341030857, -0.16506647061295543, -0.36600818703566035, -0.04166074752566337, -0.22844972220448828, -0.22138847931297165]], "layer0.attn_wq": [[0.006882561969934187, -0.20070156211998585, 0.06667637765636303, 0.3202985256115633, 0.0032531903492616786, 0.04130437315637318, -0.14075419462285851, 0.12859103652223605, 0.04414331156842438, -0.04514387149815837, 0.2544022740404315, 0.26978119897204245, -0.052078487167665465, 0.0715860604361348, 0.05089603400752498, 0.2135126367178394], [-0.0007155000433504646, 0.04586272604489601, -0.09022686454463029, -0.09623016553637331, -0.01697136793097732, -0.04777963538909114, -0.13569795407488064, 0.25886503392567073, 0.19059539744289622, -0.05768216504477711, -0.3567262217005756, 0.05930227983299894, -0.14027160040618017, 0.11184627512158578, -0.08294971423246966, 0.1286559824385552], [-0.03742498257213487, -0.13988044984916265, -0.06268368619720066, 0.20136957257203966, -0.143910438534551, 0.06682819690460141, 0.02858394017406779, -0.16489379110310276, 0.3043140745525152, -0.17490416049833693, 0.3311881468423488, 0.07170015667577415, -0.1653347417958689, -0.17133223936207356, -0.23066539951806814, 0.3332172131881836], [0.054773602770078124, 0.05286394841856251, 0.055184134235862964, 0.037878481120508, 0.06478471440046732, 0.09531789109773976, 0.09360298143679123, 0.03942589818326688, -0.08604263733158778, 0.08930893022351874, -0.05938435337158057, -0.05254599962067767, 0.17363723620339847, 0.17365959077842136, 0.2463387319581731, -0.3567604073384265], [-0.11976559870214441, 0.16642143103465792, -0.11793647325275565, 0.008420678216612191, 0.2830576245859326, -0.256539793261797, -0.05681272967437966, -0.05952280692133184, -0.1595834298012824, -0.09129168328120332, -0.1781679752141212, 0.047113326041204155, -0.12385662669720925, -0.11793354882217433, 0.09140413040731041, 0.0723228461103447], [-0.06484238014757472, -0.02689891022374781, 0.06662662535733804, -0.05156672931952143, -0.0456572075842131, 0.05815836368171135, -0.02418308091456914, 0.08818102353924268, 0.18731689039593613, -0.18410372338733752, -0.2905459975582532, -0.12439132638651244, -0.04182598470872855, -0.00048830622566201, 0.050799268018875604, 0.12498087708342204], [0.15171111902434048, -0.09045799631792041, 0.17899131162724458, 0.08295706731002575, 0.19085021469793967, 0.04913087201959699, -0.22224930924694897, -0.02312742312485365, -0.12049682908329895, -0.007781700016743563, 0.13438289322473923, -0.17592380256684995, 0.11177433984420075, 0.21725356535968027, -0.050617742793478526, 0.09184379477475174], [-0.042024956334445654, 0.10411024023822102, -0.07402650038106104, -0.27343812257557704, -0.13069243199785383, 0.024152843047827964, 0.14714570922804412, -0.1452376215054133, 0.16030627070830017, -0.14425721363382635, -0.252566531613775, 0.008967753090823778, -0.09599609088384002, -0.08075714144879367, 0.10121204646443253, 0.0069489200951491255], [0.03349157034303789, 0.1385873321191277, 0.0806276082705544, 0.2374198552875813, -0.18334232218653168, -0.07387374596247487, -0.025827377701024633, 0.037494939927754684, -0.014168595327512256, 0.007644520370633131, 0.2632612230890905, -0.20331711401359498, -0.21485619975976122, -0.05874619418301854, 0.279807480217969, -0.11342496043994098], [-0.05137166116624608, -0.044327088107934245, 0.15817660105679687, 0.17102506246797883, 0.0066894855497657574, 0.15229802909691795, 0.13345508682388726, 0.00680310797702136, 0.32004365526711276, -0.13854987219346446, 0.05764746678222118, 0.07847991434817071, -0.10438783373017121, 0.06606347734513342, 0.23008686476432638, 0.14655792502617318], [-0.10070886555246303, 0.049038732356305514, 0.2697038738632972, 0.07039578958745007, -0.03073053599697204, 0.057476306380797586, 0.1597826596285258, 0.07067011360214151, 0.24388765208630783, -0.06262447598368204, 0.3048867577136456, -0.022557307163488777, 0.12680383966638364, -0.042431529783786955, 0.20551862491926626, 0.062390492950364244], [0.02386145316550209, -0.05710484612787095, -0.06099987809815821, 0.05550185443388185, 0.09698594172927014, -0.07955111937805145, 0.16883280134197762, 0.0799843323305066, 0.07128391885464004, -0.25762821360468596, -0.11264970386508702, -0.08759505022197239, 0.12042506295405922, 0.145470472421586, -0.14137220241148266, 0.3872494559472789], [-0.13290638872252802, 0.2101471178246984, 0.17634257485035515, 0.17099810335909288, -0.22553780772078405, 0.07777785059253592, -0.014523770773519774, 0.027431214056417807, 0.2240506607936177, 0.058903717821123344, 0.23602728040405238, -0.11845234222777551, 0.1208115714007279, 0.09898302030535538, -0.08924626499978683, 0.1942085323881905], [0.0555894743041768, -0.14613897073677, -0.10187891433658859, -0.18923214472220665, -0.06125853993571998, 0.021974362643518906, 0.15219943390655818, 0.07608042397496724, -0.1484623986124227, 0.10022856880112879, -0.383779531289025, 0.07242002793605085, -0.0677342765363662, -0.06786580904779829, 0.05345496738112922, -0.25720591276460747], [0.04698475569056477, 0.10401723353384483, -0.1309719172391929, 0.026386836238066654, 0.2717780983765239, -0.16268649272605112, -0.112683728184119, 0.07635834659553904, 0.2714617843560166, -0.03942431631666664, 0.0020192984323781213, 0.0947888358867912, -0.21241814004629847, 0.06469012872598065, -0.07249824516852618, 0.11614566663456344], [-0.006657124529674802, 0.20246453181941393, 0.043425900355340184, 0.021098151747784556, -0.08871059703203436, 0.38557623218442655, 0.07708037867131129, 0.021525711146630808, 0.07156482300351628, 0.18741554194892893, 0.20649100555902095, -0.31151017574052337, 0.35573940309285285, -0.07400129662471921, -0.028251075791616738, 0.013911258231559798]], "layer0.attn_wk": [[-0.30182166683115896, -0.07943529835064359, -0.01867310662260254, 0.11203471679234854, 0.024477834248859392, -0.01850880210093835, 0.25676862113797033, 0.10907823526869194, 0.15739775826527036, -0.018423991084499654, 0.13141063955165572, 0.4471170999197972, 0.1407303649853446, -0.03642410227422014, 0.026771079085526495, 0.012725002383793553], [-0.06275026205173478, 0.0033175445565222, 0.038414850271969066, -0.1926760244149414, 0.086710434166125, -0.0029961344280908645, 0.07231982638901066, -0.10689995138990693, 0.12061960140812943, 0.14154764041103257, -0.16005839429953267, 0.05610313650424582, -0.215909097258918, 0.29352132126850927, -0.08911969780000491, -0.017583369370602262], [-0.033029906987161156, -0.04532415327907779, 0.1184608037255467, 0.12245227194399766, -0.0029758270966306426, 0.28769225416027555, -0.15368609586974505, 0.22741225086858102, -0.09232285187195272, -0.024754383803699504, 0.4014247464503623, 0.34026100977603807, 0.34749884153124483, 0.1663751844810316, 0.051498060280726246, -0.33737028506257216], [-0.06718979626008925, -0.019853694042361657, -0.15244220970787062, -0.05803863034117624, -0.05141306643663163, -0.11549047907984968, 0.044974064762366005, -0.21580207429826492, 0.0427174570241678, -0.1671073378600816, -0.028185525131193656, -0.034562992186244625, -0.241338378103582, -0.24058468351560014, 0.12315580413667794, 0.11854588698612191], [0.1252799117253245, -0.008745076277614216, -0.1739591871096407, 0.053588969220851886, 0.03113667684824817, 0.11049544999286455, 0.2570718581069243, -0.06137070356961606, -0.14863009469529898, -0.16052690867487604, -0.2557992353793936, -0.1374935092359486, -0.2437890225578928, -0.15024630368773387, -0.06944656799008365, -0.10060302737923268], [-0.1455427396412565, 0.1877032909251912, 0.08557549659749658, 0.19530443074674822, -0.08534907921820493, 0.05099814035044307, 0.17729507459663116, -0.008953187535526123, 0.0725863287183673, -0.18208957669162185, -0.07463983140984351, 0.03315366776683776, -0.08011932986350472, -0.052022760219202005, 0.05391158232074445, 0.0012205432493457478], [0.09296843838062391, -0.1680700432967495, 0.18544516668918454, 0.07120488784740146, -0.08459852507571713, -0.1136411408655856, -0.07560339508195271, 0.21640733708996449, 0.046873820481778704, -0.20433803830699257, -0.0462297807031542, 0.23066471310776074, 0.1809473504352424, 0.147741427530143, -0.00570776744455576, 0.09019172148446856], [0.08151023501240588, 0.23170670868589463, -0.10508242842650707, -0.0893858960723751, -0.07146683784735365, -0.038667809385120044, 0.12031671893634621, -0.14149559740023968, -0.13666986368522938, 0.0692876685503075, 0.08742426361512212, -0.20083531261833837, -0.008623329350491565, -0.08910184016466598, 0.03187122474215057, -0.08318652486578494], [0.14526209616966893, 0.000785410721477364, 0.018249409682288328, 0.004283573458783716, -0.2708950198389597, -0.1753952733293165, 0.010630377474874412, -0.02667215039200941, 0.32967300060368654, -0.06442476068240689, -0.032513277469088456, 0.08723802193012287, -0.12665655017858948, 0.29672190397755915, 0.109999866415372, 0.24909373091394965], [0.21635335556956817, 0.1090964215014212, 0.08323354441295093, -0.05009038102655425, 0.15137560724214286, -0.08931100097738086, -0.04411011098991448, 0.1913599430946628, -0.00034804820684435637, 0.0872737954808828, -0.1359564649292094, 0.04861352200853027, 0.23364237198805415, 0.09300180291496506, 0.16155488782841598, -0.07586324883672092], [0.07594472422436001, 0.13747542015676353, 0.1678130820794396, -0.10089602886049136, -0.07089275231789503, -0.1613415605685326, -0.10961605154216368, 0.0776548088183507, -0.011268961600630237, 0.014015616391100402, 0.029818207613263426, 0.03958307144980186, -0.14178143990048536, 0.2199645725505665, 0.1644796922978892, -0.15624370833773937], [-0.00815660182870755, -0.05499412438098862, -0.03049420404393799, 0.11614013086515469, 0.16781439291775108, 0.2194862277977712, -0.08300416622915437, 0.09131368318395845, -0.16257051134474704, 0.060479561195035496, -0.06760573528494852, 0.09015145638916054, 0.12147353538358649, 0.03594987145762704, 0.007151872258856397, -0.2179404304605375], [0.09585045154318356, 0.06347941888415003, 0.10912986528380839, 0.1627892245582986, -0.19030528356704893, 0.011795099944547499, -0.29690616637210177, -0.01303586696131972, 0.2124592184308489, -0.11383508911055575, 0.330212196670823, 0.07327204227406942, 0.24230527072857205, 0.10684122783079993, -0.05249733169041776, 0.15634104429045037], [-0.14835116317889901, -0.023542325892483933, -0.03769161323239683, -0.2056604437840218, 0.17616532615095323, -0.13804809301316673, 0.17408357260848956, 0.13305594266811904, -0.21971828534702664, 0.19499414115656533, -0.3339408744588476, -0.13998250633348291, -0.28840090123915835, 0.15172138357332193, 0.15885121448372633, -0.1223801632416886], [0.08429334173976681, -0.12356917163746307, -0.0594982553530592, -0.10415547047394032, 0.09740258115926372, 0.28518187626237446, -0.011657435104092784, 0.09973290392653611, 0.12931121261835185, 0.020587096804719544, -0.08702282490473086, 0.06072115004033972, 0.24013556835721034, -0.05023195292999403, 0.04147189454449095, 0.015184645914740339], [-0.036625842726288715, -0.015015029753570405, -0.05472060132919355, -0.05243502240497451, -0.2148119421198042, -0.18703563507186594, -0.27723794007637736, -0.19037671667289993, 0.2992710532853054, -0.08443119059640201, 0.30391110704888274, -0.09323113101139258, 0.08408109434408079, 0.0961171410946662, -0.0970141043493185, 0.27392120518112595]], "layer0.attn_wv": [[0.09293394781465109, 0.2686268922673789, 0.020866143658273065, 0.21163042398183946, 0.11797626895744225, -0.21330025839570702, -0.04804742711667437, -0.003575427128230749, -0.15091393138100057, -0.03182909375975126, -0.013057490026704836, 0.08204138628114512, 0.014018523891715701, -0.06403709807480433, 0.03840714403938727, -0.05644277292771602], [-0.0975760147472777, -0.1764446918579922, 0.11148830448861294, -0.17345520600259576, 0.017621167126275036, 0.5166063835846785, 0.03532641948290846, 0.24491913231965723, 0.2652926887722463, 0.14404132444396206, 0.09483250133429409, -0.13558986647720245, 0.01621172074339529, 0.04551847773657172, -0.1137472383934566, 0.07715734266425123], [-0.005517185141137429, 0.16535198539927604, 0.279256256956419, 0.06383797402654368, 0.12095152058929755, 0.4617075665567439, -0.09622623537221243, 0.3726724326659532, 0.03121605603013544, -0.09549310228975696, 0.08167738722001507, 0.011891068879225567, -8.705038537723594e-05, 0.11398791507690526, -0.09916620151021749, -0.22852534504840946], [0.03606442857380488, 0.2587410755126061, -0.03394587632365428, -0.13496694233774126, 0.05187724233924356, -0.13529631848720303, 0.1943836291545337, 0.18280000749901795, 0.14013038460996627, -0.05599815813859048, -0.0267855584591466, -0.31573039316037543, -0.25181821265588733, 0.24842465185247745, -0.11754181268763633, -0.10140157451173137], [0.16435701002621986, -0.00283612444206396, 0.05446495110259011, -0.10847897373863703, -0.07927763018484307, -0.23399598113668535, -0.09004932835613305, -0.4480775630198393, 0.03718675967991393, -0.23116474238630313, 0.10729082012821678, -0.07484937717279565, 0.05940591607808731, 0.03336035924854357, -0.041397904201998396, 0.19887457965199304], [-0.0631801082175739, 0.22118959144429365, -0.13716736534305946, 0.13844572344674164, -0.057117207839082605, -0.22471172414936771, 0.1525994946126157, -0.3635509029326513, 0.22155700024000213, -0.3730892129196807, 0.04585407929381772, 0.060920483913272504, 0.015617777347731919, -0.023638928220668928, -0.01419251750478751, 0.03829350511750196], [-0.11178622866766696, 0.02230652596317263, 0.2423367552994955, -0.22027775445250333, -0.09729940769027591, 0.13270501569640894, -0.06510835777722036, 0.36212598799657697, -0.08825540443050695, 0.10136893637585648, 0.19069021736887742, -0.2118016880406806, -0.22016768553416896, 0.2610892145277889, 0.0042588698663981305, -0.26620846269036574], [-0.056663434788282896, -0.05129189545437485, 0.159417723127909, -0.09922139444168117, 0.0018770950859698977, -0.0734702129419945, -0.008942512784747862, 0.034517822404470655, -0.04285544024943869, 0.19803732200191632, 0.007249475111928362, 0.33239929802880114, 0.15163549376713537, -0.08933558535851208, 0.1587397291689231, 0.07883771131307346], [0.2877282776040316, -0.09042748661699028, 0.2021167289959787, 0.0745657528692573, 0.027897455637544862, -0.2515076991643717, -0.14487376633216126, 0.2436261487188074, -0.18877065902923573, -0.30640593735223337, -0.23111435382849338, -0.002528379675642682, 0.07091999091303747, 0.1484919243406653, 0.04676059028338195, -0.038531712252861706], [0.2925733809983962, -0.051607682513668124, -0.004703703368129851, 0.07908769525228626, -0.042078999246948474, -0.14248603978007368, 0.11373368326012027, -0.03673977409789376, -0.011318201763965917, -0.1969306451704484, -0.0964856748072235, 0.19701723404985647, 0.2724614517219481, 0.038774969699387776, -0.02189916535299373, 0.12615150397173733], [0.11382166243166204, 0.1430396704011504, 0.17103481865554235, -0.03669957017158426, -0.0921799013427261, -0.06520532800879628, -0.1271170101928453, 0.03757967681607051, -0.28428059869816996, 0.070236057581239, -0.3875262965059614, 0.15231423352464832, 0.07050183442129296, -0.03056380952175054, 0.27829032550037686, -0.2530702924576628], [0.1295656644864316, -0.21529355781111298, -0.10144146028152305, 0.3185946231089409, 0.19250642782436292, -0.28991314210843494, 0.05479976212477929, -0.104609959849377, -0.06079403050030113, -0.16006648781916494, -0.11487323815489531, -0.017591795980084625, 0.05930305462972295, -0.09553691630728518, -0.11006354874529796, 0.016025099520711614], [-0.06703710399901142, -0.3219146171274767, 0.01639529773338522, -0.027270510473331802, -0.07235647327901919, -0.04418099807841622, -0.1398222673975259, -0.2527463096798938, -0.029484552438582407, -0.047137497484660285, 0.08102947017547914, 0.3035402777303461, 0.11057517971629267, -0.2776520020754854, -0.04086890471057547, 0.08430057856180272], [0.09679869834658934, 0.20753995562421554, 0.16434240715166318, -0.04612044191180761, 0.09796079615887394, 0.13432209612841373, -0.06894120661566863, 0.16962896139105554, -0.1007704907962232, 0.3431626488718064, -0.06625043637057228, 0.08523019618328495, 0.1766575943349411, -0.051900560210339695, -0.01970664334951164, -0.2959919524637875], [0.26163873893602396, 0.3306727015074298, 0.10616985598265134, -0.016550053743546206, -0.17743674898176515, -0.201880410170909, 0.07957614394573131, -0.0704972886464519, -0.12065757892765043, 0.0341527162482737, 0.08989356139123317, -0.18429343344835983, 0.22619112520147913, -0.0042522347601463804, 0.04118235971157374, 0.13320051588392864], [-0.14506630218334346, -0.12448467599042731, 0.18723121502743953, 0.05414414465217768, 0.24760346136739225, 0.542798002705715, 0.1267431787720432, 0.13860194898923475, 0.024586862474611976, 0.2568240427097503, -0.002998167985944448, -0.2486345165424292, -0.08571542226986639, 0.020432215652632067, 0.001970631109318723, 0.05240458382111513]], "layer0.attn_wo": [[-0.08183570080284963, -0.05740927768179315, -0.23872133865752043, -0.0779437510332851, 0.21873393251331333, 0.2974147610279415, -0.17332324700832177, 0.1287590105844342, 0.2527593183120235, 0.2941266419159317, -0.06215201005123246, 0.07623334028489993, 0.2861813146290954, -0.09169468516122324, 0.22323125613329542, -0.365151684421069], [0.13829267421640654, -0.20952128943932669, -0.1158014313970623, 0.13851272167281656, 0.01959429067245252, 0.1663832379062445, 0.12663247217830345, -0.04489679245827318, 0.20807261251618028, 0.012380381712911757, 0.17224695686115585, -0.045921204887388246, -0.1814177168534672, 0.05764650616960068, 0.33496063687769, -0.05607769815249429], [0.10560160475296167, -0.12870263590310946, 0.16835201736687733, -0.041260594211278694, 0.020312141768410556, -0.2736950906968362, 0.13829018623263328, 0.1508593163415815, 0.17998847815578076, -0.05443455745848499, 0.2402808566088602, -0.1461402221734213, 0.10876162005579194, 0.13381935720677288, 0.2605953246290839, -0.0020984998067167], [0.28277032721884343, -0.3155548489781964, -0.022892996513483276, -0.19451642154568308, 0.043205188779997517, -0.13221263894710356, -0.18262648996659042, 0.23230773007172198, 0.27548549080411683, 0.11514396376178195, 0.20922669351805243, -0.04955033817393708, -0.012587642636323082, -0.06997409523552929, 0.18092059595811305, -0.2538330219909461], [0.01265073553375976, 0.040287825991379665, 0.07703441436384954, -0.01753203615728723, -0.20969856389140648, -0.1683861109767046, -0.12478009371049074, 0.03691996184464049, -0.06939116415587959, 0.08909185339255998, -0.05958321420583631, 0.11292068856885491, -0.16684421123779733, 0.09052713076034706, -0.14327685402157708, 0.05238175279586565], [-0.06467493741134119, 0.3225714279753877, 0.24354744282539437, 0.1156832105801441, -0.1005378754648522, -0.24328086569988813, 0.3410496876534142, 0.1099546483620402, -0.24617507466309496, -0.2772270768803242, -0.02497166104458496, -0.3838727270841692, -0.08033823926862978, 0.17029848676183257, -0.02059865139541284, 0.21146894588857815], [-0.00846448080394534, -0.09342587222447322, 0.08248739821082059, 0.22929599520890756, -0.040496932116974624, 0.09910551393615959, 0.18689949581591175, -0.07144733052241013, 0.2847506975900282, 0.13631597862811942, 0.11920539235200522, -0.1254589615663903, -0.3051288037527308, 0.17210328013722315, 0.15028495423340052, 0.09254057738950948], [0.010107262413593806, -0.0017497574032545795, 0.023259047749696928, 0.17012387311169871, -0.33191545467504247, -0.21155959645836503, 0.18003119692573283, -0.08797584047178995, -0.16763805970445633, -0.04931562330864541, -0.058230688093711916, 0.19646964250895166, -0.06794181652607884, 0.04103462053770229, 0.0724495160758844, -0.20157888932714454], [0.020001435042644764, 0.12410203755155555, 0.26983861758691835, 0.001129993098653757, -0.11636546871864935, -0.10338064521713314, 0.30141481492656547, -0.11990924634199598, 0.19987720853439345, -0.06286927504986917, 0.0010686707293839793, -0.17619575112484426, -0.0013673688172710812, 0.10649193020273177, 0.17569046169859864, 0.08597435821932436], [0.01011287596311259, -0.2307768887366465, -0.34486829030252436, -0.13586757781590914, 0.13770627706136285, -0.022179168063676945, 0.027948378569331276, 0.025813775209915547, 0.08674467194429819, 0.03128044617975492, -0.05026690489792185, -0.1531180097102419, -0.049956512767402615, -0.10970062040354993, -0.017178671571271786, -0.5259818735456031], [-0.043272887305927925, 0.27322795060554733, 0.3533290258149246, -0.224541267579172, -0.0756347449597456, -0.13474762928545705, 0.12608443150839102, 0.1649787391786713, 0.14508595860556434, -0.03937146293249609, 0.16389186963823857, 0.024353066710278298, 0.11999942899942088, 0.06408093102376781, -0.004545542719607989, 0.15161284468884473], [-0.2225998611204956, 0.3657170263666436, 0.1707445230638722, -0.07560012945081812, 0.07798453831271084, -0.01748341162348477, 0.06472971174367866, 0.057353213284114815, -0.02487556598924266, 0.2082347013651769, -0.030078729284514653, 0.14260197015758255, 0.11445233222731474, -0.10981047135160191, -0.3661009358820016, 0.04539423604213679], [-0.1971252096435765, -0.03893599734217308, -0.1536625452234997, 0.1279820395905909, 0.3500307056143779, 0.2375377659962188, -0.22504669845644631, -0.11941843016973307, 0.11911578095561647, -0.08895136154249791, -0.2168109328647931, -0.1007846561587148, 0.06778748725719012, -0.3362679192077989, 0.20168793620324088, -0.0897684461041205], [0.12201649384027194, -0.32353299158293886, -0.13163416890933874, 0.02913553137682072, 0.16129443032541266, 0.10811479601317713, -0.07584372813347809, 0.03999453018881942, 0.20861316873173014, 0.0647083505299836, 0.12860141287500754, 0.1923045433972638, -0.030974365913438825, -0.004309552386017399, 0.16699648574517778, -0.21128776177279737], [0.10840423413203754, -0.353676772610799, -0.037157242809516676, -0.2669867916014426, -0.1123575008278175, -0.10887579318542016, 0.03231817862461516, 0.15685710515440435, 0.08896071316750283, 0.00034149334492826103, 0.319451186384886, -0.04660666137974308, 0.34473311652359356, -0.055328420751541325, -0.020945715555101697, -0.17315233929157908], [0.006119298872259819, 0.0796117149706431, 0.25925464750976696, -0.0858277476334408, 0.12006469839769784, -0.1137352140686361, -0.06134432595527368, -0.0063003403587624145, 0.31682859536110575, 0.12734031429429882, 0.034883188968804435, 0.06464086164765742, -0.005392050992767307, 0.1583953981204502, 0.014236778291674907, 0.06167592534761389]], "layer0.mlp_fc1": [[-0.002274822286370689, -0.011121452739850301, 0.03784340230943611, 0.1689848148006102, 0.17433445505907244, 0.16225804361823276, -0.30332484099788937, 0.370959447447991, 0.21893117777241514, -0.19598610610262457, 0.16172521603426124, 0.42200050941224554, 0.08610043977919293, -0.07203766455850445, -0.04352844441650544, 0.22885037855732204], [0.15920110090883058, 0.30563539596755424, 0.11720828941506167, -0.00914956734845662, 0.12007582608977918, -0.048118271507480624, -0.3169808342240696, 0.09323690328082948, -0.07254536246526744, -0.16140596774891566, 0.03358889825821343, -0.016613342514251322, -0.033121608918654545, -0.08417880663259389, -0.13801912634042535, 0.03711183542003253], [0.2006946688931957, -0.18696465269562465, -0.2432384813954432, -0.14847994918268045, 0.2629953766679343, 0.011266814760013778, 0.10515290695297416, -0.05875492197366476, -0.2540178682800677, 0.07768817920985603, -0.07002539426684705, 0.18565416982292735, 0.07171103526427486, 0.05406082361681291, 0.3677603045633009, -0.2504506397679528], [-0.14664706876153544, -0.1327122787347951, 0.21936801203914064, 0.004068533582582124, 0.03656759265427912, 0.029175233879090327, 0.18925044780618416, 0.05361054038176683, 0.12529492236017328, 0.09428641758245686, -0.2709054730135949, -0.028620523809513524, -0.16562391873064175, 0.0651281375132556, 0.06499260966132545, -0.17061323399748093], [0.15248078050398717, -0.3318940475923989, -0.06215682626552483, -0.08126309496530151, 0.25251246586315096, 0.26815824120863085, -0.07046253125833377, -0.09112930543338199, -0.2540757479481804, 0.12597336687132898, 0.03681589807454296, 0.13386272459046852, 0.022336864941515794, -0.02752614750214148, 0.2739918994186905, -0.2414606125266953], [-0.018397374597721557, -0.32066222115619475, -0.20112302904019214, -0.11039333987078803, -0.022182364390976168, -0.41395433003145776, -0.10131576300763019, -0.05146283191337393, -0.06567746414646944, 0.05539854874616253, 0.06782217683150756, 0.16791249145931092, -0.1984869882437392, -0.1974235548874067, 0.11865036144856533, 0.05005417818553029], [0.07893395825208678, 0.21354095617223756, -0.12456022783702281, -0.03466896310176811, 0.11134351791931646, -0.1931352601563564, -0.12328598746196187, 0.23234420182862162, -0.2301163458098236, -0.24424500923087897, -0.05434738327340392, -0.06422923617009238, -0.2105724061916751, -0.12430589846597759, -0.055591169454767754, -0.3585559873314168], [0.19039978359961157, -0.24798698615592737, -0.12319724210678261, 0.19491011590779342, 0.26829660499210123, 0.268683181756308, -0.008147572761784627, -0.1560947065343892, 0.015413170268361665, -0.18858051335728218, 0.06815264218573835, 0.18301105465957165, 0.14320909807411114, -0.19099128167126167, 0.047099485842692614, -0.14496439618295512], [0.07151574553669095, 0.24446307336012016, 0.09297946441090321, 0.27503493326242195, 0.14070945750085626, -0.11559253855348679, -0.24751420629235715, 0.22661214950180888, -0.3512353446018023, 0.009897909699874623, 0.2598094523773281, -0.15485678674511635, 0.18432741313692044, -0.17422158984335187, -0.1604319993578101, -0.024121147856724784], [0.0849277492465136, 0.11398370546109335, 0.11114683279970469, 0.028739413011091664, 0.18770604553748177, 0.19347103595313073, -0.1596089401253556, 0.29260682500241797, -0.2562638147807239, 0.12151551286889078, -0.02758562581474879, -0.24013534102401013, -0.2535405988798517, -0.20027216952284757, -0.16828352966004662, -0.06600508243054551], [-0.09239757031974785, 0.11118660987977207, -0.12622210794369065, -0.027358319919202245, -0.006723662828768136, -0.03329954446908751, -0.2544291038443469, 0.026787626831255486, -0.15854226506337965, 0.041742792930809576, 0.12683491732323204, -0.17696288216004863, 0.03360990841235728, -0.23998384101989545, -0.017865267232980868, -0.3305375528544174], [-0.18695573976722177, -0.2781652542210678, -0.15524728271574825, -0.2823870565665328, 0.17116044656637197, -0.013428251918714813, 0.09310602406646559, 0.15040519530519234, -0.38010853922952004, 0.19609286322612368, -0.03563798244635189, 0.2297848588996789, -0.16614984617577938, 0.00017650494230119862, 0.11771357083449019, -0.3965560460375114], [0.2978921711814916, -0.025094818711189255, 0.018271429152698616, 0.022049060156907774, -0.13868009298187317, 0.11772177534230262, -0.105466725289371, -0.08889262360360482, -0.07926156944878615, 0.09999005885797176, 0.06752516433046864, -0.020703018041897742, 0.07501819147060677, 0.07299247297220246, -0.014698016892083793, 0.2484145903296946], [-0.2823603616452861, -0.19956557280006396, -0.05810802559570714, -0.4298516687916549, 0.18936865676832068, -0.22149342403116182, 0.031457716636447926, 0.1459674555185344, -0.050529428664018376, 0.3245640427696037, -0.22851074784783207, -0.24688574580375278, -0.16546133601679672, 0.23539837217361556, 0.15622198296094342, -0.01692620947468037], [0.1608882815938879, -0.07049126393317189, 0.05555526476197321, 0.17544968291529367, 0.202532903550407, 0.09584238805424007, -0.3968776442000809, 0.06579554398422642, 0.10572894956412537, 0.009071307314647855, 0.23898887222285797, 0.04264250049261442, 0.05662225874199576, 0.22484287939608713, -0.08999970333785247, 0.1831181146038151], [-0.2045196938832483, -0.3806794768835554, -0.23445585724670623, -0.11379708567130024, 0.27863304866406563, -0.24850187664858217, -0.14956755896938342, -0.021263396935930955, 0.004782849756537074, 0.06945112246338503, 0.3856584996610737, 0.37075456124058226, 0.09930954639573097, -0.14973884386826067, 0.1808955377867573, -0.012979861558264019], [0.2651242855431151, 0.15600482790575854, -0.16463686278566608, 0.0037948178980673143, 0.052358476568756265, -0.04678664075748096, 0.00826601501528113, 0.034128364759408135, -0.07561036800696933, -0.2331809575932575, 0.04806942283951095, -0.14888146710481603, 0.03479395150995281, -0.21311518673812, -0.010402925826498597, -0.041727811962778395], [0.0903571683521568, -0.18140307912471784, 0.11672393153789096, 0.007204105239718387, 0.3836918488793511, -0.06744086578826586, -0.35541535129076846, -0.07681251764955024, -0.2555591598926885, -0.23316326224882944, -0.09581156296848757, 0.06638823910342208, -0.1285088432472551, -0.3027707724277318, 0.15966049258123877, 0.035063021563771446], [0.0016160383441004502, -0.30262438793682234, -0.11985889607726267, -0.17370712707169297, 0.0003779516632527905, -0.020546366894739224, 0.09361492474131479, -0.09124666576656053, 0.01582976079064299, -0.1943697717510781, 0.06389188659835722, 0.07659217385584387, -0.16464018264245678, -0.22388833652625992, 0.014265611892136765, -0.03101636213820486], [0.09425588170550844, -0.21905940015137915, -0.051393299907489545, -0.23797574928551027, 0.03702000846397494, -0.40202294013234596, -0.09842262645464099, -0.16789197102695944, -0.04859185739974225, 0.28849611175857665, 0.03056313836851869, -0.0609617283117944, 0.02195364259219096, -0.10909963542761336, 0.2893178020154609, 0.03279024650476744], [0.13926377704924428, 0.1559116124715384, 0.019688222968850644, -0.10866684586674058, 0.250481188532635, -0.16409023530961855, -0.10124010430137396, 0.07437418418833355, -0.20268066528276088, -0.12121670620260153, -0.31765759019364403, -0.25256331678021576, -0.31993710739506176, 0.06608370342730274, 0.12585202421436958, 0.07392242362357189], [0.07204563471411718, 0.21866659852389864, -0.2723053218194871, 0.22404864498322127, 0.27449474031527155, 0.2165700786126602, -0.183421158094029, -0.008895527454829332, 0.2199125661290669, -0.2933799217771451, 0.07783809704306052, 0.2622504490081833, -0.11826811442381872, 0.080845708037024, -0.13168851672552093, 0.1920493258789046], [-0.2517825650100735, -0.28759367996089613, -0.009025680598683652, 0.07398137115167368, 0.15534538631576786, -0.21329962833242694, -0.0862807306337525, -0.04374892435864803, -0.18248985865734782, -0.15139959420733, -0.0972744207954438, -0.1407709743193733, -0.17161422763419143, -0.22203915972306706, 0.11283548532210667, -0.26269757136088295], [-0.04530037096347916, 0.13287663631399377, 0.2215571570892345, -0.1966597970752942, 0.007584393195496943, 0.2172468576906503, -0.06278866668397715, 0.2127869987840691, -0.026693452399114966, 0.08093361881369336, -0.1853983712043653, 0.15894731212101687, -0.2903448143086428, 0.08954962097352219, 0.09427471093688941, -0.040934351745620406], [0.08520120505271692, 0.28874830079194863, 0.0324546301445217, 0.23998550546880423, 0.1390250131059949, 0.22203812454725327, -0.08689768929286261, 0.06674058029707598, -0.2868872539292285, 0.05597495362357806, 0.057620960464463716, -0.08632770149218176, 0.08177529605565162, 0.04605991522558175, 0.0022532169612827155, -0.08395700094690624], [-0.011164835126536448, 0.24272593371700146, -0.26112699429480685, -0.04488084373583412, 0.20577337952626154, -0.12347995120163857, -0.014583863505661794, 0.15589945396480093, 0.05523539201314975, -0.02619544421768392, 0.0639327698814737, -0.23422056166287003, 0.020716539585142985, 0.041862408370240696, 0.1178673289640677, 0.1341359302981145], [-0.04206446120582352, 0.16333380850286933, 0.15370127403787587, 0.322299110348029, -0.016992098094075824, 0.2810128761456742, 0.15005853217393214, 0.018042900634781957, 0.22474315574008427, -8.850514122862442e-06, -0.08428411826223224, -0.1436725169300791, 0.03689400124570871, 0.058892797479099944, -0.0030499631060903246, 0.10798439792936478], [-0.04964013856790654, 0.27446074382637914, -0.05370971733095914, 0.028846926439597607, 0.23351123854310424, -0.08150629735172216, 0.06868443830154877, 0.2261245605284314, -0.2977982118211545, 0.14522823833287132, -0.2929724679510531, -0.2636679369559473, -0.14759988530129095, -0.21257508201559994, -0.06856421213843168, -0.07069032771334778], [-0.0058166037558024354, 0.2999142082548467, 0.04795644941552823, -0.22297696823424626, 0.3396204132787361, 0.049463508960772964, 0.13906270726478484, 0.19631095135129747, -0.08485737224632418, 0.22327536938686854, -0.1726127163619837, -0.2706321979489166, -0.17566905916901845, -0.1696582317804369, 0.13776141342080953, 0.00854078618101041], [-0.32457505589361313, -0.230864300903312, -0.25083517648654197, -0.27204829473755926, 0.11816069358111682, -0.05690846335442358, -0.30849519362467703, 0.047540642344568694, 0.02193251097202347, 0.28736402054335985, 0.30715448019898006, 0.09750550297605713, -0.03667118473025678, -0.18046957646210587, -0.14594924366969766, -0.030639323504938795], [0.20585351550266448, 0.034503459601477465, -0.15008299738380113, 0.02202778564506995, 0.32547415794275786, -0.11663489514698477, -0.1688267242450883, 0.11581864952686574, -0.21523552171601085, -0.2655727010884939, 0.22845949320294018, 0.18996427328223991, 0.07937041754404757, -0.1347536400179313, 0.1420964301225276, -0.1258277229714434], [0.23357458488651675, -0.26643508513519953, -0.024872397464504644, -0.24692939243647194, 0.2470591183626028, 0.22625860496300015, -0.41773028074811186, -0.020890040012789903, 0.06275025045219385, -0.1959966654984073, 0.1799505580679188, 0.08175831038395254, 0.20135026179573207, -0.09970317992083953, -0.1610794557416332, 0.20308506903345105], [0.17594604286838827, 0.09115406463222334, -0.00928150099212497, 0.031218895954954008, -0.042823871487989086, 0.17431405945945194, -0.28000086720453027, -0.05037374903087602, -0.06964229714048771, 0.14291524004463282, 0.13108319369755758, 0.17697239180731886, 0.2069361789108032, 0.02087840945967605, 0.07179481034920766, 0.0763867452427389], [0.13003744802461345, 0.23914149896232414, -0.05124412272758565, -0.19671793348460145, -0.213442918847841, -0.4689561319858021, -0.06426671099152526, -0.29406531026834876, 0.08272023958356853, -0.14580744795453418, -0.00027308268471087086, -0.10014742286902699, -0.015351942058035197, -0.3180541882109609, 0.01182204111199957, 0.1980912093726448], [0.001768532696526766, -0.18821895603751432, -0.12956974435382004, -0.018255312053063934, -0.04873059420270331, -0.23406560378021515, 0.06495234417818119, -0.3019343854013127, -0.18287953362430984, -0.2701331260486051, 0.13964402598050274, 0.31679700918327747, -0.30731422479246995, -0.12818237635423768, 0.3049221626788512, -0.30687409839548335], [0.05254875341868216, -0.15039909529795867, 0.2977171111144863, -0.09111264702489746, -0.17105711622069186, 0.16790782100247612, -0.21332976510709278, 0.09617250947668678, -0.0036858190354287883, 0.08576915559791431, 0.08584619771653076, 0.11306647329208766, 0.24758666000896515, 0.49315576570885894, 0.14971017508113835, 0.09862002572673065], [0.1045988272530905, -0.14217783380236745, -0.05412475685288488, -0.05891435319447556, 0.03883238595894749, -0.29181046696041507, -0.17053391249970545, -0.43110088629229454, 0.03907025194248174, 0.053666944853267055, -0.14574215920573574, -0.10029530141039678, -0.01146450867543648, -0.015386945562066467, 0.17305956349743365, 0.09321862177920437], [0.010789341317650204, 0.324227914948685, -0.060714861349592086, 0.062046330948660446, 0.1447051503686432, -0.15545457527420223, -0.1584161492459199, -0.007934556773864874, -0.3619907242517704, -0.3338789056928969, -0.07699178323914546, -0.007660710785490595, -0.15020682942253985, -0.03290764535081948, -0.10404267471872745, -0.22660780552354812], [0.12788004075192663, -0.14169775759303604, -0.09683191931300512, -0.25033431158930153, -0.3540993111003482, -0.3545838503355628, -0.28737004567056995, -0.35842846659658895, -0.016186595531817546, 0.05661733733555874, -0.11720131516685588, -0.2086889754643928, -0.11684882071033127, 0.2193231119110381, 0.08133400490458306, 0.045447062756672686], [0.21547148818285217, -0.18505922738696662, -0.05164439740849297, -0.3095180529669144, -0.14222574521559142, -0.3137251767803556, -0.25323998882190946, 0.25886069654843014, -0.0321229934243107, 0.2859885796864003, -0.07460750947726556, -0.3259514156224067, 0.2460302125742691, 0.2249247765741643, 0.22033577434463383, 0.06656629383989465], [0.0949457049877734, 0.23693859377373094, -0.0805415916954038, -0.0567684082550571, 0.19124791954290699, 0.028631127718514296, 0.13623043256438616, -0.07618052668124692, 0.1414040939766101, -0.011103103201208511, 0.04494930959834188, -0.2505367823331059, 0.22247440572823954, 0.09453799212550126, 0.12438785213518862, -0.003621162757322511], [-0.22855409868371768, -0.014232449380841476, 0.28218879230153143, 0.016722935271789998, 0.028890838040009074, 0.0025759165862337496, 0.056104447846495036, 0.22064419337734942, 0.08812833983100724, 0.12700993537496943, -0.15856256469400806, 0.28455689019882174, -0.32068669046501186, 0.3537936593069303, -0.02736636301991875, -0.0691090070989536], [-0.2087355088465955, -0.09907188228506458, 0.2701078937998604, -0.08217971156848987, 0.10455348831986971, 0.248578922538455, 0.13894071156953144, -0.007098619743752733, 0.17286981917477948, 0.1648888497592313, -0.013670832679425319, 0.10768674774775457, -0.17787646351875486, 0.24953027463492863, 0.20734833308766398, -0.11681553568830551], [-0.1557026935458468, 0.014749151679332646, 0.09040191224132602, 0.11227378074217341, 0.03801101408245532, 0.20348906892606372, -0.0998058044200835, 0.13809108294372865, 0.24381060047570502, -0.22232142230872115, 0.1834629824159863, 0.14595633216603313, -0.1841118215464608, 0.0623788187817229, 0.05405230834641761, 0.18756904761221102], [0.022115928080372167, -0.02145596390664876, -0.08815960628551528, 0.11794336045666041, 0.3411865637002194, -0.10087505539908725, 0.041832008006618286, -0.07701118007605189, -0.3530932219042716, -0.10094595096530536, -0.1713661278970536, 0.15533233632391413, -0.20400852396003544, -0.20479998138619113, 0.1283822556149098, -0.23101769984439482], [0.22710030418314062, 0.19049337798234176, -0.04150414057268664, -0.009006769418134034, 0.13209711108544037, 0.15503520349734062, -0.18946385838140029, 0.13185757948921017, -0.2901988622723177, -0.07734974851715636, 0.025158631918791422, -0.06849394371492531, 0.019206577450244948, -0.2289199789958235, -0.13153871272168496, -0.1919269269993695], [-0.1186995411964785, -0.011674616951201536, 0.13928728942545388, 0.06919153083915107, -0.014657937957698021, 0.19578969212667055, 0.1630726484331152, -0.17205227194267256, 0.28811473163513573, 0.010924298186650337, 0.08885085603618763, -0.14164414579267307, 0.04739919706463789, 0.19954098548799723, 0.14846821859958773, 0.058966691218013165], [0.10093263716829613, 0.07501556346343592, 0.34549687777115157, -0.32063057384473936, -0.19987033807056964, -0.1721176214501718, -0.23252632240350193, 0.15495769790465852, 0.038409847976371404, 0.06907554874955743, 0.15240194828281448, 0.21275882822975606, 0.16706360386241384, 0.11871514670407145, 0.11663942132862387, -0.017311312919329153], [0.27708210521480625, -0.251356752164176, 0.00534990586201183, 0.11130599698109851, 0.19643922483695428, 0.10190447437762572, -0.061182439208006284, -0.05624061085460909, -0.4227189073675422, -0.0697122347629426, 0.06759714395719317, 0.19364233576194886, 0.27304438390167274, -0.26802514352424384, -0.004247830538927754, -0.2017680390148246], [0.3130960435627742, 0.3526030979991018, -0.02841287798519683, -0.022511077105947627, 0.23329791778710243, 0.11988356256063155, -0.30269400798459034, 0.09423843412517498, -0.19252830062480286, -0.24456432924976057, -0.025775680903471137, 0.16469220834061749, 0.2469095423362185, 0.03230655553374234, 0.027652776905103916, -0.08871441554318855], [0.28496387100219317, 0.07507524484554337, 0.12888256605313814, 0.21460686610743568, 0.11129632045046238, 0.3171419056092948, 0.013807959530424227, 0.11752210020501602, 0.10108209995028984, 0.3021167938367878, 0.17610820447011985, -0.03338874574879056, -0.03977190021858801, 0.03543636548333005, 0.2659907407089828, 0.22793630434758808], [0.15752127491331674, -0.08691469109105342, 0.02302456354897952, -0.007376279095332769, 0.06369372249134234, -0.12298433675192572, 0.0430676231443131, 0.0365831872023421, -0.08584612910495874, 0.21259772698909277, 0.03942981816575925, -0.1879143043092414, 0.06064304053813893, 0.3825338283672814, 0.41002503705491306, 0.09000119815382492], [0.24961075885739362, -0.25802408811972866, 0.09377184451980283, -0.15639703245221798, 0.21725975809301676, 0.03275484309353699, -0.19264249495331187, 0.10157395416270046, -0.14374589966363568, -0.09856013970421582, 0.14102979096497265, 0.1880052584100505, 0.25921882343778413, -0.15355114502166026, 0.08706044572474396, 0.14461304053610516], [0.09964526807057471, 0.0514276121999018, 0.21549341990378634, 0.13179722864918725, -0.009545582364763518, 0.07478082297189827, -0.11662002437780933, -0.001185650078878029, -0.22700831827966017, 0.016354755055019123, 0.16615153411131983, 0.006877260282640255, 0.3089049784875893, -0.10748248872033042, 0.0314331122330146, -0.1573660999453127], [0.26942452998049093, 0.22859334316753188, 0.12194367211423018, 0.2856812480532759, 0.25622753889685934, -0.10639081360493789, -0.17445083456597754, -0.04000226116023209, -0.23241556195508462, 0.1871635735565496, 0.02176505398350011, 0.08186812719386918, -0.1395599920441529, -0.1595216438546026, 0.06553433127233947, 0.014298707257654288], [0.05914236891368151, 0.09137255777532137, 0.09917984653192995, -0.02785919943130811, 0.0033281108730298208, -0.08311014612154524, -0.009342612405082733, 0.18700314861188444, -0.17283747176928752, -0.09878791972877728, -0.04475211582492296, 0.21841965047922096, 0.21862912289958716, -0.18807074234039806, 0.1892947092691807, -0.13104146899257885], [0.29350072151769313, 0.28970320358784213, 0.34298168729452516, -0.1113695200873145, -0.07915740083279228, 0.28881456611432943, 0.016225055020992245, 0.15347085387853446, 0.08566013381365147, 0.03977420418888686, 0.1162524740221211, 0.09849312118662061, -0.08802371646460913, -0.10259634960343329, 0.2741346737792827, 0.025027975680683545], [0.27552127642300517, 0.29394052955997885, -0.012312336837221613, 0.05015971061157688, 0.11249625219673927, -0.16280858675067067, -0.22515474651845813, -0.12880448161943026, -0.2945322938429675, -0.3212329214715533, -0.07207640286268853, -0.0854241400258227, 0.04612133640539119, -0.017832849898927486, 0.0993205034419448, -0.09962220925255393], [0.24199927307625085, 0.004596432746490587, -0.08012653829301121, -0.2660984446208998, -0.10929759297086988, -0.505727443526252, -0.1345029054860926, -0.2699319377669216, -0.0009412766342794743, 0.19847172822516715, -0.27234377812301963, -0.33127526425994125, 0.08451264234649417, 0.2192863909365102, 0.23475974662056484, -0.028330298594983976], [-0.019829817411546644, 0.3216607179605096, 0.014298761731425238, 0.07929456133873884, 0.2503462890800475, -0.21191018275590504, -0.036971701903582226, 0.02908826649531729, -0.23113350575027827, -0.03611136689952459, -0.15935604114462046, -0.11094127179995783, -0.2862256808017292, -0.14351120087980984, -0.11729921665483291, -0.15281782861299878], [-0.1022904121991795, 0.1782156575299607, 0.26862189906120915, 0.029173886796620026, 0.12908267917031394, 0.2844802172339457, -0.060626065728931436, 0.0161349326813314, -0.2535124374680012, -0.08533754161957803, 0.09863641698850795, -0.05447271406610269, 0.19767068946067512, -0.17806417247306994, 0.06083318160314766, -0.13158480307353587], [0.1210838673969002, 0.12005424812416392, 0.08487893326758394, -0.09721042021479255, 0.02312851177328049, -0.25994002482192924, -0.35294641038038427, 0.2558953954039443, 0.06533175571453458, 0.03918894766322204, 0.07761837356419722, 0.19259476289395513, 0.1189434325918657, 0.1094083809501993, -0.08918891321986673, -0.05346261170658949], [0.026818313747977756, 0.04476470722995267, 0.09711630455580705, -0.20100321293335016, 0.21869560749662728, 0.139730479360277, -0.2738193583119524, 0.060385498657768454, -0.18710870929644743, -0.2185668957228329, 0.035395072640993216, 0.14206569809804637, 0.28718005051297146, -0.15373715713633307, -0.10371001779737864, 0.10957707377760731], [0.0015362647169404786, 0.14462473681986301, -0.03446149312693385, 0.08862606635639504, 0.15869744341347944, 0.02620649064966973, 0.005559518444382788, -0.21975329854043119, 0.17835470351302024, 0.27622235863797423, 0.1943578710454682, -0.22349407487542758, 0.1963015930077649, 0.02350972695708987, 0.3824274247115369, -0.10485666084093484]], "layer0.mlp_fc2": [[0.044529251635120316, 0.036756873610124675, -0.15145111449356227, 0.009032827446106147, -0.0372003767821541, 0.038011228272962425, 0.09284850784818073, -0.1887728346536288, 0.23571864794026243, 0.02065144743861411, -0.20274673773257232, -0.32900860261658355, 0.022432424561689538, -0.2235063501364832, 0.13415876186101153, -0.10450736159462937, 0.02943668151316361, 0.04650101884057964, -0.14377620006410655, -0.11479418001994109, 0.0438468296604492, -0.014213208946478028, -0.14840082722073822, -0.15111631077413684, 0.09988637264605975, 0.089804852993343, -0.04520718053360673, 0.005042206602957922, -0.06754621950363301, -0.1591916084553394, 0.1445200346905551, 0.0834065325005762, 0.10670414771781789, 0.010502288550785572, -0.23225828908023444, 0.03634099226048565, 0.023781611674492494, 0.20379045706703933, 0.09283941277693226, 0.14296099365430032, -0.16096158442099812, 0.04834473430604043, -0.0393121004154329, -0.15287229158215937, -0.019634961672720986, 0.0660869796699721, 0.030573236515230452, 0.04086975876822275, 0.04908527990488471, -0.041891270199642, 0.04943068070331596, -0.03404767889669028, 0.13259494332675484, 0.10231765366090369, 0.22933144138709785, 0.04174606330748957, -0.12389612143857465, 0.14688942091848942, 0.04942379678768938, 0.164489563671291, -0.09178687240253619, -0.05152394155257911, 0.07986149693944102, -0.051263436449007015], [-0.11096176361675271, 0.09077319853789728, 0.08085085743507549, 0.13248505946486716, 0.032039963720395616, -0.3181276821635383, 0.1377586435888033, -0.06383648982916117, 0.13411031207025445, 0.10105782127257208, 0.15021260997376515, -0.04381855350957197, -0.06268613137795771, 0.08011495458274621, -0.07425164366055335, -0.2693025900801052, 0.1964543153376461, -0.0942564691035685, -0.44561492678237324, -0.1261512375159794, 0.3348896453185788, -0.02580805850393683, -0.11189477448481565, 0.10746115972604349, 0.19390783159843492, 0.24776993115311527, 0.054416657065798714, 0.32548828609614605, 0.2415972253592854, -0.3746918959250479, 0.05675027091884263, -0.08359956957057205, -0.005256613743663759, 0.20713313480469642, -0.033904307946271174, -0.02531060638105168, 0.07934037208539167, 0.4691488460861028, 0.040481365331857345, -0.08549855139684219, 0.0811037964700167, 0.23963357085343598, 0.3414689636010597, -0.031275969682735556, 0.07088437870816834, 0.04953232011086469, 0.16399621350252738, -0.10479198997744758, -0.18974020302870584, 0.31085528935750617, 0.3942462778758144, 0.07818811311372773, -0.13585855659744978, 0.2763236265663557, 0.07914535589578656, 0.0692630351964468, 0.22715747502839026, 0.40888170493354387, 0.13343385576886693, 0.2226197059438269, 0.11500992004060832, -0.03556101708410867, -0.06054385364503769, 0.25622200549941027], [0.07269718024585563, 0.14635835039217993, -0.16340676087280281, 0.22860991591135663, 0.12378315189389019, -0.2709899871687619, -0.2887523680980019, 0.12457863350115081, 0.19281142642723, 0.15001117771743339, -0.08018305759225446, 0.032743614735455326, 0.20145588548054197, -0.15341150001429732, 0.3194590588633974, -0.10129287356233066, -0.02584382485400135, -0.10766399960137504, -0.026261714899675482, -0.06903564860587846, -0.0802270676751185, 0.02036772303993109, -0.011993783177478904, 0.15956996661410533, 0.20581663168015346, -0.12409120526049097, 0.2797529469057611, -0.1059951130179197, 0.006607068817718606, -0.20758098414993392, -0.1262397277034243, 0.13208861630721885, 0.05229489890549944, -0.10757510098214758, -0.008339258360052915, 0.3257743602001319, -0.33362434785463857, -0.34083841804916226, 0.00523180198116705, 0.2179686245551984, -0.10656853637725228, 0.2381746312865105, 0.16397841880827954, 0.07650694559231692, -0.07970666075491752, 0.032040957276523466, 0.2626596607157763, 0.4068561983936421, 0.13020550215133214, -0.20946701471387152, 0.18993840389820846, 0.2706584288145188, 0.10352554397720225, 0.3385936083315954, -0.04456256868659472, 0.18295141858753974, 0.25611262869537305, -0.1392436091200344, -0.21603087010008407, -0.17470995353053576, 0.2836334086557167, 0.17107385658937485, 0.009390238919188684, 0.012215517231950645], [0.020993969403751468, 0.17481279108960013, 0.04049404161324512, 0.07696720547361315, 0.13862298016916177, -0.04419226524574477, -0.012769241607552492, 0.4111538117421936, 0.26249675490647123, 0.06660499073547203, -0.05191527103345276, -0.07691082596160623, 0.12969757809011473, -0.26274980435692763, 0.1456718984523602, -0.10038632246815014, 0.24098824356874224, -0.047006425268346586, -0.0868019081104778, -0.32156224940171924, -0.15443909902588238, -0.00467960835167132, -0.2491385053451449, 0.09908770170855778, 0.20678129303710116, -0.065828305204268, 0.11422890683730408, -0.01583450604676436, 0.07025717571301136, -0.3431901062339662, 0.2115799965116084, 0.06085821137151952, 0.22314968021085227, 0.014475420440851067, 0.1126896631337454, 0.05822077011515425, -0.2283232066964353, -0.0457414963994437, -0.41900646522554447, -0.28997081962157356, 0.13177234214671255, -0.023975068638468326, 0.0847131516386751, -0.07304589606293029, 0.08185574682264818, 0.06104264352497993, 0.2176764581126996, 0.10419192482430997, 0.30197078150839873, 0.05895179855475078, 0.2391077437239173, -0.07978794237073966, 0.17029446426137, 0.2711819792186231, 0.2416637241524936, 0.2356880215600781, 0.22262898660471572, 0.06642574348150404, -0.27939234320232964, 0.2229564082801666, 0.2883640536402604, 0.11152428599574002, 0.0064497434345830145, 0.09255645408197105], [0.06107309352434134, 0.007951549247560589, 0.09683068947024785, 0.13978665669056678, 0.29279424099817003, -0.10783930489736523, -0.041877897009586475, 0.14437641978161522, 0.1105656938777588, 0.11394864184750653, 0.058544606813059306, 0.08573397534622734, -0.11390108558570189, -0.025072078106795032, -0.2139574318949039, 0.02711487222239331, -0.1993240796609173, 0.23248400813313763, -0.10348936431731454, -0.1562163642849127, 0.09875085042142474, -0.1933306367242114, -0.017747737173541216, 0.12970713816573812, 0.05630372663665815, 0.08691641777677478, -0.022116507155945916, 0.3521464421485767, 0.2421055227632913, -0.0272810559606262, 0.2366245122846028, 0.02340511293442245, -0.017051138242997334, -0.16896395659461022, -0.18110499212674877, -0.5021902786435729, -0.05665741918456713, 0.15566454623925208, -0.45239140118079024, -0.10767317473692409, -0.1347125276210784, -0.06191143941897102, -0.042668926085258824, -0.07124285860220263, 0.19398438356626, 0.1937985878009926, 0.05550012980974228, -0.23623095664877966, 0.22809512649464198, 0.23301848119128682, -0.011657105830158216, -0.07916556408900081, 0.13700467314176454, -0.034964347607072656, 0.16480252372482992, 0.06362122321463602, -0.06230595752819858, 0.05535240140110489, -0.21487758519433184, 0.08156817978873701, -0.053839542868176646, -0.1876894851907803, 0.11454410326730052, -0.07200617090920776], [0.1828596716853136, 0.0989284745971095, -0.11388029043420302, -0.005410021105531372, 0.2723840920861221, -0.22303860257863886, -0.22374916664247563, 0.08491602231927572, -0.054633864352009065, 0.26298473833026387, 0.02859920541075021, 0.1905516251811117, 0.10096980331063898, -0.12111717734637864, 0.1501698651955453, -0.05660155977987461, -0.16890928560014937, -0.052868567240194175, -0.06655588700971951, -0.2508036252189239, -0.008102449682281618, 0.16359587297134937, -0.13693193600148357, 0.3067361084103251, 0.1146729250655543, -0.09163046947137433, 0.2643239745280941, -0.051124035236428625, -0.0410659660084508, 0.21857359517399363, -0.2885259588793702, 0.25935032085770565, 0.2138639657954764, -0.20164155112197021, -0.3401916653057394, 0.18708026701155483, -0.3779223510843076, -0.24291673066894942, -0.49294609830192226, -0.23295402107766794, -0.05231220552165491, 0.16535321717946538, 0.17005753521741454, 0.11674260547219907, -0.2401377916559906, 0.13896665690462337, 0.04303650108858987, 0.03807496404963462, 0.10848523450715582, 0.037306877781967195, 0.1970777917625666, -0.0246551565454801, 0.1250111172774603, 0.15559853208769378, -0.18174760092321016, 0.03537066545982147, 0.15046705616499817, -0.16425571647475204, -0.260826577438193, -0.15119944228399934, 0.24082527679394106, -0.030477162351755363, 0.2203580768699498, -0.060588611428395056], [-0.004302313119909228, -0.12451840839104507, -0.2508639805494288, 0.20545293406531737, -0.2922746505222492, -0.0846020226997048, -0.05797657351813737, -0.047618305175895485, -0.12243196257033215, 0.11883301344624596, -0.1603821359177338, 0.006218965927306626, -0.07080658009678649, 0.13878155768989975, -0.043714380127674625, -0.27546667738692393, 0.0670420508939739, -0.2762695067564255, 0.01662486939192072, -0.22020573258665552, -0.000785948157607589, 0.11542867600439104, 0.05360645654614624, 0.19895502491945302, 0.02783031911874271, 0.03647416771075952, 0.21345345103618882, 0.1897095749696693, 0.13781712798544288, -0.343180550946924, -0.12521664634938773, -0.4230061495795303, -0.29373408097987547, 0.1250931382340253, -0.09790067143360331, -0.1401976022589996, -0.26497163610730795, -0.16575520280715622, -0.1487074430934137, 0.038187415273603025, 0.21375238601637547, 0.4279574998289113, 0.08606429716730611, 0.15134125869346532, -0.07906586013518435, -0.003703707415456467, 0.26050433518687527, 0.06656070039532654, -0.07964788677881726, -0.2994457136510103, 0.07033990565294491, -0.045736517277525035, -0.26960442813936114, -0.10411659624634396, -0.02604341245194762, -0.023181552803773268, 0.05397139169350681, -0.2897901404376825, -0.18493293285151519, 0.03877061706381389, 0.06876285382942786, -0.0371651798107867, -0.20902845912061777, 0.033622084746769504], [0.034395209379350845, 0.02129375430142242, 0.13413177616277874, 0.1728117226567318, 0.1367196762257853, -0.07520455580222965, 0.15643112729212302, 0.1974523038896734, 0.13205319412624186, 0.2721454482288984, 0.09199677643350378, 0.20040832275943543, -0.045274666327338335, 0.11299619203395482, -0.05430834688474049, -0.06219931807872081, 0.16391165710913821, 0.09614106102525313, -0.0756174432437291, -0.21817427448555382, -0.039509270175922546, 0.24807393715827714, -0.026841335444939086, 0.0727726016607156, 0.11464561695998665, 0.06794310496629562, 0.18448420122564507, 0.2295597486944067, 0.2651885407129429, 0.09308951014890747, 0.21508648352806872, -0.034454120545774854, 0.04758260205249435, -0.2141281379490782, -0.030896784193768984, -0.029177997771680456, -0.2570667085405854, 0.0009680794270230744, -0.275078813486498, -0.12213758631756302, 0.18659054110765533, 0.22180258597031757, 0.1542408650354218, -0.022272545326594964, 0.05369839604387878, 0.19293542144347356, 0.015968712488659248, -0.04022097116446637, 0.25209637714669064, 0.07537687076207747, 0.043408948462619584, -0.026207953482588548, 0.09110919123426597, 0.003352623874830499, -0.109398098719329, 0.22612259954153138, 0.07918444443740645, -0.055906744531747564, -0.2318256487760894, -0.028815522196438195, 0.218204618071336, 0.015419659960820347, 0.16858367373491034, 0.01651287581433299], [0.20539050696848415, -0.20009315640097833, -0.18702482817996577, -0.1167466990942196, -0.35992242086497156, 0.01803503825561763, -0.2727550757326927, -0.11210722907667381, -0.22650939528170275, -0.19000174410316542, -0.23480929835082617, -0.13718627196062924, 0.13178945692202998, 0.014981772503036185, 0.1264821397459653, -0.028381675119664534, -0.01001181458963565, -0.15333257390777083, -0.019546170254131398, -0.20255306725560676, -0.12532568542559086, 0.3013476319870746, -0.22153422322274377, 0.11346789338590545, -0.4052234086644975, 0.1745579460062036, 0.043021392756016075, -0.3520872913109973, 0.012802869726831909, 0.1158100362020858, -0.13269846068553154, 0.15643454463282414, 0.11584015350787179, -0.025549690286314042, 0.006333463644754341, 0.10386135278772125, -0.10585827431613104, -0.14324228367101466, 0.10292252247170448, 0.044121214816336456, 0.022697810903118457, 0.10408373164868791, -0.043110163548956096, 0.20423880206198416, -0.30743525626001605, -0.36882838876200447, 0.01103479358819066, 0.12328637736348604, -0.24067783911588048, -0.20827743661765247, -0.012310527498263717, -0.19327772758251094, -0.12796475785863506, -0.23272092131727606, -0.27688867052469596, -0.13878626458227472, 0.09382764203093609, -0.20864060851899113, -0.20497535408000644, -0.3352400123452944, -0.2116478679684131, 0.00864847005518036, -0.008361672119597575, -0.010101471536275185], [-0.3761898952980587, -0.21846235993623325, 0.08473378385829612, -0.20290980145919618, 0.07158097693692797, -0.13014763110024025, -0.18562630911693465, -0.373281095006749, 0.11859140813579405, 0.08753814751330156, 0.07589076044326584, 0.03337647128322253, 0.17681082587167665, 0.06891620295459211, -0.05067703326998965, -0.13267337067264334, -0.24364879919696988, -0.308008936078396, -0.047981188144100115, 0.1970433144857755, -0.10375287855204741, -0.5430366263082581, -0.23022893803759892, -0.2704249904665607, 0.048957611596411446, 0.07730704858449056, -0.17842404172367396, -0.05236958043450121, -0.10746368986127547, 0.16639263720618966, -0.27344346944927256, -0.2736260743337234, 0.14689941378100507, 0.07473626368975711, -0.1728940366510656, 0.002040160380071752, -0.05569342946471871, -0.4117346282975046, 0.23257553172366896, 0.6095924030019373, 0.09435042426237737, -0.24996860215146757, -0.15480169142881167, -0.38249974841905526, -0.28715847290618757, -0.14691190779139188, -0.09353321051414872, 0.031139970453581387, -0.24204445282257064, -0.1432392415148689, 0.09303825857125443, 0.17517652383570814, -0.17151830404700857, 0.08678661802413588, -0.00904445597240287, -0.04082613413649215, -0.0754973380358172, -0.17112392302168405, 0.46978491744856976, -0.22763331458665934, -0.12930293625556535, 0.020724272115955115, -0.2495883685523691, 0.23543537157199124], [0.3939269551979396, 0.3103533075259305, -0.16707478116789942, -0.16729364894567408, -0.10489005979034931, 0.1837244630699411, -0.0293519583740933, -0.07742252077178231, 0.1594183401020469, 0.0520650600473152, -0.045196036062009164, -0.336605167800374, 0.24187672595318982, -0.25311383926605385, 0.48738052853944813, 0.23751127573465466, 0.05700677111071543, 0.2963126572844589, -0.0947148709328149, 0.09325034115047397, 0.029417933805318323, 0.41474940585938797, -0.06622119744171669, -0.1309210389308883, 0.1949759496972576, -0.03655707297587954, 0.11848092265981003, -0.19456411842788743, -0.04233020668712934, 0.4111064906921664, 0.12243124509921002, 0.22972254091667668, 0.2156948828824827, 0.2160488359438283, 0.04284172602411831, 0.15354620062885996, 0.0971075986029533, -0.020888412511495147, 0.12490797932238676, -0.14952521645082287, 0.04011837498752239, -0.13496346048051405, 0.011320615553402951, 0.22322438940045292, -0.11357777475727228, 0.09888406567892741, 0.16066368199108533, 0.25358716289579, 0.007269048750391019, 0.15086033133368335, 0.3619690718058638, -0.21066477269442566, 0.12089899552194946, 0.07534893036615525, 0.278034288595843, 0.05124045789780597, 0.14258367241039735, -0.006268723554533808, -0.2569981962218677, -0.11925749308326641, 0.03550827907369412, 0.3208530275101907, 0.17640970164206557, -0.16559059961929593], [-0.04909479878841843, -0.25206212148667295, 0.30498258777570003, 0.08844338075555362, 0.14395291437348648, 0.20691315257470685, -0.07033120926847959, 0.38540198984508617, -0.3788726920187637, -0.2936148996575852, -0.025329947694553802, 0.22674820005639007, 0.029655054892752136, -0.35349472463836085, -0.0461857442057059, 0.29711184152498055, -0.07516052338497461, 0.08193872329922113, 0.16615178413721013, -0.0016656935675329388, -0.3028812402726739, 0.030111826500307717, 0.04629884383293648, -0.0012348545098480224, -0.25755897120771415, -0.1752759772194885, -0.06868569340512999, -0.2839559207108009, -0.3695282070396022, 0.061283178899870006, 0.18560172603679767, 0.030881840204002666, -0.1216228964718209, 0.07735454434074483, 0.37347756953423733, 0.2229887120004086, -0.060747294734742475, -0.03822115693405691, -0.08997563594351463, -0.2715409700259428, -0.30192921163745284, 0.09636431211810685, 0.030201413382665018, 0.06824025761297843, 0.234185681972006, -0.11893961147827287, -0.051164805658250045, -0.10297078172664434, 0.22498438615327163, -0.0540055485073056, -0.08683199892963529, -0.2616900255688436, 0.05280658373215264, 0.022803830245629056, -0.20749870661447498, 0.08132675773656331, -0.08804422480734729, -0.08837537157158105, -0.10785720789012498, -0.25889436640273955, -0.006049500902256439, -0.14709322526138308, 0.039658354981499236, -0.23384295656410917], [0.23866416585037575, 0.25109387682247475, -0.09075824987390557, -0.33833235349284924, -0.15347227990803528, -0.052805401001848065, 0.04201328783620632, -0.05132346255643544, 0.11672917191474337, 0.1263605774360532, -0.2215051283523171, -0.36406561353485156, -0.07850347848886138, -0.32082776667973417, 0.11719836677579504, -0.1793866215236843, 0.018265855960133453, -0.07255765051608903, -0.05504845896111711, -0.0823165884629013, -0.17036488167037797, 0.13843613249677877, -0.12810209762595293, -0.033313622558620665, 0.22421238084755796, 0.12283968760526265, -0.16846741691472644, -0.2113032551027592, -0.1965305643132524, -0.20922117453467134, 0.0987541716694962, 0.20457476605533903, 0.18688113030741887, -0.1444006041428677, -0.251503988043548, 0.0635279455763798, -0.04413768666975987, 0.0862337003388204, -0.06375859492726083, 0.21502204035989733, -0.01559662492612014, -0.26140293841476114, -0.37418309816481116, 0.1218230266804777, -0.16836079463471526, 0.4521334733280505, -0.23191691523866173, 0.16456781136723853, 0.0352385347693749, 0.5114800467689969, -0.12193108666440285, -0.21923053049325952, 0.1338654879813113, 0.18235156486101622, -0.03616961581496418, 0.030123045380302353, 0.1604807989122817, 0.0798565238454522, 0.14218900096395637, -0.12763633992069903, 0.041739594284544046, 0.16345743311334732, 0.3130731727463314, -0.2229567114969738], [0.003839417411196662, 0.15076944939718476, 0.257460553986222, 0.0092573955544974, -0.008785935805534169, -0.17569016228512319, -0.12347315636580146, -0.17138075020332283, -0.14387041705189377, -0.09906250632970529, -0.16179048290754647, 0.035309343180111176, 0.04912682504236981, 0.15671917539754282, 0.16229099391445403, -0.07050892101647903, -0.06732597753963315, 