{"config": {"n_embd": 16, "n_head": 4, "n_layer": 1, "block_size": 32, "vocab_size": 53, "uchars": [" ", "%", "(", ")", "+", ",", "-", ".", "0", "1", "2", "3", "4", "5", "6", "7", "8", "9", ":", "A", "B", "G", "L", "M", "O", "R", "S", "T", "_", "a", "b", "c", "d", "e", "f", "g", "h", "i", "k", "l", "m", "n", "o", "p", "q", "r", "s", "t", "u", "v", "w", "y"], "BOS": 52}, "weights": {"wte": [[0.1758234914025056, -0.016409170347288782, 0.15284646751884765, -0.358676596355571, -0.24988208102903858, 0.01634614621232556, -0.022199905603450955, 0.010123130644961995, -0.046201503244554666, 0.036910207377775874, -0.12011895652449701, 0.056609183688819224, 0.22556583122272814, 0.1993697238767577, 0.02480871766065447, 0.05578638812024904], [-0.06091910173207039, -0.007043376796025565, 0.12853558789902608, -0.012368462062521528, -0.005529080154880861, -0.0949938824756623, -0.11406343189955612, -0.1291530458133206, 0.04559881543887265, 0.08470052658655025, 0.15241106285202455, -0.019593548312223454, 0.10780252942202971, -0.04337824049567928, 0.11130009071578992, 0.060027491386869046], [-0.1301478195437909, 0.03311800875991594, 0.08062210877490822, -0.10430082574417343, -0.04244951850271753, 0.001281065533357714, -0.003698819086056678, -0.00041214696407748614, -0.07061498154290777, -0.13204889795334832, -0.0711567181590123, 0.04051661490943766, -0.032481086893334565, 0.09017564464383888, 0.03836440942757863, -0.0913164391065749], [-0.02487074554820718, 0.13404906270184622, -0.061864866660916, -0.10380005416998239, 0.10235029012846848, 0.05142164487999841, 0.05379688581638913, 0.12170109406813842, -0.15052808090421343, 0.002080689130952954, -0.03493258701943011, -0.05621884888604547, -0.08656858267121549, 0.09071855304588715, -0.1586522584556569, -0.027402551151610232], [0.4057251126605223, 0.08258157141003537, 0.2895308841699299, -0.2435601310529, -0.24088443718053795, 0.4999860616799122, 0.007479409796563246, 0.26936524824892666, 0.3425120365528997, -0.002699001039383241, 0.027667929761426853, -0.169963045822782, 0.2877376248745301, 0.10690681116910816, 0.05989769843265871, -0.2873172775085449], [-0.028474637069046058, -0.14464935237021045, -0.059333367665140024, -0.027033998412660635, 0.06132660771002079, 0.0068465218472919115, 0.02521991752335592, -0.1350505396832955, 0.0820026895154643, -0.0051514966604104045, 0.06594018846589775, -0.10396616180435808, 0.02131241911823551, -0.06251417931250745, 0.07446724976721084, -0.1305635087502161], [-0.14291171983883452, -0.1263062714980554, -0.18601101020883884, -0.3399518833610982, -0.002529514956504798, 0.037532675459209824, 0.1999733590407596, 0.29780730320227855, 0.13711107137156514, -0.091289589976415, 0.17301967573266716, 0.02832474636993325, 0.03097795157176399, -0.001453904609260678, 0.03063747160535666, -0.1091473953897931], [0.0797467693007937, -0.12828432808551204, -0.04708767955648315, 0.06162200513815889, 0.07100156557511689, 0.1322728359110034, -0.08764995885985012, 0.1094187404237605, -0.060371748399449206, -0.05320247468958815, 0.03561649859646857, 0.10907972259981939, 0.04439791852104226, -0.11722285126867377, -0.05561155976484801, -0.061995747296467], [-0.15041388141838266, -0.2843063667911755, 0.10716413605092608, 0.0490350579707554, 0.09584090499120308, 0.14132089477859375, 0.1248752239999612, -0.014137471633578681, 0.18997229279592026, -0.15276198852811304, 0.22011885833902817, -0.054152356261860574, -0.11941890596846844, -0.22523925839552095, -0.13504119108847806, 0.2690422008186059], [-0.2209153399491976, -0.08549039901640373, -0.12304797953799654, -0.10898966259580793, 0.10028697929052056, 0.1100431558280992, -0.002659274759639118, 0.029150138217444034, 0.03002255722429907, -0.09889865867357936, 0.1643688581096291, -0.042532491886760344, 0.1335874193798731, -0.010014724928565163, -0.15994075514870926, -0.24750189321058708], [-0.21487491179593105, -0.10604191760143428, -0.11327404325556573, -0.05869518430739836, 0.055935604099683935, 0.1584138570477134, 0.1260176891216032, -0.1386126764991722, 0.04483974863012561, 0.007808593598596883, -0.0003646367820273692, 0.019971982894355044, 0.1451719716263367, -0.17345528129517698, -0.015665202193272415, -0.1128113828280138], [-0.11488224731995757, -0.05166004113622129, 0.007211081926873013, 0.02528328960378729, 0.07291935887443837, 0.10783800201722382, 0.18324327021871362, -0.06254875255607753, 0.010878077214698492, -0.030181956198979305, -0.029665418700548344, 0.03740077819652465, 0.07663586775492973, -0.02089980078089233, -0.22131638323756178, -0.009322739597987831], [-0.23924575116626004, -0.012757649152841319, -0.013681127217685872, 0.138424696881614, 0.028068089712434578, 0.19917380133044144, 0.04153990596250124, -0.1026337742739438, 0.0510118668516494, 0.04736179863443643, -0.01226294823891982, -0.0717509196356614, 0.018902710974262903, -0.05476728426119507, -0.19634905493106902, -0.07337333167803403], [-0.12969143011826445, -0.13392714372005152, 0.16052113563877055, 0.023490225419262278, 0.1457026464534825, 0.008882629934244646, 0.03900170037242523, -0.01741858522669546, 0.1417372518184969, -0.03624349962534265, -0.07693336153031625, -0.05513572768874962, 0.03165132803969408, -0.01480329500844093, -0.21238466707806652, -0.0285439001168289], [-0.1491349701325739, -0.09868884135862839, 0.1102823905806838, 0.023701133778538067, 0.16561467304479827, 0.0327808426391615, 0.16694811939721083, -0.016310430559681028, -0.01223343992699671, -0.03738669992387522, 0.021894117039193133, -0.02020499422297121, 0.10759135255812986, -0.062341117176605086, -0.07233361021451803, 0.1318617610680829], [-0.20694522303855692, -0.01758010954507422, 0.06764740196810337, 0.15130434191102585, 0.14450149520166156, 0.004799322776859741, 0.14541248944061638, -0.058085684026673925, -0.0313292629275305, 0.06090456689301981, 0.005918140596213234, -0.034281395299314926, 0.14072585325716172, -0.023902525605366903, -0.13800344531118877, 0.05554029697028852], [-0.2638022165280277, -0.06225401414845987, 0.0947446858263614, 0.07763829621561497, -0.03889409026654611, 0.09602866133510851, 0.22499045735938908, -0.1482027438748464, 0.08787646911973211, 0.015610969130431016, 0.06838123017117977, -0.13260178192507613, 0.10970232690113506, 0.08474625162664337, -0.10462979046586134, 0.05934954094130805], [-0.3613055937689753, -0.027638833154979704, 0.02779182881908933, -0.0008319095040936471, 0.03370045847334479, 0.007669889619441409, 0.12894896237608644, -0.05987495426963225, 0.0837000084575427, -0.02339762512351028, 0.07276046742549465, -0.1871613441663003, 0.04767556641234652, -0.11287175169479705, -0.27108937972360475, -0.014023109935262455], [0.07279869620155893, -0.09263267476890041, 0.045768339126083794, 0.030050269196475514, 0.09627897774077125, 0.13208882504311065, 0.05413542348359709, -0.07399915749510533, -0.2077160871725311, 0.046530288201799726, -0.047346591158116985, -0.036815687702871344, 0.029547764067046497, -0.09448131879711479, -0.11927908174070549, -0.009443546926646031], [-0.002643277690932481, -0.007627894615405025, 0.016743318577940522, -0.05549628662714512, 0.005055210764985605, -0.022430989142222774, -0.03433647530453059, 0.0868848427686111, -0.07444195690982201, 0.0069229993772648045, -0.061269197091109485, -0.015888845141395394, -0.10092563477955845, 0.017646977446521855, -0.03301319601389381, 0.06249682241508598], [-0.06356761750914748, 0.10740756232227529, 0.1006055676924244, -0.10146482256101921, 0.02078208180996245, 0.09322408863142653, -0.08361903681282963, 0.02708713097832661, -0.037306332341695565, 0.07130464433525383, 0.10218519108444886, 0.23001372577176912, 0.03463834511104086, -0.14147118013209356, 0.04476778337972464, -0.01751268482831342], [0.041993017491512935, 0.016569146936916995, 0.06723490434287242, -0.058822875184776933, -0.039104108480280265, -0.04602187543320113, -0.1306589799936, 0.0410258682683825, 0.023153437027988298, 0.03745750254196311, 0.1633006079197778, -0.05267596012727947, 0.07757638395343354, -0.024947847568657092, 0.03443234037957567, -0.020939479809489667], [-0.04802003550762282, -0.012864733627649705, -0.08351312058751702, 0.1512795818118371, -0.0496060775031632, -0.05775493711775306, -0.01166463233216641, -0.05523330221039696, -0.045704631304646734, 0.0047815017444069905, -0.07898407874102976, -0.0006608918014476306, -0.13968330642988075, -0.005830969801716082, 0.006065233325237047, -0.10551072507315754], [-0.22887776926983985, 0.08403180662318388, 0.021954465141060114, -0.11715103005753448, 0.13651102393080292, 0.0024522097850347194, -0.17975810571413223, 0.02709229580116457, 0.044881824326073676, -0.07047472013563218, 0.07225422706244886, -0.030461092895080623, -0.026134238963960423, -0.051623851456794545, 0.05485801209392308, 0.05712195606960826], [-0.0469626739680474, 0.026127331383854698, -0.03465523962581208, 0.07168121981716168, 0.008491351516720383, -0.09837791647946954, 0.03564658583753425, 0.02239477414027713, -0.004246112663463277, -0.14420052178371406, 0.004507779301938954, -0.02289003328057272, -0.03725057665979421, 0.17945804285216366, -0.05526899210067393, 0.07394861860819985], [-0.06976585544888009, -0.013066190588472202, -0.0372099163954354, -0.0022918931020877056, -0.1549788226394512, -0.014199156278274134, 0.03404770449901137, 0.045105505110908564, -0.0005843734055092773, 0.043368624480555, -0.006163970195584709, -0.002567033143121973, 0.0783158667536436, -0.19710752627923722, 0.02988486457564097, -0.01029033595797856], [-0.014050503568166962, -0.07519113934120206, -0.006545866067015794, 0.12347645287630235, 0.03874836453647533, 0.14918834022412517, -0.010224808851995018, -0.04003524279253397, -0.05717833598826959, 0.04954425663321562, 0.14648305783811533, 0.057198967936150036, 0.02743988341474354, 0.03870425578805616, -0.12736661544103384, 0.10934121194856405], [-0.04170911164450491, -0.034215965894144044, 0.004755818409179133, 0.2732632190138421, 0.015065128933122571, 0.05669716068711689, 0.06322147563229838, 0.0783703356541484, 0.09092546752542281, 0.05797210802401796, 0.08336290790436551, 0.05115241514534355, 0.005853331005718464, -0.054750268520290794, -0.04358476601047458, 0.055098205967977106], [0.24703921254391187, 0.18835152286869603, -0.05354716274072699, 0.03778594504170298, -0.03651997326825351, -0.07273570237779364, -0.1313212011598554, 0.03999542079828853, -0.02897758000229569, -0.03823510106223164, 0.0836866408307106, 0.07973491845103961, 0.02738720127801864, -0.04661636425707769, 0.10596663242307484, -0.04651491627711844], [-0.01710866007581029, 0.315470170775262, 0.03788302594469624, -0.02805195790004036, -0.24161336308602702, -0.0105571487177615, 0.07471783061170949, 0.35470598146326443, 0.09320982062183147, 0.02600419291505992, 0.18785265938252535, 0.30745086208723166, -0.25668257886166224, 0.22085953091478994, 0.06964282021377527, -0.24289711009055262], [0.09799519149056274, -0.01813474322027248, -0.04338981100570049, 0.14146048897329075, -0.08454530637302815, -0.08987136940953923, 0.076071218770604, -0.015135272736155364, -0.11208882553399258, -0.006700040178398252, 0.07309199333147885, 0.039957462952105574, 0.09466636232684454, 0.09616866202528385, -0.034117491276042, 0.08538953305062102], [-0.01791105363683125, -0.22148508895280838, 0.03774387989622408, 0.14863033382402768, 0.3581349253427015, -0.022872086844554215, -0.11021663820971131, -0.25077675067065214, -0.20113093270626026, -0.010695820099771302, -0.22388801471588113, -0.21171764957620146, -0.3898109193042093, 0.24712464176779173, 0.3625404387958488, 0.13364459089889025], [-0.09802232688737551, -0.1651235899471918, -0.06515039876167919, 0.019160754186307895, 0.024988816270415822, 0.08224837655144461, 0.0660412833475523, -0.05610773520746152, -0.1562414216741753, -0.1500938215805133, -0.1670420010240783, -0.22485862716822963, 0.04119881750289604, 0.16705232571429335, 0.0827143419869433, 0.029665855185488293], [-0.0919071406954106, -0.02881373262991474, -0.10613699578672757, 0.029472585147232628, -0.12767459238492723, 0.06830449208473173, -0.15568819454416394, -0.38048156787692233, -0.3134046446309996, 0.20884161295491965, -0.1633158147824029, 0.024965883570105016, 0.2510348894569024, 0.03967679186434787, 0.04110140787917766, 0.1573308781686339], [0.0784451617467965, 0.12057451358509973, 0.02953820739828144, 0.0989906915505355, -0.014445351544389614, -0.06487395854264069, 0.029263732891143965, -0.04401756463285019, 0.0024429173995102953, 0.21001185906750475, -0.07657602925844931, -0.001064153273167838, -0.08165121212626199, 0.06683185472393066, -0.09174709097304729, -0.07248207002236759], [0.022248601926366764, 0.14631423179826397, 0.002982909305989093, -0.09395743556542624, 0.058371304227278466, 0.005298171573014043, 0.029046335305375322, -0.0018362242620622523, -0.15295074428418928, -0.06800567524833102, 0.008931655312544851, -0.1495387025239638, -0.11038258160975234, -0.15475275655526313, -0.019569106307542786, -0.16429336212765205], [0.19842635759848865, 0.41656706262537085, -0.4084019979561059, 0.25335255190121325, 0.11993165344378935, 0.07458577965720799, 0.044128287360942764, 0.29645822846748265, 0.076565676868363, 0.12424775828658294, -0.15018486767903516, -0.25387882904148806, 0.24136859142066464, 0.3704877487690073, 0.23782286781043369, 0.4309745703717364], [-0.12040388523510503, -0.15175493881645974, -0.20064567331032027, -0.4268685427955644, -0.16579124983620258, -0.41019602735114813, 0.2740439171382953, -0.21530059430188886, -0.16697258870115192, -0.33521934264704106, -0.0836901338921178, 0.2626495427406614, 0.13598429238450682, -0.13464117038807805, 0.20852123956356583, -0.007349213865058953], [-0.06567656645627648, 0.26125282248338266, -0.13647657712158287, -0.07897316554845976, 0.0683270065975388, -0.6701315644437653, 0.16142031536481777, 0.13024530511206137, -0.1507217345625998, -0.11847597091868249, 0.07768202548626447, 0.2593915361479032, -0.31603047776269017, -0.2603212949071494, 0.26053687629189864, -0.13640170630243484], [-0.2454078406191695, 0.1981027506171763, 0.025896540554227857, 0.07001807034813054, 0.057277004991218426, -0.0095021725238215, -0.1426051554663758, 0.10828396670749565, 0.08504913755512351, -0.22739686910670057, -0.02259440664145684, -0.14829904646357028, -0.24977212124884812, 0.14261010120368361, -0.10442479708119277, -0.14823982381439796], [0.23900128326886816, 0.13187965879108457, -0.5489341047136733, 0.09396213831701378, 0.2633373494615452, 0.35939019938951194, -0.2855167687821861, -0.12363132748766793, 0.059426238950066976, -0.037641321379261496, 0.012669229072722712, 0.08346589448930866, 0.03458146019367927, -0.2044612589871174, 0.21583698555919964, -0.33477062307324285], [0.12240832053294606, 0.2200461909552018, -0.26270097026700057, 0.1286518482019252, 0.2874249959584842, 0.08316101232276234, -0.113931689617658, 0.13240160099318604, 0.31269949636957933, 0.11003257163096264, 0.2723045038201677, 0.01780065865318987, 0.10213579956696876, 0.2675113577557404, 0.08481211694893069, 0.11907116483210607], [0.2993539385336687, -0.10642146002798317, -0.2254665719921189, 0.3991138476215324, -0.2372667079346916, -0.19044447013566596, 0.19749880647510154, 0.2665885811896918, 0.04317400039668605, 0.012188284728578214, 0.16290214016074211, 0.20182729922453485, 0.11657750457798954, -0.07287566046442914, -0.05159759495392962, 0.14050596951593428], [-0.14978487413988176, -0.0407162072323662, 0.1459128513208949, -0.07609747934631667, -0.08208470018887899, -0.19967897844311425, -0.1351627532188866, -0.13191794122645045, 0.30420515224635025, 0.4584853356264529, 0.2772517991077012, 0.6231308016931143, -0.31463653515551177, -0.00038901439250431656, -0.025310136630427183, 0.055373885185554646], [-0.1745980877483954, 0.026119811316822217, -0.009177181914200841, 0.02498400655713156, 0.07475916786811812, 0.022737929705844956, 0.03754237849510865, 0.011915168800630442, 0.031712380491067574, -0.13567640901064743, 0.000852268072125767, -0.10152018408182127, -0.164634213802479, -0.034321502579894955, 0.11670177099747908, -0.0020993730880298086], [-0.09709110055521654, -0.12598731012970824, -0.12085078945306511, 0.1833835869041328, 0.08562169158553197, -0.27348004941758336, -0.21841084675197658, -0.2053348433007656, 0.0077482257032631926, -0.32425993878266324, -0.40276220324260703, -0.11754503219106198, -0.343136598868601, -0.04008549343375267, 0.1454972126354575, 0.19113133623141265], [0.30178155005472374, 0.08622800633032582, 0.1331705287152539, -0.08730623916636825, -0.0925620246840646, -0.15788477546211396, -0.13693095082676393, -0.29295718761131184, -0.26153957514467174, 0.0005423677092441706, -0.043034581233095566, 0.09893017358985758, 0.09035565173548828, -0.33661135980967066, -0.12882954510275313, 0.16978265808537046], [-0.03103091595078441, -0.1502970549520622, 0.13555190557362953, 0.18750314377985805, 0.20737398910871227, 0.11522214701415727, -0.051228137372705214, -0.1212509668658562, 0.08435401953820279, 0.012145268385538319, 0.17250892891132033, -0.11970093118102332, 0.015276841020136447, -0.24677642570921882, -0.1417276237230078, 0.15780424284543956], [0.008714596720006629, -0.07028532618278072, 0.10079122399907572, 0.18974383741113102, -0.04005371366725495, 0.014333131098088365, -0.2814179224772735, -0.17194179770303503, -0.02302878106029881, 0.11052277339726437, -0.04730756362758073, 0.10402712990316017, -0.03838660766332797, -0.03409360945413828, 0.07304610711772255, -0.027956663641465502], [0.07192387717408741, 0.0003986181789105796, 0.035600224890071766, 0.017021084576873294, 0.12275595659451517, -0.013902360192034079, 0.05663781986966437, -0.03444060024979606, 0.029503931246449847, 0.01673007926713431, -0.08405914918598774, -0.0163806159574236, 0.0501590329171583, 0.0342606740327697, 0.0013556604542793319, 0.02180889873970174], [-0.09813116073622145, -0.135529951494571, -0.14090608122673234, 0.2824081660777563, 0.21826626815121744, -0.2686575628750403, -0.11840825250692454, -0.054877368238540725, -0.3493820874494369, -0.18364297610922425, -0.32306555812173726, -0.4363496180322906, -0.25909646895055977, 0.09339881053462622, 0.1803140353724892, 0.27356729580956934], [-0.07388451114873212, 0.005809599114388965, -0.05063914404784989, 0.32490169601813745, 0.023515028097750863, -0.3281120640090172, 0.050363309658146976, 0.009957450209644577, -0.1568966510268967, -0.441885620623902, -0.2622914575769015, -0.0836397239678957, -0.23732470276968387, 0.05014576123440259, -0.059807696111071645, 0.049184959105443106], [-0.256226494933707, 0.0644921199278155, -0.08429800099165863, 0.24235732859647577, -0.15391339075420246, 0.14459241964683814, -0.3720569983412273, -0.19024716239368747, -0.128704293231091, 0.18984227822814262, -0.07454985880316231, -0.015941900541326968, 0.31146500315781434, -0.05600575434207188, 0.03210696184859097, 0.12178000908361454]], "wpe": [[-0.20272938974591664, 0.10455402904270195, -0.0968486295906551, -0.014313041097997845, -0.05406056626464935, 0.07932252009204409, -0.20516808956369323, -0.19751121067647967, -0.19404778737910997, 0.27318712705398357, -0.07600488276759465, -0.03744800455924014, 0.13192900334445143, 0.2615429069865772, 0.017487376130369155, -0.13447379850479066], [0.10397313652913188, -0.06341835879454849, 0.01267870138304692, 0.26819822364467844, 0.39997329767713335, -0.16364666489224036, 0.1291583410421323, -0.21820830670061406, 0.032444823035163224, 0.10712562374629442, -0.02405026864334994, -0.19694228152895218, -0.2331456838767434, -0.1193568327131548, -0.019913151314920018, 0.1604749606852709], [0.062039759639826456, -0.05652507361901545, 0.21576710539054272, 0.002721047734158265, -0.28733057645452414, 0.29871815236135385, 0.19452002486393072, 0.4941353833453281, -0.11284043468518813, -0.28021783060491207, -0.14433806123547827, -0.077983260217948, -0.053272970636435074, -0.09492857731978929, -0.10183212498212617, -0.14862888434333157], [-0.290132483792878, 0.10789429069872705, 0.023578616886508065, -0.13614971584496138, 0.0026536215055687545, 0.3586848387717268, 0.2908183204556525, 0.0011003348027693318, 0.21071476465263073, -0.04362908013090658, 0.1785686722038591, 0.11281108614888677, 0.3468371499047175, 0.09959875445644212, -0.10388042821142339, -0.2022425057639201], [-0.20677853382756675, 0.20012169195460666, -0.1697808530462946, -0.15204442756475528, 0.2245515925300965, 0.16485110500980363, 0.07944960940085691, -0.19689822642017912, -0.046570770403833645, -0.20388511086518565, 0.004370507277667116, -0.1846422554877048, -0.08573571749170197, 0.2499286026743549, -0.047937489588515375, -0.4119175702335892], [-0.17639802585631031, -0.1933239461868189, -0.08468659174742617, 0.16021179458110785, 0.12591352078994414, -0.25515782500907064, -0.10642954265748517, -0.06640609292017563, -0.08056400873722158, -0.26671869236590773, -0.3106304658019713, -0.20993893218492027, -0.22514434621237195, 0.0069639890519342, 0.11815452386741548, 0.1947943354428295], [-0.22638838556935423, -0.26395554687755785, -0.1828160637427069, 0.198100632636081, 0.13339737308236058, -0.23791257813978758, 0.25597207096433844, -0.27478563731888345, -0.12051621287518113, 0.1506361474513395, -0.126597513397561, 0.27080488339117187, -0.1021335254857894, -0.4253437376749881, -0.1503020810252388, 0.2049363307462689], [0.14287259893356613, -0.10137668234895093, 0.17355730231793545, 0.14347341834400001, -0.03353418241985879, -0.1832158689470997, 0.23340446667521536, -0.21817459189330962, -0.2697224954448574, 0.11547354610063279, 0.08380493796828459, 0.2834177303454944, -0.04686084580104146, -0.21614100525052604, -0.05112756597732118, 0.05625285216806829], [0.21041608274692, 0.002641523035567425, 0.12675686361262375, 0.04570652026026909, 0.07481370898548839, -0.36521130696686516, -0.13616874801144946, -0.06871891334787514, 0.09671800324946618, 0.13744189245206911, 0.10238988611545398, 0.15966661351883, -0.045450832054277183, -0.10338501211825615, 0.24873876541136272, 0.0737493113369707], [0.08461684578291166, 0.0409714897676423, 0.10977761454677226, 0.03309910471770748, -0.08911917318513392, 0.05607795208526286, -0.06653219228304577, -0.11491421626362343, -0.02078312485118218, -0.1228919180882957, 0.07950770347263306, 0.08479388296611154, -0.22081751689855267, 0.12453050629587373, 0.08783609262705637, -0.15219595934234972], [0.14256853167059194, -0.0034769079225891687, 0.038035791136506555, 0.0472053350305204, -0.032991393480857806, -0.04331007000527382, -0.11916590825179113, -0.07831594146035124, -0.034305054454735064, -0.059554694614802076, -0.07212249471621436, -0.06390527030138521, -0.10527450537239201, -0.1533638012811204, 0.09222853031486476, -0.018109315074220804], [0.1760484533326508, 0.2612544855827334, -0.1876985954679703, -0.04460540764112895, -0.11570000395757182, 0.035641633023124904, -0.039228047511306055, -0.14869790504989547, -0.2279289863334163, 0.09322601663489202, -0.2687707759086681, -0.019574287044734972, -0.023788598461839314, 0.020534020540119005, 0.05342686465027032, 0.14043844969990862], [-0.013633391107748178, -0.06010385872453755, -0.10900413200927424, 0.1445578352728552, -0.14871223587786986, 0.002819929449708211, 0.2172496989989051, -0.024019103339165012, -0.09137116777480753, -0.13258088715026398, -0.2065222427598605, -0.05683287409573118, -0.0829219622890465, 0.03616920045049239, -0.03543377027400497, 0.022635886190577593], [0.22099886362785745, 0.013714274662595984, 0.04191386263530693, -0.013012109289388566, -0.1114865568052457, -0.14566385436860405, 0.22121479450011527, 0.08723272050073047, -0.04043643058811324, -0.045229453534296915, -0.16568425256698802, 0.018865604512979823, -0.01069395168010462, -0.009916292964368594, 0.12991588272376706, 0.19148262353269435], [0.10037002959494551, 0.11034322340581214, 0.18250731871264625, 0.2482506565845211, -0.23487508663572607, -0.09731195918046336, 0.13176833267067767, 0.04245644765045261, -0.07025458803986892, 0.07646238960267511, -0.3350548143411013, -0.10449129903538507, 0.055224433307047786, 0.02115024991063391, -0.13804661199166582, 0.2743234384576175], [-0.10489578001304262, 0.07067350340289381, 0.13300390787921654, 0.07426050160850883, -0.16048091638713308, 0.23724851465444247, -0.0715557494520363, 0.13925678944117983, 0.040400892381105974, -0.06392530554841372, -0.14020669990887238, -0.20619675766871123, -0.0038291459428751173, -0.13648010929118445, -0.04246905899978301, -0.014868127010555185], [-0.08473877242368304, 0.2920943369776982, -0.028307844293749027, 0.18283776218918732, 0.00651948755588091, 0.2262717033297805, -0.017427826005242068, 0.07987386430060395, 0.05765190439351802, 0.0011715222593107586, -0.2147000585675083, -0.18600078237882553, -0.0011937050327573688, -8.842827947753478e-05, -0.17572560186198288, -0.11398343836265039], [-0.12440952195002039, -0.00558599991317494, -0.007036047901649108, 0.11740764992091421, -0.12219794403479568, 0.12580848631983857, -0.03423208607260378, 0.1676664987138416, -0.08650084730525885, 0.2570772487589641, -0.19849006476564932, -0.07898500163185132, 0.18472985066224445, -0.1519474922937934, -0.36436895184776014, 0.03344094371460629], [-0.0764938563573132, 0.17349996139743148, 0.005634461024754422, -0.07856831414331968, -0.13199112619229764, 0.12358231783056058, 0.3048551674357223, 0.12121597374903285, -0.10554513685460624, 0.020393554202625723, 0.050311186871838096, -0.0368049439877279, 0.248434716114535, -0.3019184208202431, 0.16676954486139126, -0.09671007928341566], [0.06933424321235117, 0.4124253505558658, 0.0076605701122526675, 0.2931375512181645, 0.03657894915175732, 0.1086128328805263, 0.1640230894521236, 0.3076087108511906, -0.045671363091770764, 0.097296418007336, 0.09868051852884202, -0.03246713428052387, 0.2621468205644376, -0.38536800591219356, 0.3389040346121291, -0.14908370083292782], [-0.13402943549494747, -0.08747865095877276, -0.12105501962262527, -0.2966272438785453, 0.10643551985658867, 0.028044791183414262, -0.09468074020807167, 0.045264115427413085, 0.03983963056644327, -0.04591127347470972, -0.19736900784413933, -0.15793293166613392, 0.1561995080287207, -0.06846442485948764, -0.11271088235930381, -0.16114561302036093], [-0.1795561300951631, 0.0312558511750995, 0.04722696969352591, -0.06853017307557213, 0.16964120448124534, 0.12989534013877851, -0.03957104693307103, 0.01032419276842103, -0.1382707609298406, 0.04833281538633683, 0.12134109246037744, -0.2366450807060853, 0.22996957839271923, -0.15014727630918098, 0.009624683162255093, -0.15172855487495315], [0.036540342643765836, -0.004231062589449088, -0.12021920653027142, -0.0366395709479012, 0.20990136424449438, 0.040748947045664216, 0.22128384448142588, 0.10235365679526413, -0.07210947194034568, 0.08912997003985752, 0.18133496719458056, 0.06828423403153545, 0.10180276905030221, -0.14699669374470448, 0.07167576714279368, 0.0016635857539173786], [0.035645524849163654, -0.021671362955982175, 0.09922260517134565, -0.028244198465251502, 0.023628090749821848, 0.07665678792009918, 0.06467555605036152, 0.05156952794027573, 0.034479125650244705, 0.09343409246838652, 0.0441825131571902, -0.05957172948687949, -0.053920753958645956, 0.17370357497052766, 0.010967998445046163, -0.1646065363728289], [-0.16416047248451582, -0.3722589636876069, -0.01424041610047499, 0.017939179367242254, 0.07398506567430638, 0.0475346419741361, 0.04728307870261594, -0.12810537115093637, -0.0070579925462124025, 0.01599050612972955, 0.046165078264433335, -0.13139753642972685, -0.07682199584507035, 0.07842543065347081, -0.1777925835047321, -0.14698624001166283], [-0.04299894400232946, -0.3193779421742246, 0.04654273387523845, 0.08617830575035042, 0.17297849328779402, 0.055300524495546365, 0.019398798331710123, 0.016532647049459708, 0.10390221544719891, -0.0540804783050102, 0.01775839696029556, -0.08802026191303765, -0.0921994439285534, -0.027349602309329923, -0.03939165877315073, -0.15651750969240738], [-0.05777712875843148, -0.23509239946631258, 0.27512990439140395, 0.013545270405550133, 0.14296955747582396, 0.20554044271631444, -0.047862735919228766, -0.12493475439409325, 0.02368136475098295, 0.0013425894669533672, 0.030762210393956876, -0.08085469789210485, -0.16431624058000527, 0.12960431848293694, 0.05522568873303035, -0.019392108250278095], [-0.16947092052946086, -0.2247681113610851, 0.34460853707668543, -0.01530889928925959, -0.028689816995093435, 0.11717269624075428, -0.20011313696545718, 0.05362087499872146, -0.05867174831220028, 0.0011929223005073242, -0.007307325029962644, 0.01624418624245847, -0.05158654245666724, 0.14488476639327386, 0.286655357214332, -0.05127990194191368], [0.05300416753044884, -0.19622234492123034, 0.13241242913306103, -0.10604919805293728, -0.03394730652538529, -0.00905142986197313, -0.15136124505517312, -0.08592269421095751, 0.16180226856231175, -0.19353020998275455, 0.146094350459899, -0.06650571197674168, -0.02178468435296055, 0.08383088540011245, -0.06875044400645186, -0.07265880644178276], [0.22584704230845853, -0.08243399224855273, -0.012204812839284903, 0.01958395599275062, 0.07664672533121661, 0.07849065785902588, -0.18878488172766025, 0.023982986440826453, 0.1972614276741759, -0.006097011021632704, 0.21511297849303324, -0.0078114124237634325, -0.14835962036408568, 0.063991898870107, 0.0952594352339646, 0.25521555797841905], [-0.02279144088569982, -0.05427084025925672, -0.04191778326931333, -0.07357126701054188, 0.17062130802674003, -0.005572444781724122, -0.33768698986758516, 0.10099430961776606, 0.2288902293645477, 0.0950218657555981, 0.06687246796066278, 0.06913162833698286, 0.058787221039733405, 0.11464294032000048, 0.08582286947501719, -0.057635848961827524], [0.1419122638110232, 0.13914759568396168, -0.1527031165264035, -0.022747038440386457, 0.042871123262567964, -0.1196902369238898, -0.3795945885449639, 0.07618481465916863, 0.10983680004522038, 0.10115886208480296, 0.23133705421710718, -0.023788060855795597, 0.07536982139438093, 0.22049208611763793, -0.15975790514883256, -0.012756372333435744]], "lm_head": [[-0.21296960508777404, -0.028319404959302904, -0.1325215736760573, 0.1922528244565676, 0.06572854865698508, -0.34025020936335787, -0.1504552660896476, -0.07968380885893564, 0.024834276245977376, -0.3806225838147835, -0.20237550831828074, -0.31380558197899105, -0.5258622575668322, -0.09199264466793776, 0.08006983445132282, 0.015383758682568876], [0.2537261024989739, 0.28698939954961283, -0.4292398236800641, -0.06514193379831215, -0.3823159697406565, -0.09977113067746447, -0.14482935867112667, 0.24882395621918582, -0.38300055761300733, 0.05500662126631668, 0.18738397316169095, 0.27615718450021337, -0.16979509157071732, -0.28554845845318555, -0.2609321555528453, -0.10707223388037417], [0.43903342637689663, 0.2847624130492526, -0.3400143065391983, -0.038633194136728014, -0.23589663015158555, -0.1809163015738052, -0.19216755546356543, 0.3363581699942365, -0.3493369497126585, 0.10389408149265646, 0.13818922381960314, 0.16422695001576032, -0.16511455587992288, -0.3991545810302128, -0.41205902717884096, -0.22005645829366288], [0.22231471920673312, 0.29552596920648755, -0.4267635340779015, -0.029128829575674624, -0.34849042738055214, -0.20955705566396557, -0.33763574967612614, 0.37882156244277165, -0.4663265429704713, 0.11241529279687208, 0.06820017837518384, 0.3121974275862149, -0.14017802647995217, -0.2800532011518636, -0.408153102417816, -0.16881640750207214], [0.2946529545912156, 0.2892163631881648, 0.02971209816250874, -0.09812691737116097, -0.4080805981281496, -0.24612835152723617, 0.2000349724703287, 0.043205415215600604, -0.43182768665407145, 0.08767720601964173, -0.35763835689950685, -0.06803637199669384, 0.04244336611379754, -0.00010613554140419357, -0.18749225112688095, 0.22815870771544453], [0.26022427147583366, 0.3230598161782366, -0.48782894039543934, -0.08947712955078209, -0.3541430263371768, -0.1477123930932107, -0.21334480821045768, 0.18823464718286137, -0.3002113491534953, 0.09772526809940676, 0.1439243338742607, 0.2182975403182434, -0.1834506648269239, -0.25750458905162577, -0.350871335794043, -0.024190672886951547], [0.4256071642942836, 0.48205159309792117, 0.020604185799590478, -0.252554165541187, -0.4275718597302396, 0.04334211217396273, -0.1354219035979078, -0.21417977694547363, -0.29425551238022585, 0.398354288329562, -0.30966056011082027, 0.05488977769231892, -0.0024020423664621936, -0.03689367099625159, -0.11126171113353457, -0.02134903436061641], [0.2739618278004241, 0.4115973117175286, -0.43347644902402105, -0.05158668208476086, -0.31489402117298854, -0.1698134005440804, -0.21874561385576374, 0.17295993376750438, -0.34459015240119634, 0.14770179085284915, 0.113974802741685, 0.2359384860523293, -0.21385773511289974, -0.30465355771892944, -0.36440174168539363, -0.1359716712029715], [-0.09584920732767342, -0.12465583890513178, -0.05948635883065549, -0.2776217319718844, 0.15446788892663724, 0.19315449557704564, 0.08558747873800278, -0.2516685834819799, -0.13754911232533515, 0.09487814841845538, -0.09371962836969348, -0.2618507505503207, 0.19599675123308824, -0.12271946638773647, -0.12922241543327556, 0.03269425643845559], [0.06764169829048179, 0.008031142290212484, 0.1919051729834326, -0.05497008061980821, -0.004563999364113266, 0.4181183278269491, 0.14360412305346318, 0.027070150656993044, 0.13345130224215024, -0.08087036754956987, -0.1294789635195323, -0.2313706442591265, 0.11803235235465072, -0.031316010010701174, -0.027480163055565075, -0.1873810910042165], [-0.08463776597376375, -0.01811929678743501, 0.1711341421427568, -0.18789619614475697, 0.10695072959109882, 0.16007981677574815, 0.2546811219912617, -0.03302680752331939, 0.0056521577253098, -0.15354603541821618, 0.018198761369646047, -0.23850817382014725, 0.07211482934851984, -0.011265741338724431, 0.0660055596057079, -0.0927974920660685], [-0.13345604524790264, -0.22925151129459212, -0.04750928642486112, -0.11705197880755215, 0.13619082821042494, 0.09552203300936586, 0.23203856161746164, -0.017563247285981392, 0.07940076360754057, -0.09460594967878717, -0.009216582020948305, -0.06828117487510922, 0.023600387236922836, 0.05687203693489839, -0.018045537459969153, -0.14475895939448058], [-0.1863992426133378, -0.2622969900311854, -0.1208404402077788, -0.15443887943399215, 0.06295840819635057, 0.17131691741455154, 0.13036335646085465, 0.10304571572571668, 0.10830370924719329, -0.09617067437423943, -0.043756495633660346, -0.08791923054186432, -0.015599420373617407, -0.044428625605003554, -0.1493698557952147, -0.17668145703493435], [-0.17129983673023375, 0.002961932581716183, -0.10183044137688668, -0.031116128331826625, 0.10926347384893037, 0.1074060169802426, 0.06476673574209958, 0.029319918725883496, 0.09693260985813265, -0.16197729474648948, 0.006213362342796297, -0.1484315943894005, 0.1248519246581019, -0.033814295975268485, -0.21498586168348607, -0.2457982738280254], [-0.2307970064660036, 0.14540349618084045, 0.009361477508800245, 0.10737884756993539, 0.06611096203181399, 0.2187120156647754, 0.12503257015960026, -0.007954262074050469, -0.013193031779480923, -0.029245577323834062, 0.021986017009067965, -0.20172107976061646, -0.021401828921144735, -0.024812946940718887, -0.08886705981869082, -0.13994259617573404], [-0.1791410964239193, 0.09735096609840262, -0.06347950757575103, 0.1517913211123224, 0.12044165688465158, 0.16477783264728263, 0.10877328123928807, -0.09829651712886465, 0.021378018444481475, 0.035519892232068494, 0.12864375456824192, -0.13182023041188184, -0.023926452591792477, 0.04715920962037239, -0.2527200423018814, -0.19533777974807387], [-0.1368888298285038, -0.06450934472822609, 0.11886205352907679, 0.07915357616247873, -0.0053138276183311685, 0.19490203930781, 0.02492272536339337, 0.02066666564177985, -0.008229189534568191, 0.02428663712280261, -0.039310275520972014, -0.26688120228039686, 0.05530899532259083, -0.026875489231854642, -0.17172922167016635, -0.2466068414322507], [-0.14391078075086214, 0.040464243779714436, 0.21521329564448707, -0.017081270359051635, 0.08792332736117478, 0.19592942987915282, 0.03442327444714525, -0.07491427653585103, 0.008113714382942, -0.10705410885095111, -0.08513605690745293, -0.1045750993469178, 0.15415820041098266, 0.08127679194483926, -0.33059017344991887, -0.13403493416512882], [0.1673119790304992, 0.2757026787781702, -0.2932766049687967, -0.019103359766749668, -0.2612740792064922, -0.04220945364905633, -0.29302280541792136, 0.0850807389349721, -0.3457317063034842, 0.09228652173829058, 0.2162072633288555, 0.25634391895748615, -0.2341377115311763, -0.18241633624231612, -0.25615610375621717, -0.019041154189642546], [0.1912947035077216, 0.3461208545954992, -0.4315411617350113, -0.08795181338806565, -0.23951234420239395, -0.1449235852681652, -0.3122746912522885, 0.3566024690656226, -0.44450974789466546, -0.0201970410805024, 0.13173289830401497, 0.3672481732814726, -0.039593985321776715, -0.28100956319196274, -0.27466693432417205, -0.0560765737560273], [0.2277030505580752, 0.4428260779677989, -0.4548351466585981, -0.05576306195013086, -0.3960016335875553, -0.10000402924256213, -0.33163610567576013, 0.35674189144494284, -0.417255396384374, 0.024375560820292637, 0.10768701830860324, 0.3570903114371208, -0.09466115058119517, -0.3864213214417888, -0.3241492607625788, -0.14743601063160391], [0.18667364696422103, 0.2217165905055922, -0.33199882359855104, -0.05792206672649164, -0.4319692772656638, -0.17475192425516384, -0.25239227624561544, 0.33874310415121517, -0.3683461963999903, 0.01973628211290218, 0.15360887809320417, 0.2902191477432793, -0.12615171747891207, -0.2828734342389387, -0.3793266934049359, -0.024223342375357216], [0.23583031707051533, 0.3238631373165108, -0.4957488120914738, -0.013886428188683825, -0.36428983040164054, -0.2088595217950569, -0.272977662443892, 0.2740313565668782, -0.439317902778964, 0.1708867829115836, 0.1685710267064042, 0.23931561653106712, -0.22557443694902268, -0.3179305703277493, -0.4236706555268317, -0.15441712829615378], [0.24108924574786003, 0.3904056240653651, -0.4064684822529477, -0.08238584046398569, -0.1753304992220106, -0.19504180587136113, -0.3251544404739688, 0.27178650901346724, -0.4379954609538771, 0.05632800699902597, 0.056576098825727214, 0.3495611831493418, -0.09432908849032234, -0.31297130290103764, -0.3307182657412076, -0.1633345710862549], [0.29085834551629025, 0.29486918968915105, -0.4106089682432551, -0.058526954890768784, -0.30659511887945895, -0.19101934987332395, -0.22807496246660508, 0.22718585507529804, -0.3064861499264505, 0.06897208338572472, 0.11517742230552908, 0.24219083286176024, -0.12392332063079015, -0.2850300430249875, -0.33211953119625653, -0.14911197672321555], [0.20722553361125487, 0.33980001324660547, -0.4750837969351528, -0.07858609392730113, -0.36959672557018936, -0.10242066014235418, -0.3640919753178356, 0.37937306517718705, -0.49255903710608057, -0.01947200260530277, 0.15588652650338491, 0.3095087578252229, -0.06300112372557769, -0.3512741785977006, -0.2561452632400935, -0.09547042166474111], [0.18533648888727278, 0.45148288318802804, -0.46745479840622745, -0.02165036247307553, -0.4732934954168132, -0.12768488533955635, -0.28813695643841186, 0.31572693712347033, -0.41509658445507924, 0.07023356959751306, 0.14556933642692402, 0.3431330640115252, -0.12961222376433373, -0.31976968572300407, -0.3599540873959991, -0.1380347026292518], [0.2189137662751829, 0.32842852992856325, -0.4263762030497196, -0.07709721154369972, -0.31198720623104287, -0.13415768059884883, -0.3318922191962798, 0.2832490430168711, -0.2756811812160482, 0.10282782399269831, -0.015175807053290335, 0.31742525946338096, -0.1305546325370774, -0.3014055340198282, -0.35960792168762723, -0.05505789654519812], [0.1989676040475443, 0.27648081894322557, -0.4025999129450192, 0.03938758187316809, -0.34543750650339555, -0.022923460084431076, -0.33032772509834846, 0.1730836364819355, -0.35491728110231335, 0.05473322215920626, 0.19120715313956707, 0.37299031362504603, -0.10610191429932396, -0.20113930553967618, -0.29171238324722615, -0.07956350661923298], [0.36374995087517076, 0.29676384059237315, -0.03617611390771672, 0.01671559077911982, 0.1310883228870613, 0.13989609121080082, -0.2378436233201399, 0.13706999601918562, 0.12078441404037607, -0.07456258271214906, 0.01781107689372658, -0.1849569118786762, 0.14657367250462047, 0.35883415433344823, 0.15033167641974288, 0.6084073839325438], [0.2656895420182543, 0.31196970721332473, -0.43508322499017005, -0.05341176620331832, -0.3605692277219516, -0.15342390023010055, -0.2705481365067834, 0.2977021714013917, -0.31850667234986785, 0.06319029152065381, 0.09706492720530596, 0.27840437087546216, -0.12046577102075563, -0.30653363250978755, -0.3963601021981095, -0.055031342892601275], [-0.24427960342853683, -0.09624719809686366, -0.0429755863222532, 0.19968841502329068, -0.23633543454483888, -0.258606104608626, 0.23948762188583889, -0.006265023078952385, -0.11965108675341113, 0.24118495378094265, -0.35002065410082445, 0.04496189560585791, 0.2751516552602295, -0.3652744731397823, -0.23143055270310245, 0.33223997253685755], [0.28579860539833496, 0.4283246961821289, 0.2108213669163754, 0.13782870894689025, -0.14073144567073873, -0.1969718929422058, -0.29565828640540337, 0.29390205917464207, 0.23708413352020136, -0.19775004207164748, 0.17993026154562872, 0.1713935477259107, -0.35103776200618697, 0.15765661537818118, -0.08038392228532386, -0.24914513834842533], [0.2545675908460143, 0.22977040660935674, -0.23129510201918374, -0.09479912678440262, 0.07927601671528625, -0.029975774402631335, -0.5684165123718791, -0.14548821396921555, 0.12809239190588662, -0.15581323836949526, 0.20546228405315256, 0.227583451481832, -0.32964805377236783, -0.12930494893379063, -0.053470226837174006, 0.10635061298252063], [0.24806355101184013, 0.3779487460951911, -0.445079294742034, -0.024264576071128967, -0.42211871362116393, -0.19072075808494335, -0.27941511910558525, 0.2694141213726263, -0.3443974418756315, 0.14045692577056143, 0.11665661069355415, 0.2255562846226722, -0.18251535641401856, -0.33184156449108454, -0.4157288779371118, -0.13688932785584002], [0.23965131964049374, 0.34415631993742496, -0.4253014199328719, -0.05970114500977276, -0.40648003629197044, -0.15886671665605906, -0.2602430242731146, 0.2005103162071925, -0.2904039439393559, 0.08204085266488563, 0.13251528521404676, 0.18560060511529333, -0.12066397151866683, -0.27413546473986433, -0.27508306025618207, -0.09116305768793398], [0.34578214446153477, -0.2697291726670585, 0.17305947924458967, -0.49844992617769696, -0.35926116784323353, -0.2158038000592485, -0.313610129756647, -0.02283500901405954, 0.15004571751818863, 0.09728411716528784, 0.15215507103269596, 0.0247879465650251, 0.1380830395708571, 0.3848207587637763, -0.08125878979525569, -0.07766239231949347], [0.5959503267883227, 0.23779661640020072, -0.4601036604934724, 0.0807495776227617, 0.11149229639996977, 0.30482769160422823, -0.3641825684390425, 0.014611461940574378, -0.24363368986396125, -0.1469074723564196, -0.11489867453597544, 0.3261364804887812, -0.22724446146938712, -0.18364530788770986, 0.27323362054595696, -0.44790837110331666], [-0.06110648531498349, 0.12159128480939052, -0.1568515509417415, 0.4075481335882824, 0.1385157231308405, 0.0722666516031016, 0.26514752302169586, 0.3279727052836831, -0.07261968775346876, 0.516237985075684, 0.45042886830209483, 0.14848887503858807, 0.39258909490906313, -0.49697466052462874, 0.012563566627647125, -0.022223720550321166], [0.33419003665232894, -0.06878594023488145, 0.0327310867222063, 0.35210214438696247, -0.3680390236058317, -0.09866080955060137, 0.3149016490214246, 0.33111759170584054, -0.2702629032530386, -0.02863915087387925, 0.06793052917274671, 0.26219861464662364, -0.3866343449242273, 0.15394040411317286, 0.15265188245685613, -0.010222573733359757], [0.22068462311753803, 0.14459754627092283, -0.2544779577046499, 0.2015970045350305, -0.23473156833108472, -0.4303029835234456, 0.14188177863451984, 0.24144040250303847, -0.1428095689442231, 0.11565083815155983, -0.31083848265562863, 0.19507130851972815, 0.03476183558795307, 0.02568358703072836, 0.20691286164412057, 0.29148378551957554], [-0.11142629947706298, -0.1218328606437157, -0.1764689167046556, -0.30213952420704515, -0.35256177539517647, -0.37960431551256985, 0.13764354883291838, -0.15087251394491438, -0.12487462773723007, -0.12243327390667885, -0.2149409113121243, 0.16648084433390453, 0.06726433477561868, -0.31412195858398534, 0.1819002568214809, 0.1546010025255272], [0.3845186475823339, -0.17893541780063635, 0.2072411740228675, 0.2869065153390782, 0.205118170460673, -0.2431974801989147, 0.060185226199639015, -0.31801888672372663, -0.3126176994204151, 0.37042054469334124, 0.1443845595351384, 0.1841306241919745, -0.1820473177687972, -0.05739852954014583, 0.2826121860977963, 0.19602982076963968], [-0.30669046480017403, -0.07767995258012647, 0.08061180479935105, -0.17430782761932037, -0.16024669139159436, -0.06918323701269492, -0.3105950679875901, 0.30727020547293254, 0.300884876383852, 0.36110535351947887, 0.2637506727987292, 0.487330250466666, -0.5074018778626055, 0.21066145339462472, 0.06569287071054448, -0.2524724681068611], [0.21874638346340125, 0.35943849946055173, -0.3283298197838577, -0.09000448736161867, -0.3043933161728522, -0.1530707591558416, -0.19784224159832267, 0.1977873277264661, -0.34214122002879266, 0.047522184695072044, 0.14895138131657729, 0.24254831349813552, -0.1588606640843889, -0.28992435295504737, -0.24913977374523952, -0.0758787583705271], [-0.03291337003706099, -0.2651905449489569, 0.1919886226909398, 0.08268782526686974, 0.1606715624329826, 0.30507648252254016, -0.060667864796095566, -0.0320101255259565, 0.2727481730042474, 0.0747288662605031, 0.4369228240969145, 0.13739298875337191, -0.30705336988703746, -0.23234567126702932, -0.08543385424941713, 0.21987411773039706], [-0.0032562870871351477, 0.11172715080614277, 0.010636848508655514, 0.13433384881453614, -0.16453135754707374, 0.16311371176067602, -0.5638783065237399, -0.4356140744769985, -0.3607956462303372, 0.5695025936552347, 0.19173655006071028, 0.3393595839356068, 0.22713200610621248, 0.2754855398192165, 0.18226765852183718, 0.06998567011474598], [0.5217808778760802, 0.13033579299917292, 0.2715697013063677, -0.41436028742890857, -0.28193349048057775, -0.15201458323493688, -0.4062253041779269, -0.0638051055012359, -0.13292437318932887, 0.04196660992490256, 0.32611010517206673, 0.42442836328298345, -0.13261908233619632, -0.5377700760897822, -0.12548570697993508, 0.17358426783236497], [0.20826975469445116, 0.30694402622422695, -0.2315811405715716, -0.031316415269484386, -0.15475966046951964, -0.1400901048725554, -0.3544385906584243, 0.10416744910563619, -0.3172645885633171, 0.04783335975274993, 0.13884254323727693, 0.1781284825768927, -0.12264227335752756, -0.20683614486280308, -0.23489118626353814, -0.1520324896762222], [0.2403558312814834, 0.358139775400909, -0.4216935612192131, -0.030914696053161828, -0.14761261816267046, -0.2204007221888756, -0.3031219159565668, 0.2466533434112571, -0.4702061889310834, 0.11099897297272286, 0.09296746972124637, 0.33251028133285515, -0.12702103498374928, -0.3083523664297593, -0.34079799789617826, -0.2000934471393537], [-0.11749263809706985, 0.5281616558448242, -0.48930110673974403, -0.4149713070782452, -0.032409668880834776, -0.5652598739712221, 0.2597430152008167, 0.40206134859961284, 0.1363729286845246, 0.2228514642006024, 0.11133999129565185, 0.11241486700872841, -0.24051231581291868, -0.22523552635906638, 0.11199031339221883, -0.3175523084391316], [0.18915987468292275, 0.14759180653753265, -0.01233645989479674, 0.012469252703032764, -0.2465591866197839, -0.3322870831331293, -0.23037277320483585, -0.005914900298391307, 0.09196191636438299, 0.25369862440148416, 0.34576757256928004, 0.49350801210873935, -0.3785932549418951, 0.08542368290578178, 0.08789642173249705, 0.27955178149164966], [0.19414524299445537, 0.1347902007464252, -0.16307081018945396, 0.10822680312592846, -0.03056615647544807, -0.28205313949147004, -0.21009350590743725, 0.18687768005087457, 0.04495887490392191, -0.18762028933113536, 0.1156188609913802, 0.1519212504528967, -0.2839558391527035, -0.08127792788686179, -0.11197543992954487, 0.03644947209666691]], "layer0.attn_wq": [[-0.3126764365671091, -0.3681108410414396, 0.11564503265516608, 0.03839033378707047, 0.25962768964476296, -0.03580924738224551, 0.19709855756617087, -0.021234722218410565, -0.12359976195960286, -0.32344327462966016, -0.09733001810992635, -0.16898796977566297, -0.015152622592657927, -0.20798468808090448, -0.17706590406186967, -0.13525663734225107], [-0.2639430983495964, -0.42848903918529874, 0.23128533571291646, -0.23631491204429425, 0.07598599001641727, -0.06006300739554424, -0.03591593342907922, -0.22071542622508, -0.049615353406204085, -0.2205032318982704, -0.12000284930457773, -0.04883566770408147, -0.057868585142002556, 0.054179477557831056, -0.02408411887587829, -0.25615193822693155], [-0.34627423596577966, -0.33175270108827887, 0.05556063904074401, -0.04513957778587004, 0.1454478495688661, 0.18275061181921262, 0.012245966548929038, -0.21522604350206612, 0.10621677687145498, -0.0475623351036464, -0.19776562473262715, -0.2506451237076545, 0.05924808611268399, -0.00439679569241041, -0.06825524752217704, 0.06096188016132419], [0.3851406610286645, -0.1724785138615544, 0.03504362757280808, -0.5122762026855061, -0.2661447583559756, -0.07287694348849932, -0.3750953331260384, 0.37008748816027925, 0.3065182449389255, 0.16761449158247863, 0.12217549833931066, 0.09290836658374725, 0.22496909656280117, 0.2864025547673258, -0.018331364911734083, -0.2729365426036357], [-0.1639773766098872, -0.08923184156018443, 0.26770736152515445, 0.0018504994536509296, -0.0010725488338123033, -0.02806045105208823, -0.08694432028902536, 0.0005345430540657463, 0.18809010308423765, -0.046435780565159686, 0.0260865699579268, 0.19770731304868502, -0.18229148121483063, 0.1918149446282291, 0.19548875889554457, -0.04456308335321673], [0.014782126559338601, -0.06107732416292598, -0.126993222031322, -0.12023859427266144, -0.0629221000275713, -0.058298441173454195, 0.0664224665242214, 0.09413418012641672, 0.08795974852345614, 0.09584507928872958, -0.06179526143891675, -0.03469064303407872, 0.08854550431787901, -0.3215282007275692, -0.22119968472240836, 0.00772028447566252], [0.03666667140497708, 0.23416702126361164, 0.10403193729741333, 0.07282741572469907, -0.056989991258840036, -0.17364319065064165, -0.24131018615315578, 0.05884843878950837, -0.32533022746999674, -0.18018656543800812, -0.2712057203552657, -0.147968898535257, -0.027456101558860777, 0.11866772814009749, -0.18609418794093266, 0.14174202443886105], [-0.06226706785033102, 0.017273334361977272, -0.019920147864220503, 0.18249469615530026, -0.0585984404516795, -0.15198002026357846, -0.11367297595020402, -0.08414480781647753, 0.02120907582919435, -0.1825979581545662, -0.32837800329990424, 0.02254602107618181, -0.15578060018667747, 0.10435396837210187, -0.02596574605528873, -0.22296924762828166], [0.06792610023386125, -0.24317995293612485, -0.05088050201194205, -0.3276790776152865, -0.0019497036697025932, -0.16428474158198042, -0.08709258976502443, -0.3922455075726266, -0.045768876025951345, 0.04929636724156346, 0.13069002862779003, 0.12508279532371006, -0.027587094908395768, 0.058326085066160584, 0.1033533945144055, 0.11436856260161109], [0.11054051016329478, -0.10177279087296548, 0.019560428418249176, -0.04207106816788067, -0.21016871841728374, -0.2642674808474675, -0.055288235526919034, -0.34425998587370127, -0.008662585256828854, 0.17851773035586743, -0.14525924524159747, 0.22457526525221816, -0.009890464876813802, 0.1642803653859135, 0.18995673958484532, 0.09414706915252465], [-0.2924341091583745, 0.030643336761922525, -0.36248376891024087, -0.05520205198232172, -0.12722038813896883, 0.25319836102393817, 0.28734393151289883, 0.1889470854243151, 0.05502254457420304, 0.09885422106135068, 0.20326851973144408, -0.03904840839629968, 0.1854514421371401, -0.20924691117465455, -0.6664576901633715, 0.06464542400057327], [0.0674609878871387, -0.13519830953289036, -0.025044333192049194, -0.23018428153023535, -0.05687973054281105, -0.14567810735244668, 0.012753363753674666, -0.13769620390020518, 0.146401214616833, 0.11699281033098828, 0.1267049201215978, -0.033145473192980085, 0.12642172383435465, -0.07973738101652418, -0.3187720833542466, 0.19052883329147235], [-0.03880874409878959, -0.07872350972116096, 0.10823871830213631, -0.4131887499159192, 0.045631460305663334, -0.004695859469467627, -0.16625817628508524, -0.30195203442363433, -0.10559763902231886, -0.11456110874734629, -0.053155838135902536, 0.3073071018639309, 0.08717380273089767, 0.2580311297976536, 0.09427760381902187, -0.23331916320550988], [0.02131440139203214, 0.05523671080900944, 0.007527131530303012, 0.03636103477055912, -0.21045827050868715, -0.06261606917351648, -0.012736490216439116, -0.05323525181320656, -0.3985789851208855, -0.09417960976760331, -0.37962633413254754, 0.272014498920298, 0.10933572677212505, -0.022773941780305226, 0.07141993384343265, 0.21467526197016662], [-0.05853484044449559, 0.009081195321233318, 0.05448645040566059, 0.2094073771892241, 0.10254498806680977, 0.3928420509174151, 0.08793455009339189, 0.1281879319303787, 0.08607799113276772, 0.21719316668555136, -0.14279443512622922, -0.2680610994866845, 0.063730925652059, 0.0309909933834554, -0.14698653317188778, 0.1428410407989302], [0.02543719311510171, 0.05096847627775227, -0.16439762901916924, 0.22310661717515234, 0.1317290117451402, 0.05288545014753486, 0.08210371191236564, 0.16116302781522332, 0.14861351862893843, -0.13068857407896464, 0.21225097978517887, -0.3171556633474211, -0.152387844681128, -0.07131470740829787, -0.12388002167960895, -0.12573744790555746]], "layer0.attn_wk": [[0.2268753639733326, 0.48192847413832857, -0.3427926648248864, -0.10291334981122054, -0.16679534847946192, -0.22750334569885025, 0.25548502536656637, 0.336494287547615, -0.42985954810944715, -0.4498966105397871, -0.23503419645929016, -0.05649378367756768, -0.20829002827510537, 0.10186290252895057, 0.1184950357837318, -0.008238274907061334], [0.08582434062682746, 0.025792397548263568, -0.03841606951737868, 0.2657909705417975, -0.010825956945882169, -0.25586004793311795, 0.3254846542707388, 0.2778646586516809, -0.06895491008480656, -0.23053667495115315, -0.04963599663904164, -0.14027341407502802, -0.4599413902256721, 0.254066644916415, 0.2974127705925665, 0.031248459639273533], [-0.008029124144923305, 0.516399118141189, -0.21477356833988573, 0.38612445258128014, -0.052306128612128994, -0.16869717539273205, 0.3260343635889343, 0.08508532785553438, -0.24849797468455861, -0.16374783179898386, -0.22873040031121064, -0.12499855728328094, -0.29716463481705296, 0.190234669192744, 0.13753754960516495, 0.25140531047159115], [-0.15653043674887768, -0.28850135985170844, 0.5525546004069742, -0.025472374531751985, 0.07904496531363513, 0.06266505000476809, 0.01987055546117961, -0.2788290698689217, 0.5179498672197275, -0.030435620652633114, 0.272251664175064, 0.3338000972334381, -0.6257421968453046, 0.13794203111102354, -0.056233314878726605, -0.17345031778816117], [0.08746160386362284, -0.021925851418024722, -0.2535048181361962, 0.08137485154401983, 0.10898932204237842, -0.05018387070960747, 0.05725320571137968, 0.16882666812593194, 0.16331813564630396, 0.27876380849563204, 0.15493341316872278, 0.08742847870901861, -0.07030108416591925, 0.2562043828741602, -0.20340871113479647, 0.08045351840990707], [-0.18666273505662218, -0.2606844446494975, 0.28488141434021264, -0.06272943645476667, 0.11426077544150874, 0.03971694828369634, 0.0066746626638123155, 0.04993390970827742, -0.028385735188812093, 0.1410171084300165, -0.24666328178576138, -0.13063560848099495, 0.11468251594335535, -0.22724802414116343, 0.11730571984305739, 0.08781453950549181], [-0.0984815769647947, 0.03615286875370621, -0.05183849443585659, 0.03515283592689457, -0.1955580275659151, -0.2079516347102423, 0.2664848276063348, 0.09470828132040603, -0.2637054110937095, -0.14989332140456785, -0.0852007453019363, 0.08734236572160786, 0.019778085141625587, 0.21921727498991228, -0.07268394147713375, 0.1261646028164248], [-0.058073532950077, 0.23861100862997447, -0.0995133778004558, 0.03983147902895077, -0.18274161187673715, -0.015438681826244187, -0.014691980200531756, 0.16381013245842543, -0.0384592647582645, 0.12705976312270728, -0.02968224180080794, 0.18775697722436605, 0.03844839958273075, -0.05204708774233726, -0.022892258660317397, 0.19082513605748333], [0.05614130630752115, 0.03401558578068624, -0.0699019836352357, -0.03452844240395089, 0.10862586923217815, 0.10270910009575232, 0.13818078306966233, -0.16373602226559636, 0.023865129953910994, -0.012535169496013679, 0.28705676041373307, 0.15194793069261897, -0.09058765847340298, 0.11735618387507821, 0.45933190744491437, 0.025751675521027285], [0.2374619033286419, -0.05054855059610455, 0.10547235067331004, -0.0512040466485469, 0.11184831171659153, 0.1643740259499395, -0.11021405983991299, -0.15039758886904883, -0.019038070364978472, 0.3785468267362869, 0.34533615197737694, 0.30293252728006415, -0.003910296977482944, 0.19686517194984304, 0.1382614121422445, 0.04957051198140748], [-0.2818734828231567, -0.11020999495095869, 0.033856403619109264, -0.5127605758370448, 0.21206393633338438, 0.029857044253729773, 0.4600425550580696, 0.2081098336514056, 0.054833345618628127, -0.14049004770309212, -0.3776421474890678, -0.3117755294670234, 0.47166129986405336, -0.30711437108650635, -0.35098871932486325, -0.1280989627591361], [-0.02920486817302746, 0.04040709551642992, -0.0330583931693625, -0.26018714478540095, 0.19723053833297705, 0.06335111194181324, 0.10353336977491073, -0.07463151130970753, -0.08759519612441183, -0.15050308235821772, 0.053308059043794216, -0.039200886078345785, 0.25960093786363136, 0.06344922516996108, 0.011230186570668252, -0.1316016678139745], [0.08661883287823266, -0.200949799536376, 0.09292587727460956, 0.08511779092021098, -0.3798890822229473, -0.015142654208207566, 0.0883357704730459, -0.08793402791207694, -0.1433776469004992, -0.34230556671724127, -0.12238380159041103, 0.02778568547068605, -0.11287041879249339, -0.024159912060059463, -0.1329420412400532, -0.33290705024238715], [0.0627478396014511, 0.047745410859641714, -0.24148031486971339, -0.06595014270372802, -0.1944367266298321, 0.08441497959972932, 0.20043924047310785, 0.027599799024762593, -0.322396982912349, -0.026334279246284002, 0.01146038911551528, 0.15796689717037668, -0.1267040999161286, 0.2393129159944323, 0.20515797526425186, 0.06167762790186477], [-0.07737155702219077, 0.18015181921956316, -0.24859292765425486, -0.14932781182986227, -0.011131208460539296, 0.023680853332259392, -0.2660658517048794, -0.007971697715621865, 0.3477681781958325, -0.02827490082237567, 0.047029076795499336, -0.37882846749978216, 0.18342484892191427, 0.17717992745317213, 0.027661999470805342, 0.16746495447976015], [-0.09914883376931145, 0.15700263862878178, 0.09486671939786669, -0.11964035818012764, 0.29557785434362105, -0.10568214781060431, -0.03306970752010115, -0.01171891758039629, 0.17764855280078737, 0.17998403701897167, -0.12423522728612686, 0.09178712336286751, 0.25485038932169013, -0.1925190151102901, -0.16251627342519306, 0.097392446541525]], "layer0.attn_wv": [[-0.015952674513140967, -0.04260404048775547, -0.034520495139103255, -0.20714783757204822, -0.12823829395193231, 0.20278291656635958, 0.3550076541006404, 0.29697632903186766, -0.16084996487636488, -0.3019956208984131, -0.07611874328766334, -0.17718318814252837, 0.06518903375389658, -0.037717244779211644, -0.2025057232663701, -0.08711212838731472], [-0.04009885055220432, -0.048860088156397176, -0.07521398563426362, 0.10804894445906152, 0.1947612415818054, 0.2732792432267668, 0.20674216101667525, -0.039948216115510506, -0.16904956725706755, -0.3067102108496887, 0.047471719454518294, -0.5191770970218654, 0.18771915213721882, -0.13611186904428366, -0.17995914462275586, 0.030896866572747688], [0.07694581779295183, -0.4322625472569908, -0.021538454138991275, 0.0808503043356954, 0.0793971724651661, 0.16869723172553744, -0.23929333579049666, -0.0015185094523617138, -0.041672845295246744, -0.08773475980694569, -0.031116063405759616, -0.3430118962356554, 0.08487880121039804, -0.39785536266353194, -0.04221467285356447, -0.010383800824782597], [-0.034386794516732884, 0.10822742486859985, -0.1634164817399401, -0.4303071372353486, -0.20094135279485698, 0.18789301855847962, 0.2249230022666136, 0.035663390124359685, -0.09038827999943293, -0.1400419860113294, -0.3212399546747565, -0.0840942272782055, -0.08049783330582531, 0.3247894100574434, -0.2131299878364265, -0.12903557012605177], [0.29117051578470954, -0.06185716774625116, 0.028078200126027124, -0.08010201511523099, -0.1600659392885137, -0.22078433900257816, 0.1095173506680954, 0.2536874666988973, 0.05097478304294725, -0.21967556166837973, 0.16438472495793482, 0.22221573100968622, -0.12763194364477512, -0.12242147278646151, -0.06327862046487699, 0.00047186774504015804], [-0.18172714823676184, 0.05413185849572583, -0.28077899264128486, 0.04563743891251043, 0.04653350033913182, -0.0054929971097987355, -0.16123539995603578, -0.0935208731610515, -0.19520924240046053, -0.07289796198558583, -0.0209969562278612, 0.12031721257676982, 0.04501994407842287, 0.16066168610790946, -0.03961646746631488, 0.0034670502887536956], [0.09191222239122243, -0.1319560598987401, 0.02452376425980015, -0.0618748602959293, 0.003243050597840981, 0.3568762388455962, 0.026912820465753468, 0.1559801711578939, 0.11796696716022895, 0.12861652950995792, -0.2334272237846757, -0.1880768610572002, 0.2442816153406469, -0.09367933463205352, 0.251284526566762, -0.10579338596327324], [0.08803252849634353, -0.47711134028388963, 0.40929095033498736, -0.2194243610929271, -0.17175631689927906, -0.20899126122310313, -0.031560736738988245, 0.17591727281763778, 0.09504683321662866, -0.041270201283290356, -0.13121891486209222, -0.04614951915774532, -0.42265758987094226, 0.1450853449175773, 0.009628547131903696, -0.04629638068592831], [0.23219742163846252, 0.05199392130017389, -0.14586764097576776, -0.2710350030598645, -0.12667820255508722, 0.04974858553419247, 0.16843013126977902, 0.15807509506395975, 0.05239509220511237, -0.3577275523217034, 0.015526801289820263, 0.0029828556286479904, -0.05986227368819929, 0.07260357355794006, 0.25006895797541584, -0.1167234730158907], [0.14432312526113591, 0.34319370955507156, -0.3403509700936999, -0.12668164871904028, -0.1926555082167687, 0.17258230517491888, 0.07054450838656896, 0.16861066749552175, 0.07795399970915531, -0.1170383020864293, -0.2640374695055345, -0.10922371381304716, 0.16564084391646683, 0.20202987998653324, 0.12129727751347583, -0.06536638788642937], [0.0881099832927298, 0.18254688378589812, -0.37531235875804736, -0.15341853821313223, -0.20144872456875018, -0.1426659118983302, 0.42784508685097816, 0.1704376155798633, -0.29294582475127756, -0.16269901583047736, 0.06389770853588811, -0.026422380704942253, -0.08831989219968517, 0.08003826214596721, 0.12406747786489461, -0.19892813767643358], [0.202125460432373, 0.4827995819258051, -0.5818197172178949, 0.04140570376909092, -0.14044003715457873, -0.1663704959761949, 0.19924769721876665, 0.2957018067728614, 0.20323960860502863, -0.19204565979236096, 0.42409570628689314, 0.2913708417559893, 0.01698266017575285, 0.16160104376873533, 0.16855596485405822, -0.25532122477202157], [-0.1203894865850491, -0.07932574032006878, 0.3075677961957495, -0.1822882044798217, -0.07939965229160148, 0.16495202882424853, 0.1431605227532696, 0.005636138423360633, -0.40261599752996374, -0.2801421446875044, -0.261875890961991, -0.3169876668839706, 0.03327760204614347, -0.14563511691179828, -0.04566370339062798, -0.06244617201426569], [0.31727411184367255, 0.5047858038171414, -0.42088296464167524, 0.37312011734663747, -0.2514013761801002, -0.154327571012755, -0.00675902018224164, 0.2107720803383163, 0.3456481600880748, 0.14456290406285324, 0.4842600562014549, 0.521543035232029, 0.011417819629762018, -0.03713139953703295, -0.012915614806434904, -0.031156034943647094], [-0.2149051892337912, -0.11988898403779125, 0.10035030852447537, 0.1327631121502243, 0.08425963615762373, -0.08587149781878219, -0.20760078173809698, -0.6040230290128764, -0.48687790687976923, 0.12883023404643945, -0.3917800094010249, -0.10243434550614484, -0.4184474348476073, 0.06765846466930321, 0.13861440079834353, 0.1374733595614164], [-0.011314306003778857, 0.31909198995465765, -0.4048476758381531, 0.07929799194704569, 0.0760911201072423, -0.011376334886719262, 0.056642076945247526, -0.03184345943470102, -0.07312075235050267, 0.07180989559863148, -0.00019633062987043203, 0.009236010194322977, 0.11362706936582136, 0.02360586660919664, 0.0651649432473408, 0.055207075390768766]], "layer0.attn_wo": [[-0.2789247474019479, -0.473404240672917, 0.07548060197674124, -0.16654241332455524, 0.20016089778618862, -0.08806008766843165, -0.20455032370897902, 0.4013277809919906, 0.022817869670849474, -0.35286583465766935, 0.017208102699289553, -0.16311912605099868, -0.09445819752762072, 0.0026934955283953476, 0.3323084934565962, -0.2542489192823204], [-0.19732051695745, -0.3043295678438334, -0.2268078340397563, -0.027172080994947636, 0.0529626292288445, -0.1252382016102533, 0.2003381136898422, 0.12646112445192018, -0.037987334579895, -0.05911186433057672, -0.2625212969039121, 0.028030682094334416, -0.020430914481923045, 0.1899514920544744, -0.21614724812637884, -0.0024565916044222897], [-0.1316485790711622, 0.37664195921754434, 0.03199225423722299, -0.11943883671579153, 0.028173002324749407, 0.08511258135449663, -0.22259184723210423, 0.14102643780775245, -0.1120107429870729, -0.06507421230220657, 0.03956482616913315, -0.18537474988019162, 0.18011080134433094, -0.2019646975339052, 0.2565993675742689, -0.06915385960159641], [-0.20149634162013855, -0.12237435543956564, -0.23407148423663895, 0.00826280395450636, 0.025378641985665303, 0.003142817192319068, -0.018708313206754534, -0.09303860572728552, -0.22247588126711315, -0.13855135097543972, -0.15505985580753587, -0.2450530383771002, -0.06527189219734449, -0.037424941390361725, 0.23723428091509904, 0.09874657021580872], [0.1178062837112571, 0.058141499603241595, -0.11754377677160392, 0.02827849088352974, -0.11543510376381516, -0.1406669209739424, 0.08945901823358045, -0.016244328391275913, 0.103567139360311, 0.10685134075680557, 0.13843553742724848, -0.07259889805994167, 0.22147559777107392, -0.2845463703993494, 0.1854177789958518, 0.03839028530493999], [0.047315370251931686, 0.16875986790963024, -0.29701330964626477, 0.11563812451469908, -0.1814855236739897, 0.15975710952568412, 0.13532316088627583, 0.0029486346331935166, 0.1021542020535728, 0.2129168441323812, 0.18609929385349477, -0.03524838931104436, 0.19627216742946896, -0.30753103455908287, 0.42420586007213895, 0.17318284608467338], [0.10439737745173393, 0.14908357228147645, -0.33729980347614547, 0.13161032020437974, 0.014784133822917801, 0.13092873399388905, -0.031908342350327606, -0.3806846697567217, -0.05436503963912639, 0.24859701085466426, 0.15333308916176716, 0.2568837345273069, -0.2288774295285035, 0.5574987679369982, -0.0849255324691959, 0.07782903058334317], [-0.08956406502833776, -0.0860440702907659, -0.07217991521169774, 0.05410877748872369, 0.30261810274072426, -0.30976412199716435, 0.0880084866130053, 0.15669702226261806, 0.050968915470574444, -0.013848237397319229, 0.016402317644900577, 0.28727232933263486, -0.020650569977690148, -0.05201633224470834, -0.22838588560410344, -0.12540347634637092], [0.08026142766140867, 0.2690942818561003, 0.09684634665042308, -0.025151743352642506, 0.08940662542580238, -0.015766842547769326, 0.20742875910540418, -0.02647785535046009, 0.2985741983639843, 0.29320957605854386, 0.18457718338261597, -0.0067844432567426725, 0.22208482034459978, -0.39586879728025215, -0.09780580036306545, -0.04604632382277554], [-0.16981830168846507, 0.1236669080517418, 0.24592520052212954, -0.09519389215080158, -0.2512544815854021, 0.14433104986000864, 0.03452834591498278, -0.2200580241459061, -0.3181756615646833, -0.0808904264998219, -0.31719388357547057, -0.45446580028334294, -0.02281557225562125, -0.10149183288129784, -0.024619311252476142, -0.10120649770478038], [-0.10748070723795676, 0.010999284677132584, 0.15230898580199875, -0.12419782488583633, -0.10470798814299896, -0.10964006724934215, 0.09951500601520329, 0.272528104301221, 0.01877708704277313, 0.04903926829425511, -0.0870406760463285, -0.40410345763474853, 0.2393399042484875, -0.47126622161023196, 0.22559274518492478, -0.1643126260054446], [-0.13691069163240133, 0.2638353862749161, 0.04511883654932105, -0.05857658993021963, -0.08980103365636145, 0.0620775445056754, 0.13190635976745063, -0.06817533568532827, -0.17830725499265468, -0.28831259227370765, -0.28585943753756926, -0.37690659628890494, 0.23475279567382737, -0.11891296198178984, 0.007114434195929684, -0.3272689638145009], [0.009009083923608005, -0.00932953586243551, -0.0822486612099762, 0.16970527546497857, -0.07016365215586397, -0.029542233323491904, 0.24328682915427288, -0.1933600218550288, -0.130200170949521, 0.172358164891403, -0.221714405553224, -0.20850222410826505, -0.05970903136406673, 0.0414316559192871, -0.14343822970828038, 0.16309676548442742], [-0.20657204714143437, 0.053656641361803994, 0.12364436836161213, -0.40789813189696256, 0.03807270253297014, 0.07750633989024017, -0.1320026042243509, -0.01634930467267307, 0.18572107063718066, 0.0651720595425744, 0.026523361818355233, 0.36825086222916825, -0.4012925560128897, 0.0859985467463302, 0.42926114907424195, 0.20887577464443183], [-0.3852466147432947, -0.007749043321114138, -0.10520825541024154, -0.4885319535597125, -0.16795800675749886, 0.08603663939201041, -0.175050056014823, -0.38371591355406953, -0.1453686334852082, -0.11060300005063228, -0.009423007386978537, 0.0063591484671636205, -0.1951379326144856, 0.006746015627561318, 0.2055803143549931, 0.15055457726977672], [-0.3445053134569066, -0.3531170838189536, -0.1816300038376542, -0.09439120809544904, 0.1962262972694488, -0.09519612507753143, -0.15069077903598738, 0.3364327780661961, -0.18225065305605448, -0.17186880350222253, -0.2913702467759845, -0.054039617919781825, -0.21785832930038274, 0.20788821265082616, -0.3473153647704434, -0.07328567352072478]], "layer0.mlp_fc1": [[0.42438605320697026, 0.29529525962098435, 0.1474760101021729, 0.3026470971022709, -0.6067559980556028, 0.2412509542128984, -0.08135041821518789, 0.23433008275410477, -0.10955445867920603, -0.3405391879584572, -0.11254725200635425, 0.05231761071788931, -0.013791678202211373, 0.08910050766910849, 0.0098861597011789, -0.12719143451984372], [0.24182697394744285, 0.007322071007646502, 0.023838736597400007, -0.18940835601205588, -0.29684180032470736, -0.21990661896024433, -0.024003825627525937, -0.5094825621268049, -0.29123938774982255, -0.21486058505207506, -0.21676392614842674, 0.024087849380042502, -0.2171552186034565, -0.3841763242962329, 0.20058237227701126, -0.01276950253652909], [-0.0968232778727231, -0.18747652673038664, 0.09221717816015958, -0.1487931651834623, 0.13875429962574626, 0.3059240522646013, -0.08251436190790284, 0.32375500188395623, 0.19910267115727337, 0.179166429120208, 0.17449859031283713, 0.07603435335852966, 0.4118307551050426, 0.07704477744964423, -0.0699887589802353, -0.1115038127155266], [0.020216744631355955, -0.0116408731481078, 0.40659934817688925, -0.19466763187718478, -0.0657170747684606, -0.06300187713269177, -0.3333180131314885, -0.14833628157906453, 0.06320973233748581, 0.17258176772755568, 0.28007709817976023, 0.2065336738916673, -0.1926709973478962, 0.3037897666547083, 0.058344202126916024, -0.0009786697668251107], [0.05450623398562317, -0.22637624430084236, -0.17818123410150255, -0.03119357124051282, -0.4247343397522164, -0.23814013910984747, 0.5670146609391018, 0.11718723203981798, 0.10052763421044501, -0.39459035851522545, -0.16644431565681472, 0.217835343618289, 0.2034913365751886, -0.08125457050614125, -0.1176612769322281, 0.2549873745296889], [0.046919271339384866, 0.061074117169384774, 0.20043538868665164, 0.2461728650473706, 0.014808119645532405, 0.10468399231311859, 0.004726682546444938, 0.22729186300796422, -0.06318468457661619, -0.059384143107575504, -0.28778164143631263, -0.23771285723989172, -0.3114138021941029, 0.17340824650132708, 0.059974670743953004, 0.0873230775975547], [0.46302226225250803, 0.17747258597559692, -0.18111746225781458, 0.613801444133109, -0.03347861382713862, -0.029348925347565464, 0.13387073175636183, 0.1263406537035605, -0.16121975762733948, -0.28121022265428075, 0.2843235863626502, 0.3490262561563038, -0.17157535947189967, 0.038429838496331144, 0.29166625015234315, 0.11743678010206558], [-0.010690984010811987, 0.19796389466400177, 0.03963863743077609, -0.10200250597970519, -0.07841100704373062, 0.25513871607093713, -0.1261717430495786, -0.27707910398934965, 0.27305898482753543, 0.029051471679101833, 0.07197256295116587, 0.27786000763283636, -0.24234598818418598, 0.3623171430365927, 0.09627597802391005, -0.40118082764490615], [0.15475299886552055, -0.03426697734136039, -0.05485748731682425, 0.731945714278454, 0.12709132199290674, -0.13216028842002187, 0.44572784880498106, 0.25653203010962006, 0.05697091238977899, 0.13163140354145192, -0.2126817157740429, -0.19101116312562338, 0.003490128139733359, 0.03600247790188763, -0.06823689220339225, 0.22836839664462613], [-0.16753125264930765, 0.08196322171072663, -0.25742402567457207, 0.28315738638236676, -0.2605556088153776, -0.3100288830859628, 0.16194952500909846, 0.17652236006899552, -0.22807337305796102, -0.035337844670293994, -0.33844462998561164, -0.1905245595405245, -0.15562511620432906, 0.1063468800333322, -0.046351835289970056, -0.06047539765215672], [-0.019019513445469278, -0.04527606610756581, 0.26357877199642893, 0.1410615730631381, 0.10482809042016558, 0.2794995429588135, 0.227488864103404, 0.08972508115645379, 0.2733891951931932, -0.009067170008226004, 0.15703118792865148, -0.20912559533983793, 0.3058647391071358, -0.1559522039877234, -0.15484903393489155, 0.03117935848940603], [-0.18160315152846956, -0.34375940179362546, 0.06940453851465263, -0.11114777986019447, 0.4132890586107139, 0.004960186717240032, -0.03129497393134734, 0.12589672800435153, 0.054996707350774755, -0.40092746027334386, -0.06637902385084742, -0.13669628711444307, -0.36265133959931806, -0.12924233043515712, 0.20077429538672534, 0.1903487437661623], [-0.12608197533570498, -0.14662024097805787, -0.43135892371695295, 0.36781030635852846, 0.3439547665247239, 0.1671092988951906, -0.28325338052741555, -0.31645610670167906, -0.0317235264867467, 0.15136858486287702, -0.3645156045822766, -0.1440684056434018, -0.19474254185540504, 0.011890722192523663, 0.3474651664064811, -0.1108165177357606], [-0.02937244596510567, 0.36656146276779344, 0.1419348851934417, -0.07915079219913164, -0.06083079964865651, -0.03374661140998665, 0.10015642680503521, 0.24441376963767905, 0.25117091961799204, 0.395132146588668, 0.05082714683904907, 0.23982735003402098, 0.15363014771457287, -0.2545768861192407, -0.04339741006738884, -0.2117364344476661], [-0.07380925209761495, 0.23040935176155433, 0.24654287842120587, -0.05646006782598804, -0.21846050823466157, -0.05670789902907322, -0.27038629334599074, -0.11342897714644867, 0.33518844166062545, 0.3014648874629068, -0.054733943558384346, 0.2467589223009743, -0.0037134280686209912, 0.3084588617636236, 0.08456315736381446, 0.1392817571625372], [0.14109144634674156, 0.18388795200520142, -0.2204893186271699, 0.13601661080820932, 0.32199061580639754, 0.2970266960619176, -0.07799699928962706, -0.05252526271479591, -0.1336158121886225, 0.06623870274564056, -0.10630161919804706, -0.09467415793526997, 0.2877875152781114, 0.1004990630231857, 0.3632631795815876, -0.2650348252618173], [-0.07287215201623792, 0.07452750085426225, 0.2669306616977343, 0.007904087073091209, 0.25021299101027755, 0.1039309952320538, -0.08833233275918852, 0.04719276031095513, 0.21855364062313906, 0.3615344708632832, 0.06294778237921811, 0.21701153535130446, -0.34724302884453767, -0.05790164294792313, 0.19215140722099175, 0.08690492835264478], [-0.26619828878036417, 0.16444824260934163, 0.009279306212638465, -0.10143453838767788, 0.10977879464626186, 0.24617297433640256, 0.17590101385633009, 0.18125873230719133, 0.1036576058101224, 0.048814057269002134, -0.07926971983797583, 0.015388366623513469, 0.35590827583053114, -0.08905790531072647, -0.12582585610859304, 0.08362573350504539], [0.26240842636974687, 0.1305791447321614, -0.03956566310945195, 0.18644821346998386, 0.13579143103330274, 0.29634665964278817, 0.16146687996069933, 0.23821271480075518, 0.22494222382449763, 0.16368711104073816, 0.2452499368231704, -0.15781141517346603, -0.08218955083329911, 0.023452207887585418, -0.011551074716280745, 0.34150482506705626], [0.00023430489802336082, 0.19634770411284633, -0.17881671445762104, -0.35885704237948607, 0.07316975359540832, -0.2669215627170908, 0.26987153970772376, 0.34916579189189423, -0.3451501879884186, 0.1444186821441168, 0.15306085926901028, 0.07252442783865565, 0.3456219682334857, -0.43228532838614464, 0.1853128825404195, -0.1240443553930211], [-0.052461899655809587, -0.15706258617554336, -0.22207491150720604, -0.2807889382711722, 0.09928079404934348, 0.06281464298923269, 0.16830746011103218, -0.004991655311788807, 0.10401955942288105, 0.16004522658489262, 0.45599384502821605, 0.011093053627028499, -0.08013478271188045, 0.04208071195879924, -0.17581104266436995, -0.19957052576167378], [0.2092408073640131, 0.36519995738255795, -0.01611449634438028, -0.0008118099305722508, -0.10316385330022458, 0.19252270586596879, -0.0328587299957667, 0.20500962090332603, 0.05767930156689686, 0.22180341689198538, -0.342449051108327, -0.4561632908324629, 0.355313539577325, 0.032280442310719644, 0.04296776743080845, 0.21465319080209], [0.15941270935372306, -0.1814170650142369, -0.0429755343001452, -0.23560531097297896, -0.3191030986846702, -0.13894047588482356, 0.1458682521662048, 0.07093599771484864, -0.012479439226832572, -0.13415339923333022, -0.15411983824351844, -0.0034330972931313395, 0.29720005233235713, 0.2219075286008504, 0.030937790653894005, 0.22351667191954644], [0.007004991398380594, -0.005130834610204552, -0.10607271139491789, 0.35860902019353175, 0.30778776122465723, -0.23578478160951225, 0.0213884003749342, -0.1520475848174559, -0.06560529718645824, -0.17014719279257243, -0.17295896366806057, -0.1888492886446063, -0.27931310472789045, 0.008081776605067413, 0.01582550991332491, 0.3228029938995774], [-0.03625464310329527, 0.06408016939552913, 0.23202115051681918, 0.05988761220130051, 0.12214813409536393, -0.0354661604555036, 0.16011982821600096, -0.38786188690159806, -0.3364461079474487, -0.10464968661464191, -0.4120953472241681, -0.14533417408633303, -0.2570901020016621, -0.035705086252471444, -0.06962904598466575, 0.01038343575448217], [-0.24386644377449967, 0.10662787741095181, -0.08956313914839753, 0.05677000727640772, 0.08117646164953209, -0.1321157850889436, 0.09373955568025553, -0.12391851556007016, -0.2204957546871921, -0.38614341769531507, -0.3252957215311, -0.2676638169414976, -0.15125436515927262, -0.09538358351574215, -0.13188242378208762, 0.0353344007608478], [0.03487873228146126, -0.03155653218967054, -0.01955961977780335, 0.1447693445476453, 0.464479017358287, 0.11313777251083011, 0.08815949923910016, -0.29281074326670997, -0.2760948110564239, 0.036050980142186044, -0.06744284635976434, -0.17586518486169053, -0.26453415692307924, 0.0027628759714550827, 0.09324990752468242, -0.01494033431917349], [-0.07272078434722667, -0.09695748002174602, -0.08188574730358174, 0.12439936514314513, 0.0237008895184966, -0.3424001331037723, 0.5430673096351751, -0.3325163589494879, -0.1676343956304775, 0.004466443030391845, -0.30234482483042147, -0.1355821797146143, 0.014481002018889291, 0.07108105629212112, -0.07202418914429312, 0.11419696105027333], [0.261126585062325, 0.3896478953235694, 0.07909148462713372, 0.13714691417832947, -0.2950608759007156, 0.23466184441262447, 0.07976362092275689, 0.3037920283052891, -0.1329244067994902, -0.0729718891070273, -0.3267256240378152, -0.2531131259967996, -0.038125211052958116, 0.07996021570996446, 0.17404409136722213, -0.058842763737748875], [-0.29398262327744756, 0.26306768056379, -0.07176389232595073, -0.1508331856354704, -0.03394864408582207, 0.12955107291607804, 0.25690988302646095, 0.21102775664683837, 0.15994378139724424, 0.06641918894674517, 0.29621776076211476, 0.1928597076415457, -0.01109056618202328, -0.06747014257655286, 0.1976546252338212, -0.1873853562167222], [0.01720603922968435, -0.12705971567591667, -0.05255159668020442, 0.27649049859538416, -0.07958265406826201, -0.2074810935337003, 0.4032942406271702, -0.12907120911555253, -0.1993794628013712, 0.14784006095238686, -0.2748736968119585, -0.09606507021051185, 0.03452800746809459, -0.002945242180490857, -0.0769174277891738, 0.16359475735095855], [0.2555795239241896, 0.2847923367763151, 0.03760291681318416, 0.09284411064467879, -0.1386360452274744, -0.01043170310196086, 0.10264358533751089, 0.47031930498873753, -0.08212707170632262, -0.05163737841611963, 0.051287760683400824, 0.02405223992760687, -0.05040550440492999, 0.24877170903884183, 0.28402087305370394, 0.10445716672725107], [-0.027738420934622667, 0.14747454197081186, -0.06196061594155134, 0.2585657681139388, 0.015830269747643302, 0.031065628673611893, 0.23610280993465593, -0.012040267218427176, -0.19982932570333817, 0.04830149543193147, -0.25724081442322766, -0.07640407502330211, 0.01890266542368968, -0.2576331454873796, -0.11957801586958022, 0.1883527145674063], [0.2037019670816059, 0.2432524773148087, -0.027279420637053256, 0.4408796079612551, -0.07801956938869507, -0.18840541973613084, 0.4006052147014226, 0.0633223149515021, -0.32078671965884487, -0.22842510075861688, -0.16412562429698382, 0.16292849410658813, -0.3397478565337664, 0.017395462714783212, 0.021642928920034343, 0.23197469814857208], [0.23078529670879877, -0.13478917541826188, 0.1707306867185171, -0.29431626240878367, -0.1277964363920294, -0.041614262687187424, -0.2344623930881083, -0.0791610553887596, -0.3534155932761443, 0.10113510330222134, 0.05891238020076803, -0.027584351143491434, 0.37259533481932994, 0.26875290418790193, 0.3082760133017676, 0.0912959141311272], [-0.048347575891023065, -0.0609956729032243, -0.11283937454618963, 0.19272099826635536, -0.030129473632277984, -0.41686223850873344, 0.09995984058366299, 0.031939059598055985, -0.2660748955603605, -0.44413042585375506, -0.14392944269305358, -0.2681101752704778, -0.36323226667501873, -0.06013596910361288, 0.2670058150113981, 0.11242362857200396], [0.2514186117111709, -0.12159199978964716, -0.22299798967207046, 0.3725555593040435, 0.23815426964600828, -0.12609360390537622, 0.23407444132085933, -0.1437177118636529, -0.34172159237844235, 0.06485886162383152, -0.03004232318390947, 0.16539701912574892, -0.19106643677853571, 0.0840959867549366, 0.1709332927860749, -0.005000072608967421], [-0.13642011913940819, 0.00806319312511617, -0.4013847614313008, 0.2758392746323657, 0.4474925092650916, 0.02105693277384127, -0.32537610931167066, 0.003356714835812641, 0.04675137391935952, -0.01564774131125252, -0.37310779597121496, -0.4754312355471439, -0.08730225746243997, 0.11973407517501126, 0.08422899645810686, -0.10137021883246353], [0.055923659799934224, 0.07219945630328509, -0.1985139520185223, -0.08097602974488456, 0.1902614756665043, 0.28797230708356525, 0.06463509253439989, 0.027396150722396893, 0.14271849133970899, 0.09991163796627792, -0.32839624554288227, -0.5094076530644485, 0.11899710652669354, 0.0567022582267031, 0.01970344239079781, -0.10341030302205775], [-0.18337023236266556, -0.21673830838673253, -0.03467046949415345, 0.12351652967308613, -0.007793286502241967, 0.00017398703566448248, 0.045706700198894085, 0.18877425505905837, -0.060194838248072, -0.1728645409650379, -0.3821926775340916, -0.2797727833135026, 0.15550681841900013, 0.11692693735593199, 0.12180288214511717, -0.09647608250678737], [0.018368607020703524, 0.046425125389145554, -0.15836342070310466, -0.3283259891667331, -0.003958206147213504, -0.2962724794061208, 0.11474718179099115, 0.2530447388271201, 0.0387566310591746, -0.04161180277909221, 0.06652524639746385, -0.09884271491806823, 0.20792317344422748, -0.017256325163862763, 0.021623035063218107, -0.1570087589180965], [-0.1268240201656954, 0.15256615534749887, -0.22504811598181196, -0.1446564002280925, 0.0427122470157497, -0.275165028929908, 0.18484283104006524, 0.09498598463527766, -0.1864131432352866, -0.027164900916529164, -0.022122861090740402, 0.16003670523703745, 0.056897894488288865, -0.24702773998692387, 0.19486033909395933, -0.1908979923365995], [-0.18452476470348228, -0.12839798457276122, 0.06295920721982859, 0.050843038907691956, -0.08791477230216746, 0.16238936260729941, 0.3169790397719709, -0.1393525415387035, -0.005416585512393679, -0.04066194855574884, -0.34791575005155395, -0.09000398120144334, 0.043211744019127994, -0.13794002927741286, -0.21916716164967542, 0.14160132021883798], [0.14820262070714435, -0.0924308448577088, 0.19419622210458934, 0.267431263591858, 0.1609525589426023, 0.13660382067021518, -0.02007033518696913, 0.14140047427365385, 0.016321984541195787, -0.08532175898941581, -0.09917956405066305, -0.1964737652657673, -0.057923205320455, -0.05682455780779468, 0.06659415688036101, 0.09598332966004781], [0.014549930911347759, -0.0236666261992267, 0.08690584234980017, -0.06833240502804323, -0.12238442081782794, -0.03462331516014782, -0.04453852853327442, -0.31693699888666593, -0.3759598372444902, 0.21993484604727975, -0.07448963923271015, 0.3646162196669965, 0.18384101898829885, -0.05111779041819148, 0.09215920318621507, 0.20084056807913506], [0.17542390451856596, 0.29891854336953294, -0.03706820324882627, 0.14064475314778993, -0.17707041512137411, -0.10065923445925871, 0.3245800522262401, 0.22182477358490363, -0.320912495421752, -0.03870951294440669, -0.013378456480288355, 0.1335729095492098, -0.20459428140024108, -0.15410714715303175, 0.26812524287928396, -0.14942608968078896], [0.3690058888069983, 0.10210966201953164, 0.04041828676026717, -0.47319670332122044, -0.31977986972422906, -0.0789989242566379, 0.058700733586330676, 0.08125610293318404, -0.05383738604806308, 0.0825591149315026, -0.24837228619244917, -0.08438728649097559, 0.2558638425016393, 0.28827914715412567, -0.15012625720688533, -0.07946394091065079], [0.22955130951580563, 0.531343364855084, 0.05176938851319823, -0.031717350608278, -0.5067788634242305, 0.3900761880790276, -0.020300101644832164, 0.31810345120451095, -0.04228624576153688, -0.3542969207167254, -0.09624116703328338, -0.16447152888250488, -0.2855696898678557, 0.32430316535053105, 0.1387754932467215, -0.0908261037790458], [0.1171653937663246, 0.026371524842345253, -0.04200377857799406, -0.20661801409813946, -0.10045835369760756, -0.28790155079770685, -0.10485435688159496, 0.01430574433055807, -0.061775260700277806, 0.21917858037476562, 0.0544712378111967, -0.23655923071381216, 0.19539605813053534, 0.33698483513500166, -0.007716338464651352, 0.16543488508318344], [0.33295673349850785, 0.059555972114444064, -0.3864387644197893, 0.5247648493530301, 0.406972887927006, 0.030735717082924056, -0.06563970509382337, -0.12984246706351826, -0.015839896215365613, 0.15570826030902915, 0.2860524784775507, 0.044503386142351345, 0.2013445452289043, -0.06768858465920433, 0.06648744956654909, 0.3552885148287963], [-0.07603631551671995, 0.1433108615945746, -0.041936068964959876, -0.05472354944859556, 0.21824923581785302, -0.3646570162660232, 0.38212954926541826, 0.06132591204766612, -0.3798698607277968, 0.23094667290388793, -0.03062290416499619, 0.34603140028675783, -0.1327480996588783, -0.144789059625503, 0.08770394557890135, 0.2019518641092085], [-0.05711543854911874, 0.3683041613951338, -0.035761244414885256, 0.06583349037589124, -0.12730925615803718, -0.2361995387719566, 0.16965795905052428, 0.3356501460706796, 0.14482253523400898, 0.26792201712751196, 0.2242228709332634, 0.2866322584764055, -0.3609326102700907, 0.27824588758480845, 0.310197062753288, 0.16432492395392018], [0.11809189371173584, 0.3651726768113869, -0.4261151663736162, 0.05819801783936659, -0.26794306448472827, 0.021407242584144993, 0.05562347507621051, 0.19714077408204475, -0.08405407420252073, 0.2257065248371859, -0.10793685847252009, -0.04282752427496225, 0.02279169248612363, 0.4039817532078265, 0.13081750465986572, 0.7568393466853476], [0.16038739908852248, -0.08786492868129035, -0.06699292478738177, 0.009611465907593313, 0.30272245410572685, -0.04812932092849868, 0.04239608933336054, -0.3005452656614041, -0.0011744553516324402, -0.05333651749464463, 0.44184515656526513, 0.03955463462602659, -0.27195301630058344, -0.04714326646236478, 0.016485400516571016, 0.18626462482469344], [-0.018373235437752006, -0.1374906075245759, 0.05398788903493897, 0.27378024218515445, 0.3195564283594431, 0.21451897768434716, -0.31161681810408653, -0.16423841591879607, 0.1558134464842715, 0.3265636281941136, 0.3129806282573955, 0.291623891697495, -0.17373446484072416, -0.047513149798081786, 0.2543605165515496, -0.03250620647099394], [0.02663285194920161, -0.07559529629198572, 0.010773705083989615, 0.25864530412836206, 0.002841786300220638, -0.1434290413117252, 0.2873819960780138, -0.0644257493923141, -0.20255503774027228, -0.04512565826769307, -0.5923023355331702, -0.24911631140267168, -0.2301731287134227, -0.05982349101103325, -0.05171458769033532, 0.3208226118600728], [0.10042466100295105, 0.4999165263248436, 0.04377482152681663, -0.018398806926022596, -0.4139863384594327, 0.15754036830670753, 0.048865637309574265, 0.356227072127963, -0.009175871514315554, -0.2779625439257493, -0.03804169376256594, -0.1230259775219234, -0.03214210828097642, 0.36153544955798206, -0.014665791425952321, -0.01181599249094785], [0.09924492084574761, 0.1121116775659235, -0.07777241647980612, 0.22780085118739943, 0.198406599942276, 0.06741657169917903, -0.23515586422383042, 0.11155273330346044, -0.10662330668440935, -0.24247039759178377, -0.11387801944483232, -0.24233390607128216, -0.3291727513438976, 0.11782517005533688, 0.2719446603005649, 0.07367647286572471], [-0.11336984814362193, 0.0902136815269902, 0.09696660112934317, -0.042846648520591335, -0.03137861977228001, 0.48759998357436146, 0.032227919391208, 0.22061342411851764, 0.20046906138391052, 0.054286199534837626, 0.0017027791740698648, -0.17402441722457498, 0.4570451435997818, -0.3870904825456201, -0.15871028047375607, -0.024505967895956656], [0.17027215467141865, 0.0887992696630625, -0.1347457762480097, 0.12040156139961047, 0.2672429927527935, -0.016938218645214817, -0.3872360649121833, 0.14929759904399204, 0.31222781257424276, 0.08033582835807818, -0.23166895682716201, -0.35576525525688824, -0.053014775047643486, 0.413023546397792, 0.25733967106834155, 0.09776960776410853], [-0.1035422480630551, 0.017867223080199685, 0.39110931941164034, -0.19454092537236603, -0.1510671744426619, 0.14509312145773215, -0.3533459173937851, 0.2644259106478405, 0.2469511641958843, 0.23093330553984562, 0.23844849219413078, 0.13368727372084074, -0.31605804345653776, 0.45309080910332716, 0.02858045498584336, 0.10910403857773354], [-0.013097952641043051, -0.057244235228720936, 0.035758584646584345, 0.3147257792180969, 0.08086654083007926, 0.27538910759952656, 0.2470745893814973, 0.14613503055608099, 0.4864983564889856, -0.15632911875284305, -0.21474864813965647, -0.06503339466755283, 0.05172037124971567, 0.21716501217847334, -0.26222134989895873, 0.214059313077889], [-0.0661184955678119, -0.1505474551913371, 0.1201687595847525, 0.20101339178933517, -0.03617961478363546, -0.3241916338133047, 0.14768279912279172, -0.3236796642924332, -0.23674433184291688, -0.25155071989588085, -0.4592348816138131, -0.09270705317615714, -0.21244007603491388, -0.24416341747358303, 0.03404771854972155, 0.20645722658342933], [0.0187074052757887, -0.2885872979462322, 0.20130902288729663, -0.3760903060291775, 0.0852406328519576, 0.04636359189828, -0.15160598402032505, 0.14064616514282885, 0.47714313399698177, 0.07455257877645974, 0.21052840451910868, 0.25465539354966393, 0.0698919131186218, 0.25116679075047194, -0.18685188520911325, -0.09628478245705364]], "layer0.mlp_fc2": [[0.1765959359251133, 0.29404699972735965, -0.06190729328292729, 0.09302665330005207, -0.273067677346575, -0.27852698891206906, 0.5904902577978334, 0.22812104240909195, 0.09047875147767205, -0.21413639310652915, -0.2050227501095637, -0.1251463834761769, 0.11388648337272715, -0.30276358687841143, -0.04062018453941471, -0.03806068789064777, -0.2698740706422339, -0.23013029324012388, 0.19426953270063732, -0.386010257638631, -0.17321702025678704, -0.15895655050107962, 0.22925511559121764, 0.012821485608345425, -0.06879420439059149, -0.25094593459186676, 0.09929410267345604, -0.1586905282186095, 0.13629087850361588, -0.19690734433587095, -0.0601064910189962, 0.2914411255181106, -0.3144000773463273, 0.265781501968969, 0.3028099038267765, -0.150013068134993, 0.22595103397596752, 0.04485220300804477, -0.21645222507982334, -0.2731356818963984, -0.1374213147287317, -0.06684193518103938, -0.24613531108891679, -0.14248843594965951, -0.05301300857855651, 0.22040096166110296, 0.2714523704245325, 0.2189365161541557, 0.2559643253981175, 0.399769754530215, -0.15666404776723994, 0.19567916991236048, 0.5199281384857096, 0.23652199483273859, 0.05582166479672728, -0.2167191406101197, 0.1833610806281278, 0.024312623620512924, -0.37207267866738253, 0.18982135628151922, -0.11897861066307681, -0.23397366200442404, -0.1603475284124956, -0.041098066209905894], [0.09359560756701535, 0.15106627407980866, -0.037236694727048734, -0.19973621664051422, -0.49725882779950253, -0.02488416338522485, 0.036698946462508, -0.14968447772616775, -0.04854550309283271, -0.018562486705200863, -0.12590571419101776, -0.014076221578139437, 0.18240857657978532, 0.19841857763222356, 0.13107379156367308, 0.305073484446411, -0.10493986570205924, 0.04142180733691622, 0.017989037784259487, 0.26695947290832134, -0.2522606997206163, 0.4847017835903122, -0.011554678525247868, -0.028337549666819836, -0.04227052173441761, -0.027414998053241033, -0.10236249842373026, -0.12696495091286938, 0.10492726526053055, -0.021599002724531996, -0.07015659559190143, 0.30443500331521745, -0.0096410581634787, -0.162538184836834, 0.1829555086620207, -0.18684669234732082, -0.1951005215247163, 0.2798548696876717, -0.022076584563815126, -0.23888913356733904, -0.058478733613895724, 0.1957150387832703, -0.20674137513146257, -0.06905659646119756, 0.04735463141938513, 0.11386625436488136, -0.08210852799007301, 0.003923650493044267, -0.07308140845904733, 0.1424466698371606, -0.12344538546047508, -0.07304452213470622, 0.6756590955844369, -0.2631056548394616, 0.1010727474097586, -0.32623830269183623, 0.04206831059674257, 0.21042838454812454, 0.01338139588525411, 0.12211257398473972, 0.09622976577959595, -0.10591987611009013, -0.11681251651819376, -0.40409103462962503], [0.32334768926271973, 0.14766871053137062, -0.006843649159599353, 0.27097063108493497, -0.08285513346419165, 0.06746943434469609, -0.13122820077306452, 0.13535632311573018, -0.0655945494556233, -0.04890881251200525, 0.2407607388928806, -0.13477079261418456, -0.15383731859419394, 0.06344067692996129, 0.19767294593374257, -0.10779892328832258, 0.06838564994521065, -0.07727643856442001, 0.266699683493427, -0.3173521423123481, 0.12348138088169221, 0.19303105508673768, -0.04572192628259616, -0.059807067960790744, 0.1367583162710848, -0.035361139120597504, 0.1729373256259792, 0.14649314939779498, 0.32215302761584125, -0.2106138266825263, -0.02110284974479288, -0.045265270581081846, -0.10419303923535372, 0.015519456787137583, -0.09794928805618172, -0.21547858841193526, 0.08067519044481276, -0.1928053508875264, 0.18518769457269815, -0.11344820884419536, 0.037828051515881485, -0.3305535152142802, 0.014929035895969629, -0.12877438770276226, -0.07341581381471153, -0.1578825408562846, 0.38618023125313033, 0.293286834077533, 0.1066774996413959, 0.19948234011543936, -0.13928267249103604, -0.006679909477154053, -0.021783882459899408, 0.37674203882165885, 0.21847748398132358, -0.010759489376636396, 0.42305876348086685, 0.0038818171376740194, 0.1456253107719256, -0.08424906774091467, 0.08603498360554886, 0.1784840233245224, -0.09933322522573185, 0.21066863975178932], [0.5476951157932659, -0.02784127600468134, -0.12529222181197971, 0.08754911018096714, -0.18641331442080836, -0.08910692362473097, 0.6889003351990831, 0.0038885808065618594, 0.5380584792274097, 0.10861532873583683, 0.3772808437031187, -0.09560875975406352, 0.1217146084413764, -0.10454592080820278, -0.0022997372689018874, 0.2674093202601115, -0.03056662863875955, 0.017665583439088958, -0.02229136103567724, -0.18695487251436135, -0.054274262251055576, -0.06988871969258528, -0.16478226904740795, 0.3620916004084731, -0.09663664922734642, -0.12509259234169454, 0.22433751169189942, -0.0931982025885716, 0.261327802311573, -0.19736717487092742, 0.1361453929208949, 0.23527844337754233, 0.1722883729741059, 0.27514418829166504, -0.20744141577186878, 0.01213776418681224, 0.32442142326594586, -0.06821048820191077, 0.10842719569761147, -0.02736983460381642, -0.347173576106835, -0.2446171076003141, 0.12415668964913326, 0.026110612140731366, -0.13663818500558314, 0.22321691868982008, -0.3462294802688062, 0.35355142425666186, -0.08456198919476779, 0.588586727283754, 0.008792601501056665, 0.12030695769780772, 0.09583897020580964, 0.08287175741829829, -0.1003949370859317, 0.12748684200410473, 0.15872516331654982, -0.07316427269843505, 0.2221820072936962, -0.20363319657640572, 0.19284418686616367, 0.0660355591756336, 0.06904738006777557, -0.24413472529471003], [-0.10451820893729792, -0.3206564492868836, 0.19704675358823093, -0.10472922371896348, -0.3931251890813134, -0.07723759437018758, 0.17109840265811405, -0.16923299064909747, 0.14957672849228934, -0.2557143158566805, 0.2311940313489473, 0.19178552407442637, 0.33405566699031697, 0.0919960533323305, -0.05060478124294761, 0.17788319754818807, 0.14524707205569434, 0.18395862441815944, 0.04800763011530555, 0.46748388177700445, 0.2197247036202579, 0.13815233262118434, 0.0022771253553425103, 0.29478753474638625, -0.008320151872326521, -0.004126974624990957, 0.44712382576455334, 0.11057142554613206, -0.1068895631397779, 0.14520244974794283, -0.0505703145082857, 0.1118508389178331, -0.1129069881168165, -0.2973179551884826, 0.17448372014644065, -0.16400178886371442, 0.15191401859183187, 0.12868038509029717, 0.3243523000290503, 0.16650961482556084, 0.3430377743042357, 0.11184113305822009, 0.047148605932795164, 0.073629405732641, -0.16930953652585143, -0.05157265695751367, -0.01115487936461358, -0.1549980872786789, 0.09581654373514119, 0.28502858187765745, 0.2183521591213476, -0.04756669372204008, -0.02134871593559464, 0.06162855806070067, 0.2257315733126013, -0.12203883402290105, -0.18711647411457746, 0.20414391099991147, 0.288384915234261, 0.10124047540578197, -0.05073017009403493, 0.09324640393323023, -0.23141803008904543, 0.11194300772254122], [0.2546700712958149, -0.11495424185923826, 0.492251471362374, -0.2661089263804619, -0.14960682984187254, 0.00926383590278841, -0.3078564922628521, 0.1720417717981467, -0.24265759225376693, -0.43058455125932527, 0.31244042278780215, 0.13687274034003907, 0.223406852770887, 0.06965341160530096, 0.1183185096043555, 0.3218755172329148, 0.1533692347307359, 0.24962186480754103, 0.20285333763534774, 0.08517923991187845, 0.2854919568841431, 0.33812583206475855, -0.1190956357677627, -0.3922392741241729, -0.25098476084139176, -0.3355549849756827, 0.07201019951099909, -0.41353416422409145, 0.2318678587537141, 0.16273482674468348, -0.4342851363797194, -0.1598521154786673, -0.12451696307037748, -0.33569195846019434, -0.06910846278533328, -0.5221623865654295, -0.1948524820708691, -0.042432012856772366, 0.21697439560759127, 0.21607615191120094, 0.07998482255960514, -0.03173844194210829, -0.053184029449536804, 0.15815761505617146, 0.025201668134683795, -0.2097819991198254, 0.20061239635194406, 0.21083441031596203, -0.16249809371424137, 0.17415880647996976, -0.5825330580930392, 